tree
version=v3
num_class=1
num_tree_per_iteration=1
label_index=0
max_feature_idx=17
objective=regression
feature_names=site_id building_id primary_use meter wind_direction is_holiday square_feet year_built air_temperature cloud_coverage dew_temperature precip_depth_1_hr floor_count beaufort_scale weekday_sin day_sin hour_sin month_sin
feature_infos=-1:13:9:2:14:3:15:5:4:6:8:1:10:7:0:12 -1:1249:1294:1259:1297:1296:1298:1241:1295:1301:1293:1248:1232:1318:1107:1258:906:253:1233:885:1234:1284:961:801:886:955:169:249:976:1157:1148:787:803:1154:191:1246:1252:163:210:225:901:997:1185:1266:166:914:932:964:1119:1143:960:1310:1324:209:236:899:1098:212:284:1080:1162:967:995:1104:1273:1168:1207:1242:771:911:971:255:279:879:910:946:948:991:998:1140:1254:799:981:179:931:957:1129:240:918:979:1121:1158:1276:206:250:800:895:953:1109:183:216:226:774:926:973:1159:1163:945:958:1224:1275:1307:1321:224:888:896:942:954:1073:1169:1230:1243:1271:176:195:287:965:1139:1219:1225:1238:1247:1268:221:791:889:922:1218:1245:1319:263:802:903:963:1032:1240:1262:1317:898:925:983:993:1210:1253:1260:1265:1283:1290:1308:247:915:962:987:1094:1274:1288:1302:1309:217:220:254:894:900:921:1151:167:215:264:905:920:1150:1244:797:890:893:951:968:1176:1214:1237:187:228:248:794:798:907:916:1291:1331:908:913:949:1270:1286:190:203:260:753:765:1152:1289:177:994:1097:1255:959:1079:1206:1223:1227:1251:239:246:972:974:1164:202:1236:880:887:1003:1133:1235:1272:1292:175:213:776:956:992:1031:1303:924:927:1022:244:747:952:969:978:1211:750:996:1212:1312:168:795:989:1090:1093:1220:1229:1250:1322:928:1018:1311:1287:767:201:1191:1228:1299:1088:1156:1285:1323:875:1300:929:917:1028:770:980:1239:1269:796:192:912:1189:1226:171:200:793:966:1167:1263:878:1092:234:769:1306:1000:184:1017:1030:114:1009:1267:1379:161:1391:290:759:1008:1197:205:876:1084:1329:1381:1117:1348:252:1172:1180:1332:173:762:923:1111:170:229:259:281:1144:1161:1343:162:181:271:1095:784:1015:1078:1099:1174:1216:1396:198:207:232:1377:1382:282:874:1124:1358:139:194:265:1012:1091:1102:1160:1013:1178:1127:1208:1384:780:1021:1147:1336:231:1193:1198:1280:1345:777:1339:1386:121:883:990:1029:1086:1196:1341:106:238:267:1101:1108:174:208:792:1075:1342:1383:138:180:285:764:1142:1326:178:204:256:268:277:1085:1203:1366:117:214:758:1105:145:233:935:1011:1149:1187:1337:1355:172:766:891:1217:1256:1347:222:237:1130:1375:933:975:113:197:1001:1305:1351:273:1179:1400:1106:1137:1186:144:257:789:1074:1077:1136:1171:1209:1344:1350:1184:1083:1126:1264:119:189:286:755:1201:1231:112:235:778:1089:1076:219:258:1315:1394:245:109:1146:1200:1363:1390:748:1122:1072:1367:790:1202:188:934:1070:1405:751:745:1177:1360:1409:1433:1410:270:1364:1412:1100:1424:1353:1333:1380:1406:1411:1436:1401:1425:1389:1359:1414:1334:1369:1413:1357:1395:1430:218:1398:1352:1378:713:1338:1376:1328:1362:321:1387:1392:1404:1408:1427:1442:856:1407:1368:1417:1316:1420:165:495:812:1438:493:561:1081:297:305:373:385:410:438:440:533:384:592:760:1437:527:230:458:475:562:597:632:820:897:950:1059:1354:155:394:578:587:707:1040:1042:1418:314:524:615:653:677:695:703:716:727:781:806:809:1431:132:471:618:697:700:725:827:850:243:310:463:633:690:838:1036:1434:14:108:122:153:193:261:275:390:426:469:472:571:864:881:1052:1066:1120:1278:1304:146:149:298:323:351:366:449:465:468:480:516:731:737:854:943:1039:1087:1116:131:152:306:309:423:453:476:512:521:531:552:594:642:645:702:726:930:1016:1115:1155:1204:127:395:445:537:659:749:836:1010:1050:1132:148:242:251:274:288:326:331:406:489:490:511:526:540:541:554:564:635:655:691:717:718:742:756:788:845:877:1002:1035:1113:1279:1346:31:123:266:272:303:307:344:408:430:457:478:479:485:487:617:648:710:825:865:1060:1103:1175:107:136:241:313:361:383:391:397:412:419:425:427:444:447:494:547:548:575:598:637:651:672:722:746:985:1004:1046:1047:1056:1058:1063:1361:1402:164:278:295:317:365:367:417:466:498:570:582:603:619:622:701:739:982:1025:1153:137:196:316:328:358:422:456:470:483:507:530:544:569:596:610:612:631:634:654:660:675:686:715:785:831:871:1033:1065:1277:9:262:269:308:350:418:446:462:500:556:560:565:620:624:649:662:665:668:671:711:782:816:819:829:833:842:988:1023:1069:1213:1320:156:296:320:335:338:347:356:363:377:433:434:503:513:558:601:698:743:808:830:867:870:902:1026:1048:1068:1134:1145:199:322:381:473:497:506:517:553:572:585:599:640:650:657:658:723:733:736:779:814:823:843:860:1038:1045:1055:1112:1170:1182:1314:110:118:135:143:157:311:319:324:334:337:399:459:536:545:576:588:600:646:684:685:688:724:741:761:811:859:1043:125:150:294:333:411:437:439:443:461:467:481:538:605:606:661:664:699:719:804:810:826:840:872:939:947:1110:128:133:302:315:341:349:362:372:388:414:424:429:441:442:448:492:509:529:614:623:627:652:676:687:704:709:738:744:834:835:936:940:944:977:1067:1118:1205:1261:15:126:151:158:336:354:368:435:474:496:539:543:550:846:1061:1135:1173:120:227:291:301:312:330:339:346:353:502:670:681:734:807:866:892:1014:1041:1054:1114:1131:1215:1423:50:130:140:293:370:375:392:482:579:616:641:708:754:818:1020:1053:1071:1082:116:134:142:160:289:327:329:340:348:398:402:501:589:674:679:732:773:775:855:862:868:919:1034:1049:1165:1257:1313:76:92:159:352:382:416:421:455:477:525:630:666:720:721:813:837:847:938:1166:111:124:185:211:223:325:343:359:374:393:452:514:580:673:714:768:817:832:848:863:882:884:1044:1062:60:82:129:386:387:520:535:557:584:629:656:663:683:696:730:772:805:873:1190:1194:78:154:182:300:360:396:401:407:431:499:549:559:566:595:628:643:644:682:706:740:815:869:904:970:1181:147:332:409:413:436:488:504:510:518:519:532:694:821:822:849:999:1007:1027:1096:1123:1138:1141:1183:1221:1282:357:378:380:415:450:451:464:508:551:689:729:853:937:1199:43:342:345:364:400:432:534:636:639:669:678:680:841:986:1019:1037:1051:1222:299:355:369:379:428:546:563:573:590:609:693:852:1192:1195:115:276:371:389:405:460:574:577:667:692:705:728:824:858:1403:141:280:484:523:581:712:851:96:186:292:304:583:1188:1448:13:28:105:283:454:491:515:608:735:839:909:1125:1128:1393:7:75:404:542:602:625:757:984:1064:1374:1385:1428:30:95:103:1415:1435:1439:318:505:861:1441:1446:55:91:97:486:786:844:857:941:1057:1370:1432:1440:1327:1365:626:638:752:1373:376:586:1325:1372:1419:1388:1444:522:1445:828:1399:29:1416:611:1397:1340:1335:1429:1422:1330:1349:1421:613:1371:593:1024:1356:1443:1426:1447:420:1005 -1:0:6:1:4:9:3:7:8:5:2:15:12:13:11:14 -1:0:1:2:3 -1:0:300:170:290:310:270:180:280:190:160:320:330:260:200:150:140:340:210:100:130:250:80:350:230:90:220:120:360:110:70:240:60:30:10:20:50:40:175:165:185:155:55:145:205:105:195:265:75:135:125:15:95:5:275:115:173:85:45:176:25:113:285:215:315:325:156:116:225:35:65:255:106:186:36:153:335:196:226:166:26:295:152:223:53:103:13:162:163:182:206:126:245:305:133:146:235:22:143:158:183:355:96:172:216:154:167:193:345:73:157:23:32:86:128:316:43:313:42:123:194:93:97:203:47:91:188:66:6:56:233:336:16:52:83:192:197:273:276:306:33:136:177:213:263:283:164:202:232:3:236:323:122:246:18:72:142:178:24:37:141:168:191:212:343:17:63:78:124:181:243:46:286:326:64:114:187:12:27:67:87:88:98:147:174:293:296:303:333:127:144:148:21:31:94:82:266:38:76:77:102:112:247:253:8:57:134:151:184:207:262:282:92:222:287:28:58:104:137:198:278:44:62:228:288:338:346:4:48:71:84:107:121:132:217:272:291:118:224:268 -1:0:1 [5.64453125:13.6796875] [1900:2017] [-28.59375:47.1875] [0:9] [-35:25.59375] [-1:343] [1:26] [0:8] [-0.97509765625:0.97509765625] [-0.99853515625:0.99853515625] [-1:1] [0:1]
tree_sizes=2827 7188 6407 2971 6513 6879 2943 6543 6993 2947 6712 2955 2977 6853 6346 6190 6120 7180 6351 4806 2948 2998 6235 4594 3033 6786 3905 6490 6931 3054 5229 5560 2913 5535 3107 4091 4288 3910 3033 4513 4665 3699 3437 6776 4285 5249 3640 4097 3330 3729 4142 2975 4684 3987 3944 4072 3891 4241 4140 4184 3902 5246 4312 3610 4706 4173 2959 4203 4011 4462 2944 4300 6851 3098 3069 4114 3185 5734 3968 4812 4182 3195 3609 5028 3776 3729 5128 5745 2986 3927 3153 4190 5283 4192 3865 3682 4072 3941 3703 3634 3613 5148 3399 3421 3781 3591 3798 6367 4043 3192 2891 4008 3087 3486 3699 4487 3867 3844 3965 3907 3822 3976 3821 4350 4234 4251 3798 4212 2983 4142 4014 4098 3289 4457 3613 4047 3595 3840 3200 3643 3760 4271 4991 3908 3917 4120 3858 4917 3552 4142 4349 3701 4848 2983 3277 4997 2832 3879 3079 3620 3175 3880 3771 4461 4054 2994 4369 3878 7372 6141 3806 4051 4365 4098 3716 3968 4511 4205 7127 5059 3869 5127 3752 3632 3409 3107 4028 4463 3129 4329 3614 4830 4519 3588 3491 4031 3019 3851 4126 3996 3778 4466 3026 4125 4605 2940 3416 4427 3867 3911 4052 4864 6259 4317 3342 4713 3212 3970 4418 3838 4186 4468 4373 4266 2876 4135 4257 4352 3459 4594 4794 3535 4420 3643 4352 4150 3695 4743 4042 4027 3205 4302 4126 3841 4555 4130 4199 6909 4393 4107 3231 4476 3280 3300

Tree=0
num_leaves=31
num_cat=18
split_feature=6 6 6 6 0 0 0 0 0 6 6 0 12 7 0 2 2 0 0 2 0 6 2 2 12 2 7 0 0 7
split_gain=2.31632e+06 753761 223059 188184 144315 130177 108758 92201.4 83339.9 81125.3 79932 55858.4 52713.9 50757.1 49391.6 47943.8 40389.2 40024 39616.3 33264.1 39049 32617.2 83716 32288.9 31025.4 30455.9 27846 26646.1 26369.2 23499.2
threshold=11.480468750000002 9.6367187500000018 12.042968750000002 10.808593750000002 0 1 2 3 4 8.4179687500000018 12.699218750000002 5 23.500000000000004 1922.5000000000002 6 7 8 9 10 11 12 12.472656250000002 13 14 2.5000000000000004 15 2000.5000000000002 16 17 2009.5000000000002
decision_type=2 2 2 2 9 9 9 9 9 2 2 9 2 2 9 9 9 9 9 9 9 2 9 9 2 9 2 9 9 2
left_child=1 7 4 6 19 18 -3 25 10 -9 13 28 24 -4 -6 -7 -13 -11 -5 20 -2 -15 27 29 -10 -1 -17 -23 -8 -12
right_child=2 3 8 5 14 15 11 9 12 17 23 16 -14 21 -16 26 -18 -19 -20 -21 -22 22 -24 -25 -26 -27 -28 -29 -30 -31
leaf_value=3.7725797052682624 4.7969067932742631 3.6932670950116715 3.1925180662073496 4.5712161203004964 4.3230606192894081 4.521637046029289 4.426443971424697 3.5038712635490752 4.1435592300640298 3.5801708210054244 5.0440212618559199 4.2420064227567122 3.6488522688087714 4.6168332803990584 4.1644970137427171 4.0664711885906337 3.9541870609226542 3.8091242566293788 4.2550189327016383 4.3903822308325484 4.4897582387149555 4.9100700777662976 3.9402282144870919 4.6332619139593305 4.4740439476772025 4.1990653428866693 4.3316390736659871 4.4856814642256415 4.0939892037307466 4.6207089206939251
leaf_weight=15178 44390 60788 1710 26282 358993 15770 15504 97477 18652 59054 39806 33047 5096 186135 186594 505563 391166 250478 426752 64746 62227 11104 17360 31581 368099 33651 26024 55612 383668 10329
leaf_count=15178 44390 60788 1710 26282 358993 15770 15504 97477 18652 59054 39806 33047 5096 186135 186594 505563 391166 250478 426752 64746 62227 11104 17360 31581 368099 33651 26024 55612 383668 10329
internal_value=4.18456 4.0302 4.43126 4.09998 4.3317 4.17425 4.01595 3.74172 4.52701 3.70278 4.61501 4.03978 4.44757 4.54986 4.26883 4.0922 3.97661 3.76541 4.27337 4.53183 4.61769 4.55845 4.42921 4.83184 4.4581 4.06644 4.07946 4.55643 4.10691 4.95667
internal_weight=0 2.3404e+06 1.46243e+06 1.88456e+06 716950 1.00039e+06 884173 455838 745484 407009 353637 823385 391847 271921 545587 547357 424213 309532 453034 171363 106617 270211 84076 81716 386751 48829 531587 66716 399172 50135
internal_count=3802836 2340402 1462434 1884564 716950 1000391 884173 455838 745484 407009 353637 823385 391847 271921 545587 547357 424213 309532 453034 171363 106617 270211 84076 81716 386751 48829 531587 66716 399172 50135
cat_boundaries=0 1 2 3 4 5 6 7 8 9 10 11 12 13 14 15 16 17 18
cat_threshold=20627 49563 32 49153 24953 20811 41480 4128 19108 48 257 2057 16385 593 73 2051 16384 1
is_linear=0
shrinkage=1


Tree=1
num_leaves=31
num_cat=28
split_feature=6 1 1 1 3 1 1 1 1 1 1 1 1 1 1 1 1 1 1 1 1 8 1 1 1 3 1 1 3 3
split_gain=1.33001e+06 640119 513494 350366 343715 540411 354421 325538 310012 261953 237095 208842 196015 151556 125922 119243 118296 101459 99122.8 86811.4 84494 77528.5 77269.2 71911.9 65890.5 61313.5 74740.6 56521.5 53855.6 53246.2
threshold=10.964843750000002 0 1 2 3 4 5 6 7 8 9 10 11 12 13 14 15 16 17 18 19 15.652343750000002 20 21 22 23 24 25 26 27
decision_type=2 9 9 9 1 9 9 9 9 9 9 9 9 9 9 9 9 9 9 9 9 2 9 9 9 1 9 9 1 1
left_child=3 25 29 -1 7 21 -7 28 -5 -8 -9 -11 -10 -14 -12 -15 -13 -17 -16 -19 -20 -6 -18 -21 -22 26 -2 -25 -4 -3
right_child=1 2 4 8 5 6 9 10 12 11 14 16 13 15 18 17 22 19 20 23 24 -23 -24 27 -26 -27 -28 -29 -30 -31
leaf_value=0.38632175166896715 0.017679770110448877 1.0017454665952468 0.91161651647190167 -0.77881520433093832 -0.98595090245369532 -0.51820557331031425 -0.35697984519633086 -0.2562611568388472 0.18984453828476608 -0.192975039029184 0.5024730251672046 -0.036805528392461491 -0.58762266317042466 0.11181099817420677 0.44104348711938884 -0.50236629789247889 0.55287252916206842 -0.44876038428509951 -0.11591426891206917 0.052052485749533479 -0.065707234253486999 -0.3438088417795363 0.24873320670972598 -0.40616428996396553 0.18724645824503425 -0.6866508313723767 -0.60993560986598916 -0.17171447347052612 0.50728708010903745 0.59409936098471139
leaf_weight=65693 23962 28519 33777 56334 36691 62900 66772 78549 83872 82230 76446 76540 61440 79010 79050 67775 64805 74276 69349 84511 69203 17292 269011 69177 919506 51772 23474 906775 53083 67935
leaf_count=65693 23962 28519 33777 56334 36691 62900 66772 78549 83872 82230 76446 76540 61440 79010 79050 67775 64805 74276 69349 84511 69203 17292 269011 69177 919506 51772 23474 906775 53083 67935
internal_value=0 0.122382 0.15101 -0.178615 0.12455 -0.0214447 0.0443859 0.196145 -0.203639 0.107659 0.164648 0.17065 -0.180924 -0.204081 0.191894 -0.185688 0.243519 -0.205236 0.171009 -0.187484 0.15083 -0.780128 0.307794 -0.169179 0.169541 -0.498466 -0.292964 -0.188337 0.664616 0.714733
internal_weight=0 2.25087e+06 2.15166e+06 1.54886e+06 2.0552e+06 676241 622258 1.37896e+06 1.48317e+06 559358 1.2921e+06 492586 1.42684e+06 1.34296e+06 1.21355e+06 1.28152e+06 410356 1.20251e+06 1.13711e+06 1.13474e+06 1.05806e+06 53983 333816 1.06046e+06 988709 99208 47436 975952 86860 96454
internal_count=3799729 2250866 2151658 1548863 2055204 676241 622258 1378963 1483170 559358 1292103 492586 1426836 1342964 1213554 1281524 410356 1202514 1137108 1134739 1058058 53983 333816 1060463 988709 99208 47436 975952 86860 96454
cat_boundaries=0 46 90 136 137 181 225 268 314 358 404 448 493 537 582 628 672 718 762 807 849 891 936 980 981 1025 1070 1071 1072
cat_threshold=0 2048 0 0 0 65536 0 1310720 0 67174400 524288 0 0 0 0 268435456 524288 1048576 0 0 0 0 0 0 2147483672 268435456 0 0 0 67108864 0 2099200 0 327680 67117056 71307264 1073742080 8519680 0 0 0 1073745920 0 524288 0 256 2684371072 0 2147487744 1 0 0 2147483648 0 0 0 0 8388608 0 0 0 0 0 4100 0 4096 32 0 0 0 327680 2 0 32 0 0 0 2 0 1073741824 16779265 268435456 65552 268435456 0 1024 2576 262144 0 512 268435456 8650752 0 1064960 67108864 0 524288 0 536870912 0 0 0 1048576 1073741824 0 67108864 0 128 0 0 1 0 0 18956288 0 0 0 512 64 0 0 0 0 0 0 33554432 0 1056768 0 0 524292 0 8388608 0 2252603392 130 5 0 0 0 0 0 0 4194304 0 8 0 0 0 0 0 0 0 0 0 0 0 0 0 0 536870912 537396288 9 0 0 0 0 0 0 0 822083584 1600 1082139780 68 134217730 14 0 1 0 64 1081344 0 0 0 0 0 2048 0 0 384 0 0 0 0 0 0 0 0 0 0 0 0 0 0 0 516 0 0 0 0 0 0 1074331904 144 4194304 2686980 16777218 2049 16777384 0 0 0 4194304 16777217 805322785 0 0 0 0 0 0 1179649 0 0 0 0 8192 0 0 0 0 128 131072 0 0 256 0 0 0 201330688 8 0 0 0 0 0 0 0 0 589840 1049664 402653317 1107296384 16 0 263488 0 24 0 0 0 1024 0 67108864 0 268435456 0 0 33554944 0 0 0 0 0 0 4194304 16392 872415264 0 524288 0 33554448 0 6456064 35872768 0 0 0 0 0 0 0 37748736 0 0 0 32 0 0 0 0 2097152 0 64 0 0 0 0 1024 2147483660 33554432 2101248 4 0 0 0 0 0 0 0 0 0 0 0 0 0 0 0 301993986 0 0 0 0 536870912 0 33554496 320 134217728 2147483648 66048 1024 71303680 0 0 0 134283264 1078591488 128 0 0 0 0 4 0 0 0 0 268435456 0 4 0 8 0 0 0 16384 0 33554432 0 0 537919488 12 0 4 0 0 16 64 2164331520 0 0 64 2147483904 512 0 2097152 4261888 2052 142606336 0 32768 0 0 4 0 0 0 131072 0 1082294400 17056000 604045316 268437504 0 0 0 0 0 0 0 0 0 0 0 0 0 0 0 67109120 0 0 0 0 0 0 67108864 0 16384 0 0 285212672 0 2048 0 0 2147483712 2147794960 33554448 0 0 262144 1610612736 268435456 0 2097152 16512 0 0 0 0 33554432 536870912 526336 32 0 0 0 131072 0 0 0 0 0 8388608 2147483648 0 256 16384 0 0 540672 0 268566528 0 524320 262144 128 73728 67108864 0 33554432 0 268574720 0 0 0 0 65536 4194304 0 0 2147483648 0 0 48 16777216 262272 268435456 0 2705328160 0 0 0 2283798528 268454400 320 2 0 16384 285212672 0 0 32768 0 262144 0 0 0 0 0 536870912 0 0 0 0 0 4194304 0 0 0 42205184 0 0 0 0 0 32 2048 0 0 0 0 0 0 0 0 128 0 0 0 268435456 50479105 0 4194304 131072 0 0 0 4096 0 536870912 0 2282233858 4096 67174400 33554432 32768 0 65536 0 65540 554172416 512 0 268435456 0 536870912 0 0 256 134218752 16 537001984 2097152 0 4194304 2147483648 33554432 0 1024 8388608 589824 268435456 8 0 0 0 0 786432 0 0 0 131072 0 0 0 0 262144 0 0 8448 536871040 139264 1048832 0 0 0 8 0 268435456 0 0 0 4096 268435456 1073775617 33296 0 0 0 0 0 0 0 0 0 0 0 0 0 0 0 134217728 0 0 65536 32 268435456 1082130944 536870912 32 131072 16 0 134217856 0 4112 33558528 2147483648 640 8 2147483648 0 0 0 0 0 672137216 0 64 0 2097152 0 1152 0 0 0 0 201326593 0 0 1207959552 33554432 288 0 32 0 1115168 512 8192 0 0 0 0 8192 8192 0 131072 33554432 0 0 0 0 0 516 0 24 48 0 268435456 0 524288 4194304 512 536871424 1 0 0 4096 0 0 0 134217728 4 0 65536 0 522 8192 0 0 2684354560 536870912 0 0 0 2147483776 167772160 0 0 0 0 538968068 16777216 64 4194304 0 2 0 0 1 32832 0 0 0 0 0 2 10 0 8388609 0 0 524288 537133056 0 0 0 0 0 32 0 72351744 34603010 2179076 0 0 64 67110912 128 0 11264 0 512 131072 0 0 0 512 0 1 4194304 0 0 0 0 134217728 0 0 0 0 0 0 0 524288 16777216 0 2147483680 0 2097664 0 0 524416 0 0 6 256 64 671088704 339738640 0 64 0 0 0 4210692 268435464 0 0 0 144 8388608 8 263168 0 0 0 0 268435456 1073774592 0 134219776 2 0 0 135397376 0 0 0 0 0 0 0 0 0 0 0 0 0 0 0 0 0 16777216 0 0 67633152 2449866880 33554449 134217796 0 0 0 0 0 0 0 33554432 54 8392960 32 0 0 0 0 134217728 0 0 0 33554432 393216 262144 1073774592 320 16777216 33554432 536870912 0 0 16779264 16777216 0 0 0 1024 0 0 0 1 0 0 524288 268435456 262144 67108866 0 0 0 0 536871936 271581184 1073741824 0 256 4104 1024 0 0 0 0 688 0 0 1024 0 33554560 8192 256 0 134217728 0 134234112 262144 0 4194304 4194304 131072 1024 131072 1 4 0 0 12582912 83886080 16 0 524304 0 4096 0 1 131072 0 0 0 2147483648 0 0 131072 1 0 2048 0 0 0 65536 0 1048576 0 0 0 0 0 0 0 0 0 0 0 0 0 0 0 0 8 0 0 0 0 0 0 2099200 0 262144 8192 71303168 256 8519680 0 0 0 1073741824 0 524288 0 0 0 0 0 0 0 0 67108864 16777216 0 0 0 4161 0 0 0 2097152 1048640 2147483648 0 67108864 1124377121 526336 0 33556480 0 320 0 4096 0 0 1 512 0 0 0 0 1075838976 0 0 0 0 262144 2048 4 4
is_linear=0
shrinkage=0.25


Tree=2
num_leaves=31
num_cat=25
split_feature=6 1 1 1 1 1 1 6 1 1 3 1 1 1 8 1 1 1 1 1 1 1 1 1 3 8 8 3 3 3
split_gain=754345 328084 280119 222491 213497 185760 143847 137316 150479 94439.2 93395.5 208557 109736 105523 96914.6 92923.4 83673.1 83396.3 64053.8 56786 56479 51050.7 50568.4 50012.5 46927.9 76248.8 59447.1 44800 44209.9 40343.8
threshold=11.480468750000002 0 1 2 3 4 5 9.9648437500000018 6 7 8 9 10 11 14.949218750000002 12 13 14 15 16 17 18 19 20 21 14.347656250000002 11.050781250000002 22 23 24
decision_type=2 9 9 9 9 9 9 2 9 9 1 9 9 9 2 9 9 9 9 9 9 9 9 9 1 2 2 1 1 1
left_child=2 23 27 -4 -3 -5 -6 15 28 -10 12 14 -8 24 -12 -7 29 -14 -18 -19 -15 -20 -17 -2 25 -13 -26 -1 -9 -11
right_child=1 4 3 5 6 7 10 8 9 16 11 13 17 20 -16 22 18 19 21 -21 -22 -23 -24 -25 26 -27 -28 -29 -30 -31
leaf_value=0.62445257479092653 -0.84739627847916366 0.54682028858558485 -0.60028099589466855 0.25735044645164606 0.39938717029912507 0.058908520406384737 -0.12199641468082169 -0.23059479984383699 -0.29832362521604383 -0.14056648979311256 -0.6439447436472614 -0.38015940890246352 0.43875849810426532 0.37702164765463214 0.095532903758629398 -0.057088365063479515 -0.20534680437973071 -0.037211571619916291 0.1829776638265562 0.19784109261941538 0.10334047689481686 -0.012529279184962329 -0.28042920164180946 -0.22467051219857176 0.32860900568250112 0.24903651790843376 -0.62337266810260439 0.22699413299704627 -0.58268165838186881 -0.47999964897358283
leaf_weight=30745 8753 90014 54940 91688 128148 70403 72488 53439 88091 66467 39037 21085 81542 63439 15464 74289 100469 73083 90525 530815 183336 1070338 431667 101105 5100 28051 20884 41944 38298 32643
leaf_count=30745 8753 90014 54940 91688 128148 70403 72488 53439 88091 66467 39037 21085 81542 63439 15464 74289 100469 73083 90525 530815 183336 1070338 431667 101105 5100 28051 20884 41944 38298 32643
internal_value=0 0.141102 -0.0878592 -0.103374 0.174851 -0.091009 0.148325 -0.106101 -0.0671491 -0.0474822 0.119958 0.01816 0.17051 0.0947372 -0.434045 -0.210196 -0.0312373 0.201446 -0.0138566 0.169395 0.173711 0.00271788 -0.247639 -0.274369 -0.164682 -0.0209539 -0.43634 0.395178 -0.377638 -0.252406
internal_weight=0 1.46234e+06 2.33595e+06 2.26326e+06 1.35249e+06 2.20832e+06 1.26247e+06 2.11663e+06 1.54027e+06 1.44853e+06 1.13432e+06 376396 757928 321895 54501 576359 1.36044e+06 685440 1.26133e+06 603898 246775 1.16086e+06 505956 109858 75120 49136 25984 72689 91737 99110
internal_count=3798290 1462344 2335946 2263257 1352486 2208317 1262472 2116629 1540270 1448533 1134324 376396 757928 321895 54501 576359 1360442 685440 1261332 603898 246775 1160863 505956 109858 75120 49136 25984 72689 91737 99110
cat_boundaries=0 44 90 136 180 226 271 316 360 361 405 451 495 540 585 629 672 716 758 803 846 876 877 878 879 880
cat_threshold=0 0 0 0 0 2048 0 266240 0 67174400 0 0 0 8 0 268435456 0 0 0 33554432 0 0 536870912 0 2147484672 268435460 0 0 0 603979776 0 33554752 0 268500992 1024 4199936 0 512 4 0 0 1077936128 1073774592 524288 3221274624 262144 134217728 0 4194304 0 134217728 0 536870912 0 4096 0 0 16 0 67109376 0 301989888 0 0 0 0 0 268451840 1 0 4194304 0 0 0 0 4096 0 0 16384 33554496 0 1073152 0 0 4100 6 0 65536 0 2 0 0 0 0 0 71303168 0 268435456 0 0 33554432 32 0 0 0 0 0 4194304 16384 872415264 0 0 0 33554448 16 6456064 35872768 0 0 0 0 0 0 0 104857600 0 0 0 32 0 0 0 0 0 0 320 536871040 0 2147487744 3 0 0 2147483648 0 0 0 0 8396800 0 0 0 0 128 135172 0 4096 288 0 0 0 327680 2 0 32 0 0 0 2 0 1073741824 2049 0 144 0 0 1024 2576 262144 0 512 268435456 8388608 18432 75517952 67108864 16384 2048 0 0 0 0 0 1048576 1073741824 0 0 0 0 0 0 1 0 0 2147483648 0 0 0 0 64 0 0 0 0 0 2 0 269484032 0 2164260864 0 17301512 2048 1048576 1026 4456512 128 0 0 0 0 0 0 1179648 0 0 32 2048 0 8388608 0 0 0 0 0 128 128 0 0 0 0 16924672 0 0 655360 2147483776 0 0 0 0 0 16777216 270008320 65536 1375731712 33554432 32786 1344 32 0 0 537395200 0 0 0 0 65536 135266304 0 0 2222981120 0 0 1024 0 262144 0 0 524288 0 32 0 0 590338 1073758468 0 0 64 0 0 1073741824 0 0 2099200 0 0 0 131072 768 536875008 0 0 0 4096 516 0 2064 0 2048 0 0 0 0 0 16 0 0 0 0 0 0 0 1 0 536870912 0 8388608 262148 2147483648 151300130 526336 0 0 0 0 0 0 0 131072 538968065 262144 8320 67108864 0 131072 1142947840 0 33554432 0 0 256 5 0 0 0 0 1024 0 0 0 0 0 0 0 0 0 0 0 0 0 0 0 0 0 0 0 839385600 8 0 0 0 0 0 0 256 16777216 2687492 1090519040 69 16777386 0 0 0 134217728 16908353 805306369 0 0 0 0 0 0 0 524288 16777216 2048 0 0 0 0 0 524288 2 1 2 257 2048 536870912 71303184 8 0 0 0 33554432 16 64 16798720 0 0 0 2147483648 0 131072 2097152 4259840 4 8388608 268435456 0 131072 0 4 0 0 0 131072 0 1082294276 50348288 1140916224 268435456 0 0 0 0 0 0 0 0 0 0 0 0 0 0 0 201330944 0 0 65536 0 0 0 0 0 134234112 2147483648 0 16777216 4194304 0 0 0 65536 2148270096 33554576 0 0 268697600 536870912 537001984 0 0 0 2097152 131072 0 98304 0 33554432 0 541065232 2097168 0 0 0 0 8 0 1152 0 67108864 2148007936 1 0 0 131072 0 16384 0 268435456 0 2097152 262144 0 8388608 16384 0 268435456 0 268566528 0 0 0 0 262144 65536 0 2148532224 8 0 524288 0 0 256 0 0 0 1048576 536870912 2097152 0 4194304 4096 71598080 72 0 0 0 0 0 1048576 1075314688 134217728 0 1073741856 4 1073750016 8388608 2 0 0 0 0 0 384 0 0 0 262144 0 256 1 0 0 0 0 0 0 0 0 0 0 0 67108864 0 514 0 0 0 771756032 8 0 1024 0 0 0 0 256 131072 589840 2281701376 134221829 128 16 0 262144 65536 24 132 0 0 0 2147549184 2048 524288 12582912 512 16512 268436480 0 0 0 0 32928 0 0 0 4096 0 16777216 2097152 0 4 0 0 32 536870912 65536 0 100663296 65568 16 0 0 65536 32768 0 0 256 1 16777216 8192 0 0 0 0 1 0 0 1024 8192 33554432 0 0 268468224 134217728 0 0 262144 0 1040 0 131080 8388612 2156003328 0 256 0 0 1073743872 67108864 24 536879616 0 0 20480 0 536870912 0 0 0 0 0 134217728 0 41943040 0 0 0 33554432 0 512 0 0 0 0 0 0 0 0 0 0 0 0 0 0 0 0 0 0 8388608 0 0 83887104 302415872 2332426257 134223956 0 0 0 0 0 0 0 524800 44 8388608 524288 0 0 0 0 0 0 524288 8404992 1048608 8 0 0 0 536870912 0 64 0 128 0 2048 0 0 0 2097152 4194304 0 0 512 0 0 0 2147483648 524288 0 131072 2 536870912 1 268435584 74240 2097280 0 41943040 0 2248146976 0 0 0 2097152 0 0 0 0 0 671088704 67108866 262144 132100 2097184 131136 65536 1064960 64 0 0 0 0 0 0 0 2281701376 204 0 0 128 0 0 0 0 0 0 0 2048 0 67371008 65536 570425344 32 0 0 0 0 0 0 0 0 0 67174400 0 0 0 0 0 0 0 0 0 0 0 0 0 0 0 0 0 0 0 67108864 2 6 1 5
is_linear=0
shrinkage=0.25


Tree=3
num_leaves=31
num_cat=11
split_feature=6 3 8 6 3 10 8 3 8 3 3 8 8 3 3 8 3 2 8 3 6 8 12 2 6 8 12 9 8 8
split_gain=425647 183851 204042 116913 92942.1 150675 75869.6 140059 67543.7 149021 143768 68731.8 56894 217626 66891.8 53575 36796.2 35613.7 34277.9 31156.4 27945.9 27924 26209.1 21866.1 34054.1 18584.3 16727.1 16487.7 15143.7 14296.4
threshold=11.480468750000002 0 9.3476562500000018 9.9648437500000018 1 10.550781250000002 3.9501953125000004 2 18.046875000000004 3 4 6.0507812500000009 7.2500000000000009 5 6 19.046875000000004 7 8 16.148437500000004 9 10.996093750000002 16.148437500000004 17.500000000000004 10 12.687500000000002 1.0498046875000002 3.5000000000000004 4.0156250000000009 23.953125000000004 20.648437500000004
decision_type=2 1 2 2 1 2 2 1 2 1 1 2 2 1 1 2 1 9 2 1 2 2 2 9 2 2 2 2 2 2
left_child=1 2 25 17 6 12 7 -2 10 19 20 27 13 -6 15 -14 29 -3 -16 28 26 -4 23 -8 -25 -1 -5 -12 -10 -7
right_child=4 3 21 8 5 16 22 -9 9 -11 11 -13 14 -15 18 -17 -18 -19 -20 -21 -22 -23 -24 24 -26 -27 -28 -29 -30 -31
leaf_value=0.52010754873214005 0.56130084779890765 -0.11358655409514019 0.092642731314253379 -0.18314554049177328 0.43785265237823523 0.18935167477413128 -0.094802515071331084 0.13538314785385219 0.074862925742208514 -0.41248489672060706 -0.39333625459351163 -0.15897188216360364 -0.015383410408672275 -0.35222171914359029 0.028283897765953758 0.27935140588433599 -0.1420729644514809 -0.23617087454072444 -0.3288613227327844 0.017081365713481064 0.016554429662680878 -0.13494875456504069 -0.47494144398396343 0.10616910899937883 0.2750884031225635 0.30656411056292876 -0.058403159674049659 -0.66103662492868387 0.2309497230919092 0.37107149008112772
leaf_weight=48731 73717 261580 52878 81883 27306 44788 29168 139737 76746 45287 63733 123753 98088 107708 27363 63497 13187 341765 43486 314864 309236 92861 4697 636336 84499 53399 374359 18578 78689 68397
leaf_count=48731 73717 261580 52878 81883 27306 44788 29168 139737 76746 45287 63733 123753 98088 107708 27363 63497 13187 341765 43486 314864 309236 92861 4697 636336 84499 53399 374359 18578 78689 68397
internal_value=0 -0.0660723 0.137502 -0.0902106 0.105897 0.0176341 0.150915 0.282511 -0.0525526 0.0205842 -0.0913657 -0.276716 -0.0633498 -0.192422 0.011624 0.10043 0.253111 -0.183031 -0.190897 0.0622949 -0.0414653 -0.0523707 0.113696 0.117383 0.125969 0.408462 -0.0807919 -0.453768 0.153875 0.299142
internal_weight=0 2.33834e+06 247869 2.09047e+06 1.46197e+06 493820 968154 213454 1.48713e+06 515586 971542 206064 367448 135014 232434 161585 126372 603345 70849 470299 765478 145739 754700 750003 720835 102130 456242 82311 155435 113185
internal_count=3800316 2338342 247869 2090473 1461974 493820 968154 213454 1487128 515586 971542 206064 367448 135014 232434 161585 126372 603345 70849 470299 765478 145739 754700 750003 720835 102130 456242 82311 155435 113185
cat_boundaries=0 1 2 3 4 5 6 7 8 9 10 11
cat_threshold=4 5 4 3 9 8 2 2 25448 2 4512
is_linear=0
shrinkage=0.25


Tree=4
num_leaves=31
num_cat=28
split_feature=1 1 1 3 1 8 0 3 1 1 1 1 1 1 8 3 1 1 1 3 1 1 1 1 1 1 1 1 1 1
split_gain=226471 205834 139722 109022 354504 183744 165358 169314 170473 129822 129718 118759 105397 85585.2 80381.8 167148 77887 70420.4 65285.3 63423.5 60879.9 57899.1 52503.6 51890.3 50925.1 47564 44507.1 43789.9 42856.9 41815.3
threshold=0 1 2 3 4 11.750000000000002 5 6 7 8 9 10 11 12 13.250000000000002 13 14 15 16 17 18 19 20 21 22 23 24 25 26 27
decision_type=9 9 9 1 9 2 9 1 9 9 9 9 9 9 2 1 9 9 9 1 9 9 9 9 9 9 9 9 9 9
left_child=-1 -2 -3 4 -4 17 11 12 -9 -10 -7 -5 -8 -14 19 -16 -12 -6 -13 26 -15 -17 -19 -22 -21 -18 -11 -26 -20 -25
right_child=1 2 3 6 5 10 7 8 9 14 16 18 13 20 15 21 25 22 28 24 23 -23 -24 29 27 -27 -28 -29 -30 -31
leaf_value=0.39677771510894738 -0.46815627923059122 0.28681363316242642 -0.5052618435113102 -0.20882667249331768 0.69250176669593477 -0.55155887755673239 -0.38522217379505702 0.16926019486465069 -0.61437296762821969 0.28734014002848163 0.55086168119233359 0.28070060548324649 0.30252529655079002 0.23541448649059307 -0.43518213464681815 -0.31500468015277694 -0.23879747355681619 -0.12430897615582866 -0.090358538068269434 0.080770446116058409 -0.27609462635219517 0.082014537173335122 0.33571390968431436 0.19415385405157679 -0.11549875927227468 0.095203190114433872 -0.34493057378879777 -0.50847577536100974 0.08582429285713522 -0.03353425509282322
leaf_weight=87777 60147 101813 53210 93611 32089 22225 49123 72826 51978 16054 20168 97114 51821 54316 69140 27014 32867 17296 98996 12721 53354 152532 149732 52410 21251 140620 12264 107467 672054 1315457
leaf_count=87777 60147 101813 53210 93611 32089 22225 49123 72826 51978 16054 20168 97114 51821 54316 69140 27014 32867 17296 98996 12721 53354 152532 149732 52410 21251 140620 12264 107467 672054 1315457
internal_value=0 -0.00948263 -0.00192601 -0.0102086 0.102189 0.180087 -0.0272868 -0.066296 -0.186658 -0.241761 0.0203281 0.0586881 -0.0248188 -0.0132247 -0.19546 -0.104933 0.0859891 0.353302 0.0875358 -0.328086 -0.0243162 0.0222631 0.288071 -0.0342444 -0.396446 0.0319144 0.013479 -0.443614 0.0632027 -0.0248087
internal_weight=0 3.71167e+06 3.65152e+06 3.54971e+06 468207 414997 3.0815e+06 2.11973e+06 543247 470421 215880 961775 1.57648e+06 1.52736e+06 418443 248686 193655 199117 868164 169757 1.47554e+06 179546 167028 1.42122e+06 141439 173487 28318 128718 771050 1.36787e+06
internal_count=3799447 3711670 3651523 3549710 468207 414997 3081503 2119728 543247 470421 215880 961775 1576481 1527358 418443 248686 193655 199117 868164 169757 1475537 179546 167028 1421221 141439 173487 28318 128718 771050 1367867
cat_boundaries=0 44 90 136 137 183 184 185 229 274 319 361 407 452 453 498 543 585 586 628 671 716 761 806 851 884 929 971 1017
cat_threshold=2684403712 262144 2281705472 1 0 0 2147483648 0 0 0 0 0 0 0 0 67108864 0 131072 0 4096 32 0 0 16384 17235969 0 0 32 0 0 0 0 0 0 2049 0 65552 8192 0 1024 532 32 0 512 0 0 0 0 0 0 0 0 0 67174400 512 0 0 262272 0 0 2147483648 4194304 8 872415232 0 524288 0 18 16 272794368 2318336 0 0 67108864 0 0 0 65536 37748736 0 0 0 32 0 0 0 0 0 0 256 128 0 0 2 4194304 512 0 0 536870912 0 2048 8388608 0 16 0 512 128 268439552 0 128 256 0 0 0 0 2 4194304 0 0 0 0 4096 0 1073741824 0 270008384 128 268435456 0 18 2368 262148 0 0 0 2 4 0 0 0 0 0 0 0 0 0 0 0 0 0 0 0 0 0 0 0 0 0 0 0 71303168 536870912 0 0 2684370944 1074855952 1048632 2148601856 16 0 0 0 536871424 0 8388608 4259844 2308 142606336 0 4 0 0 4 17027 1 0 0 0 0 0 24896 674372609 46137760 4098 0 0 0 0 0 0 0 0 0 0 0 0 0 0 2147549184 0 0 0 0 0 0 0 0 0 0 0 0 131072 262144 0 0 0 1712128 0 9218 0 0 0 0 0 0 4194304 0 2147483656 0 0 0 0 0 0 0 0 0 0 0 0 0 0 536905728 1032 0 0 0 0 0 0 2097152 0 278921216 1184 4195328 33587456 4096 9 0 0 1627389952 3136 4227072 16 0 0 0 0 0 0 0 0 0 0 0 0 0 0 0 0 0 0 0 0 0 0 0 10749952 3504341258 4 0 0 0 536870912 1 0 0 4718592 2155872266 8388608 1049608 65796 0 0 0 134234112 0 0 4096 0 2048 0 66560 50665476 0 0 0 0 0 0 0 0 0 0 0 0 0 0 0 0 0 0 0 2147483648 5 0 12288 536870912 48128 100663296 32 0 0 0 0 0 0 1142947840 4194304 33619969 4096 0 0 0 0 0 67108864 0 0 0 0 33554432 0 0 0 268435456 0 541591552 0 16384 32 2097152 18944 256 33554432 0 16384 285212672 0 0 0 0 262144 0 0 67108864 0 131072 536870912 0 0 0 67108864 33595394 1048832 268435460 64 0 0 0 0 0 0 1180161 33 8 0 4096 0 0 0 0 8 0 33554436 0 512 0 0 0 67108864 5120 0 0 0 0 0 0 0 128 268435456 16 553649152 134217728 8650752 4 0 0 16384 72 20 20971520 8 0 0 0 0 0 0 0 0 0 0 0 0 0 0 0 0 0 0 0 0 0 0 0 805437440 0 0 0 0 0 0 0 0 0 131072 537985024 8194 131173 1212154016 2147483664 0 2102272 570425344 33556482 65664 268435456 0 0 0 0 0 0 0 0 0 0 0 0 0 0 0 0 0 0 0 0 0 0 0 268435456 0 4 0 0 0 0 0 0 0 131072 538529864 8208 67239972 1279852544 16 0 0 570425344 33555458 1024 268959744 1073741824 8388608 0 638109696 0 0 0 0 0 0 0 0 0 0 0 0 0 0 0 0 0 0 0 0 1082130432 0 0 0 2181169344 168034321 4164 2 0 0 0 0 0 0 16777216 2060 25165824 2 8 0 0 0 0 0 256 807405568 37748736 0 0 32776 16785408 0 65536 134217729 4 0 65536 65664 10 3 0 0 0 16384 0 0 0 0 0 0 0 1073742128 16777216 2 512 0 65536 0 0 0 65536 0 0 0 0 0 672137222 0 270533120 67108865 0 0 0 0 0 0 0 0 0 0 0 0 0 0 524800 4 0 0 0 0 0 0 1140850944 320 0 8192 1149239296 2048 134217730 4 0 0 4210688 17432704 0 0 0 0 0 0 0 0 0 0 0 0 0 0 0 0 0 0 0 0 0 0 0 1073775104 68 0 0 39845888 557861384 2415919171 808 0 0 0 2147483648 0 16777216 32 0 0 33554432 134217728 64 0 4608 0 0 0 0 0 5242880 2 0 0 0 0 1200 16777216 0 0 268435456 16777248 0 0 1207959552 2315255808 268435744 64 0 0 3212352 33554432 0 0 0 0 0 8192 8192 0 0 0 0 0 0 0 33554432 16896 0 1024 0 0 0 0 0 2172780544 318792456 3841983490 1344274576 0 0 0 0 0 0 0 0 0 0 0 0 0 0 0 0 0 0 0 0 0 0 0 0 0 16 2147483648 0 0 0 0 0 0 276832256 4160 2 0 0 0 0 0 0 0 0 0 0 0 0 0 0 0 0 0 0 0 0 0 0 0 0 64 0 0 6144 71849993 66 8904 0 0 1048576 266756 1073741824 0 0 8 0 0 0 2152218624 536870916 512 0 0 0 0 0 1073741824 0 1157627907 16 0 0 0 0 0 0 0 0 0 0 0 0 0 0 0 0 0 0 0 0 0 0 1712324928 496 0 0 0 0 0 32768 1074004004 51205 163840 0 0 0 0 0 0 0 0 0 0 0 0 0 0 0 0 0 0 0 0 0 0 0 0 147456 0 0 151000064 1073741824 0 0 0 2097152 2148319512 2147483792 1 0 0 0 2147491968 18178 0 0 0 0 0 0 0 0 0 0 0 0 0 0 0 0 0 0 0 0 0 0 134545408 1082130434 1049348 269500416 0 0 0 0 0 0 0 537298944 135168 1073741824 200 0 0 0 0 0 8388672 4457472 0 0 32 0 0 9437184 0 0 8192 64 262144 67371008 0 8704 8192 0 0 0 16 0 0 0 0 0 0 0 2048 524416 32768 2147483680 4128 64 0 0 131072 2621441 64 0 1
is_linear=0
shrinkage=0.25


Tree=5
num_leaves=31
num_cat=28
split_feature=6 1 1 1 1 1 1 1 1 3 1 1 3 1 1 1 1 1 1 1 3 0 1 1 17 1 1 1 3 1
split_gain=159007 112885 88636 70478.3 63260.4 51217.7 43816.6 37069 45731.9 36977.9 36030.8 32947.7 30871.9 98210.8 69969.6 57151.8 45269.5 31702.2 23241.3 22924.5 22534.3 22089.9 23563.1 23192.4 21325.1 19647 19222.3 18427 17560.6 41568.5
threshold=10.964843750000002 0 1 2 3 4 5 6 7 8 9 10 11 12 13 14 15 16 17 18 19 20 21 22 1.0000000180025095e-35 23 24 25 26 27
decision_type=2 9 9 9 9 9 9 9 9 1 9 9 1 9 9 9 9 9 9 9 1 9 9 9 2 9 9 9 1 9
left_child=3 25 28 -1 9 -5 20 -7 -9 -4 -8 -12 13 24 -14 -15 -16 -17 -10 -18 -6 -20 -23 -24 -13 -2 -19 -25 29 -3
right_child=1 2 4 5 6 7 10 8 18 -11 11 12 14 15 16 17 19 26 21 -21 -22 22 23 27 -26 -27 -28 -29 -30 -31
leaf_value=0.19349022900293011 -0.59755579311473428 1.6227972828839694 0.0018884150594237364 -0.30499694637065455 0.39321021157955383 0.11996711224781736 0.19068203715209639 0.089499903575171222 0.059535299351315366 -0.26296347954294397 0.1747352119446737 0.004553347944563222 0.26783847171908959 0.23221639363297669 -0.14491826499903032 0.13261225207948416 0.1818610264505692 -0.18401915365894303 0.14687654870234099 0.03710653167708302 0.13745119547401805 0.037086767592162985 0.020106362955264218 0.0013835612366857437 -0.41088763483685048 -0.19980449370935899 -0.025258067128049091 -0.12734494222322043 0.22436367967185294 0.37532702955104091
leaf_weight=64799 8640 1799 68694 57102 30042 65616 99834 100947 65571 63307 101045 9310 85945 64880 82195 69621 74240 57743 23450 865034 76114 75353 82405 75065 45250 76292 272951 938308 76692 22027
leaf_count=64799 8640 1799 68694 57102 30042 65616 99834 100947 65571 63307 101045 9310 85945 64880 82195 69621 74240 57743 23450 865034 76114 75353 82405 75065 45250 76292 272951 938308 76692 22027
internal_value=0 0.0423699 0.0534528 -0.0617018 0.0422991 -0.0728473 0.0537271 -0.0635534 -0.0724017 -0.125143 0.0446586 0.036222 0.0276192 -0.0226447 0.0512103 0.0145747 0.0329806 -0.0207038 -0.085372 0.0485502 0.209866 -0.0933267 -0.0981379 -0.107437 -0.339932 -0.240342 -0.0529855 -0.117809 0.28269 0.470234
internal_weight=0 2.25166e+06 2.16672e+06 1.54862e+06 2.0662e+06 1.48382e+06 1.9342e+06 1.42672e+06 1.3611e+06 132001 1.82805e+06 1.72821e+06 1.62717e+06 519755 1.10741e+06 465195 1.02147e+06 400315 1.26015e+06 939274 106156 1.19458e+06 1.17113e+06 1.09578e+06 54560 84932 330694 1.01337e+06 100518 23826
internal_count=3800271 2251655 2166723 1548616 2066205 1483817 1934204 1426715 1361099 132001 1828048 1728214 1627169 519755 1107414 465195 1021469 400315 1260152 939274 106156 1194581 1171131 1095778 54560 84932 330694 1013373 100518 23826
cat_boundaries=0 46 88 134 178 222 266 312 357 358 403 448 449 493 537 578 621 663 708 752 753 754 799 844 874 918 961 962 997
cat_threshold=0 2048 0 0 0 2048 0 262144 0 335609856 524288 4 0 0 0 268435456 524288 1048576 0 0 0 0 536870912 4 1040 268435456 0 0 0 67108864 0 35653632 0 65536 67108864 4198400 1073742080 131072 0 0 0 1073745920 32768 524288 0 256 2684371072 0 134221824 1 0 0 2147483648 0 0 0 0 8388608 0 0 0 0 0 268435456 0 4224 288 0 0 0 327681 2 0 0 0 0 0 0 0 0 2049 1048576 16 301989888 0 33808 784 262176 268435456 8650752 0 537935872 335544320 0 524288 0 536870912 0 0 0 34603008 1610612736 524288 67108864 0 128 0 0 1 0 0 16793600 0 0 2147483648 512 64 0 0 0 540672 0 0 0 0 8192 128 65536 4 0 0 0 8192 130 0 0 0 0 0 2147549196 4194304 1052672 396 0 0 0 0 8 0 524288 0 0 0 0 0 0 1048592 0 2147483724 0 0 0 0 0 0 524544 16 4456448 9216 67109892 0 8388608 4194304 0 0 0 0 1048576 0 0 0 1024 0 0 0 64 0 0 33554944 0 0 262144 0 0 71303168 4194304 8 872415232 0 524288 0 33554450 0 164608 270753792 0 0 32768 0 0 0 0 37748736 0 0 0 32 0 0 0 0 6291456 32768 0 2147483648 2 0 0 131072 0 0 0 2056 0 0 16 0 512 128 131072 0 0 0 0 0 0 25296896 0 0 32 0 0 0 4098 0 1073741824 0 268959824 65664 1073741824 512 0 7232 4 65536 512 0 0 262144 1073741824 536870912 0 0 384 0 16 536870912 2097152 0 0 2147485696 32 0 0 8388608 720896 268435456 8 0 65536 0 8388608 786432 0 0 0 0 268435456 0 0 0 33554432 0 262144 0 8192 524288 256 8388608 0 2151809024 8 0 0 268435456 0 0 0 2097152 16793600 134217728 0 131072 65536 64 4194304 0 570425344 0 1024 16779264 0 0 0 0 128 0 0 0 1 0 16384 0 0 268435456 0 131072 262144 524320 0 8448 268435584 67117056 1048576 256 0 100663296 5 0 0 16384 4227072 4194304 512 1048576 32 0 0 36864 8192 0 0 0 8 0 33558532 0 520 0 0 0 2147483648 16384 0 4194304 656384 0 134217728 0 0 0 0 0 0 67108864 0 34078720 34 8 2050 0 0 16777216 1073741824 0 2048 8390656 0 0 671088640 0 0 0 0 0 0 0 0 1056772 0 65536 65664 2 0 0 0 0 0 0 0 67108864 2181038208 0 0 0 1073741824 8 1048576 0 268435456 16384 2147483648 0 17039392 532480 0 3074 536870912 10 0 0 0 0 0 0 0 0 0 0 0 0 0 0 0 0 0 0 0 0 0 0 0 536870912 537395712 9 0 0 0 536870912 0 65536 128 822083584 2097728 1073750144 68 134217858 14 0 1 0 64 536920096 0 268435456 0 393216 0 0 1 0 0 0 0 0 0 0 0 0 0 0 0 0 0 0 0 536870912 234885120 9 0 0 0 0 0 0 128 805306368 2687060 8194 134217733 201326720 16 0 0 2147483648 16 32768 8192 0 0 0 0 0 0 0 0 0 0 0 0 0 0 0 0 0 0 0 0 0 0 0 0 4 0 4227072 268730369 3271688193 136579412 16 0 0 0 0 0 0 285212672 134744076 142606336 0 0 0 0 4 0 0 0 0 2048 0 2048 0 0 0 0 0 16384 2 33554432 64 536870976 4194304 8 0 4 0 33554432 16388 268435520 2147553280 4 0 128 8388864 8 131072 0 2048 2052 142606336 0 16384 0 0 0 33554432 0 8512 2048 37748736 2 0 0 0 0 0 0 0 0 0 0 0 0 0 0 0 1077936128 0 0 1124075520 19546112 10747984 4096 4 0 0 0 0 131072 0 1048576 16384 268435584 1 0 0 0 512 0 0 16 0 1024 262208 262144 1073774592 8192 131072 1107296256 32768 2097152 514 0 0 16384 0 0 2097152 0 0 0 0 256 0 131072 4194304 262146 2 0 0 0 1048576 536870912 536870912 131072 0 33554432 4096 268436480 0 0 0 34078720 0 2097216 268438016 1119879169 0 0 0 0 0 0 0 0 0 0 0 0 0 0 0 0 537395200 0 0 0 0 0 8388608 0 32 16777216 0 2164260864 4160 4194304 0 0 2129920 66048 131081 112 4 1 0 0 0 0 134356992 0 0 0 2097152 0 0 0 1312 19398656 1048576 327680 1048576 64 1073741824 16777216 0 0 0 1024 0 0 8388864 0 1024 0 524288 0 8 67108864 0 0 0 3072 0 64 1073741824 0 268435456 8 262146 0 0 0 2097152 64 1040 4096 133120 33554432 131328 64 0 131076 2181038112 0 4194320 8388608 0 0 0 0 0 0 0 0 67108864 32768 0 2048 0 0 32768 0 0 0 0 2097152 0 1024 11534336 0 16384 32 8192 1048576 0 0 0 0 0 0 0 0 0 67108864 0 0 0 0 0 0 0 0 0 0 0 0 0 0 16 0 0 0 0 67108864 0 268435456 0 131072 1024 0 0 2097152 2048 0 0 0 0 0 0 0 0 0 0 0 0 0 0 0 301994242 0 0 65536 0 0 1073741824 1073741888 256 0 0 25165826 3073 83886632 0 0 0 4194304 20971521 268435457 0 0 0 0 32768 0 0 0 0 134217728 67108880 1310720 1073741824 0 2097216 0 131600 134742016 0 4 0 0 0 256 0 2281701376 201 1048576 0 4194432 40 0 0 0 0 0 0 0 8404992 0 1048576 0 67108866 4 0 0 0 0 0 0 0 0 0 0 0 0 0 0 0 0 0 0 0 0 0 0 0 0 0 0 0 0 0 0 0 0 0 0 2048
is_linear=0
shrinkage=0.25


Tree=6
num_leaves=31
num_cat=17
split_feature=6 3 3 0 0 3 17 0 3 0 0 12 17 12 3 17 2 17 3 2 6 12 17 0 0 3 12 7 0 17
split_gain=90965.8 39178.3 37694.4 120015 45004 46460.4 53789.2 29288.3 71207 27195.4 25274.7 21793.3 21519.3 24074.7 20382.7 42651.7 20051.1 19046.7 20642.4 15995.8 15881.3 15643.2 14907.8 14578 13364.6 13213.4 12901.8 30408.4 26068.1 12228.4
threshold=10.675781250000002 0 1 2 3 4 1.0000000180025095e-35 5 6 7 8 5.5000000000000009 1.0000000180025095e-35 5.5000000000000009 9 1.0000000180025095e-35 10 1.0000000180025095e-35 11 12 11.113281250000002 17.500000000000004 1.0000000180025095e-35 13 14 15 17.500000000000004 1975.5000000000002 16 1.0000000180025095e-35
decision_type=2 1 1 9 9 1 2 9 1 9 9 2 2 2 1 2 9 2 1 9 2 2 2 9 9 1 2 2 9 2
left_child=1 23 3 17 -4 6 10 8 12 25 -6 -10 -5 -14 20 -16 -8 18 -2 26 -9 -15 -22 -1 -17 -3 28 -28 -7 -27
right_child=2 9 4 7 5 19 16 14 11 -11 -12 -13 13 21 15 24 -18 -19 -20 -21 22 -23 -24 -25 -26 29 27 -29 -30 -31
leaf_value=-0.11109984493443836 -0.082519009120441009 -0.10247365801022673 0.010963689594773118 0.27907713553659064 -0.72572195311457244 0.42844994689913574 -0.22970260385916411 -0.33691803582753588 -0.24236019514354012 -0.03849908863130054 -0.012684806123674394 0.28867682638287689 0.061413384927721575 -0.54820529316515043 0.05224192487414997 -0.20551405141215306 0.26443426288432204 0.070117115663717866 0.29889367367835934 0.019617360512109969 -0.28516849952708379 0.063870731491855182 0.15500831768862261 0.16599759109498879 -0.38568746891959554 0.0049651665902198496 0.56978489120916131 -0.71431591104966352 0.090711298427169323 -0.2998661478393263
leaf_weight=14586 10919 373811 971118 25561 3393 15292 5286 6922 83601 696379 35640 5125 116787 7067 38701 144850 170365 282677 47197 340199 5813 4136 27808 63499 31337 10308 1729 3452 214988 40667
leaf_count=14586 10919 373811 971118 25561 3393 15292 5286 6922 83601 696379 35640 5125 116787 7067 38701 144850 170365 282677 47197 340199 5813 4136 27808 63499 31337 10308 1729 3452 214988 40667
internal_value=0 -0.056986 0.0262454 -0.0173838 0.047014 0.091309 0.190564 -0.0956476 -0.0333721 -0.068911 -0.0748792 -0.211657 0.0696519 0.027829 -0.154711 -0.185388 0.249563 0.0969144 0.227266 0.0542899 0.00788265 -0.322227 0.078889 0.114225 -0.237597 -0.118764 0.104381 -0.285711 0.113165 -0.238174
internal_weight=0 1.19925e+06 2.59996e+06 838501 1.76146e+06 790344 214684 497708 242277 1.12116e+06 39033 88726 153551 127990 255431 214888 175651 340793 58116 575660 40543 11203 33621 78085 176187 424786 235461 5181 230280 50975
internal_count=3799213 1199250 2599963 838501 1761462 790344 214684 497708 242277 1121165 39033 88726 153551 127990 255431 214888 175651 340793 58116 575660 40543 11203 33621 78085 176187 424786 235461 5181 230280 50975
cat_boundaries=0 1 2 3 4 5 6 7 8 9 10 11 12 13 14 15 16 17
cat_threshold=4 10 16897 21368 4 132 2 41328 128 8 8200 8 10249 512 40960 1 128
is_linear=0
shrinkage=0.25


Tree=7
num_leaves=31
num_cat=26
split_feature=1 1 6 1 1 1 1 3 1 3 1 1 1 8 3 1 3 1 1 1 1 10 1 1 3 1 8 1 1 1
split_gain=74127.7 69194.8 50619.9 33998.3 30958.1 26473 29723.2 26218.3 20753.9 20211.9 113384 56220.1 46537 30855.6 55044.5 38889.3 33780.2 97780.6 53887.8 43117.4 38715.5 26589.6 25293.7 24019.7 23467.8 34234.6 23257.8 20185.9 17860.3 17382.4
threshold=0 1 11.800781250000002 2 3 4 5 6 7 8 9 10 11 21.046875000000004 12 13 14 15 16 17 18 2.0498046875000004 19 20 21 22 9.4492187500000018 23 24 25
decision_type=9 9 2 9 9 9 9 1 9 1 9 9 9 2 1 9 1 9 9 9 9 2 9 9 1 9 2 9 9 9
left_child=7 -2 3 -3 -4 -5 -7 -1 -6 10 -8 -12 -11 16 24 -16 19 -18 -19 -14 -20 -13 -23 -21 25 -15 27 -22 -25 -10
right_child=1 2 4 5 8 6 9 -9 29 12 11 21 13 14 15 -17 17 18 20 23 26 22 -24 28 -26 -27 -28 -29 -30 -31
leaf_value=0.52486142914647105 -0.26013273427401157 0.14829853241179491 -0.083822283606828238 0.12823918892545486 -0.038163492316797831 0.11354913633430209 -0.29531426191792504 0.16593063976440925 -0.0076736469663185557 -0.24502924856082101 0.34930033838798852 0.15704082616843976 0.18450581673825062 -0.20614340884733134 0.12169668402063696 -0.39470172455485475 0.25302043177345712 -0.48192291676833615 -0.3653719155423546 0.12283860788281116 -0.45298455746019473 -0.23305415514029915 0.041652621817311962 -0.21256330880674032 0.0056317824863980504 0.16619877391660043 -0.013870380094818472 -0.13369387021273091 -0.044921914558586629 0.096411104888748836
leaf_weight=15673 65243 74872 97759 70813 107017 91066 53443 67552 119582 67012 48134 74882 54234 17471 12686 32350 37323 32242 38915 51938 14789 29764 70658 41204 379947 131824 107329 75826 1096937 621294
leaf_count=15673 65243 74872 97759 70813 107017 91066 53443 67552 119582 67012 48134 74882 54234 17471 12686 32350 37323 32242 38915 51938 14789 29764 70658 41204 379947 131824 107329 75826 1096937 621294
internal_value=0 -0.00496438 -0.0004041 -0.0178064 0.0493864 -0.0225344 -0.0267057 0.233588 0.0647454 -0.0318796 0.0317647 0.110009 -0.0399189 -0.0334494 0.0160533 -0.24924 -0.0517819 -0.126135 -0.178731 -0.0334701 -0.137438 0.0442863 -0.0397856 -0.0434055 0.0386334 0.122612 -0.0926085 -0.185876 -0.0509932 0.079611
internal_weight=0 3.71655e+06 3.65131e+06 2.70566e+06 945652 2.63079e+06 2.55997e+06 83225 847893 2.46891e+06 276881 223438 2.19203e+06 2.12502e+06 574278 45036 1.55074e+06 306424 269101 1.24431e+06 236859 175304 100422 1.19008e+06 529242 149295 197944 90615 1.13814e+06 740876
internal_count=3799779 3716554 3651311 2705659 945652 2630787 2559974 83225 847893 2468908 276881 223438 2192027 2125015 574278 45036 1550737 306424 269101 1244313 236859 175304 100422 1190079 529242 149295 197944 90615 1138141 740876
cat_boundaries=0 46 92 138 182 226 271 272 316 317 363 408 453 454 496 497 541 583 628 673 716 762 763 807 847 892 936
cat_threshold=2684354560 262144 4096 1 0 0 2147614720 0 0 0 2048 8388608 0 0 0 67109376 0 268566528 0 128 288 0 0 16384 393217 0 0 32 0 0 0 0 0 0 2049 0 16 33562624 0 1024 532 4 0 0 0 2 0 0 0 1024 0 0 0 268435456 0 67174400 0 16 262144 262272 0 0 2147483648 0 0 872415232 0 0 0 67371024 16 268599552 2170880 0 0 67141632 0 0 0 0 104857600 0 256 0 32 0 0 0 4 0 0 256 49280 8388608 0 16384 71303168 0 0 0 536870912 1073741824 0 0 0 65552 0 64 0 33554560 0 2056 515 0 0 2415984640 4194304 0 4194304 0 0 0 0 4096 65540 0 0 0 0 0 512 32784 4096 0 0 0 0 128 0 0 0 0 0 0 16384 262144 8192 2048 0 0 32768 8 0 524288 262144 0 0 1024 4096 0 2155872256 0 2181038080 0 0 268500992 0 0 553665536 0 0 65536 0 1610613760 0 2097152 4100 0 8388608 128 0 75628544 0 0 134479872 604016640 0 0 0 0 0 0 4096 0 33554440 1073741824 0 1048576 0 0 8454144 0 0 0 0 0 16384 0 2148007936 33280 64 0 0 2147483648 0 2056 0 0 805306368 262144 0 512 16777224 2050 2097152 1024 0 0 18432 9439232 0 0 134219776 8388608 0 0 134217728 0 0 536870914 526336 0 301989888 0 1 0 0 8 0 16777216 0 8388608 0 0 0 0 0 0 0 0 16400 0 1 0 2164260864 1073807360 32 0 65792 65538 1073741824 4 0 0 0 0 0 0 128 4096 0 0 0 0 0 512 8388608 0 0 67108864 9216 0 34816 4100 0 8 268435456 0 0 0 67108872 2 4207104 64 16777216 16793600 0 0 16777280 0 0 0 0 134218752 1073741824 570425345 4 0 0 0 0 0 0 0 0 0 0 0 0 0 0 0 0 0 0 0 0 0 0 0 4194304 64 0 0 2684354560 1074874384 537919520 2148597768 16 0 0 2155872256 512 1024 8388608 4194304 2304 167772160 0 2147483648 0 4608 4 0 0 0 0 0 0 0 0 0 0 0 0 0 0 0 0 0 0 0 0 0 0 0 537001984 0 0 0 0 0 0 0 0 0 2097152 538968128 8194 67108896 205537280 536870912 0 2138112 570425344 34606082 33184 301989952 0 0 0 0 0 4194304 0 0 0 0 0 1056 0 0 0 0 0 0 0 0 0 66048 4 32768 0 1 512 0 0 0 0 32 0 547880960 536871968 0 1073741824 134217728 0 0 0 1711276032 33557506 1048832 268438528 3 0 0 0 131072 0 0 2098176 16777476 16 0 0 0 0 0 0 0 0 0 0 0 0 0 0 0 0 0 0 0 0 0 0 65536 64 0 0 0 0 0 268855680 515266696 0 1 9 0 0 0 0 0 0 268436480 536871040 146 0 0 0 0 0 0 0 0 0 0 0 0 0 0 0 0 0 0 2688548864 0 16512 524296 0 0 0 0 0 0 0 1057152 18568 75194368 0 0 8192 8192 268435456 0 0 0 536877060 4259840 2097152 67127308 0 0 0 0 0 0 0 0 0 0 0 0 0 0 655872 1028 0 0 0 0 0 0 1073742080 320 0 128 0 32800 0 0 100794368 0 16781376 0 0 0 0 0 8192 6291456 16777472 2097160 0 0 0 0 0 0 0 0 0 0 0 0 0 0 0 5120 0 0 4194304 16 536870912 0 1073741840 256 268435456 128 0 32 8392704 0 504498176 1 16793600 0 0 4194816 1073741824 2048 0 128 0 0 0 0 1 4 0 0 0 0 0 0 0 0 0 0 0 0 0 536872960 0 0 0 0 0 268435456 0 35652096 144 268435456 64 4194304 33554944 135168 69206017 7340032 0 0 0 5013504 24 0 0 0 0 0 0 0 0 0 0 0 0 0 0 0 0 0 0 0 0 0 0 0 10487808 2097418 0 0 41959424 20975620 268435456 129 0 0 5767168 262146 8388608 1048584 264 8 0 0 16384 541081600 0 0 0 0 0 16384 0 67125248 16 16 1073741824 0 0 0 0 0 0 0 0 0 0 0 0 0 640 0 262144 0 0 0 8388608 268435456 540864 256 2 640 34603008 16777248 0 10747904 0 131136 0 16809984 4096 8 2 0 2048 0 0 0 672399360 4194304 2560 2214608920 0 0 0 0 0 0 0 0 0 0 0 0 0 0 524288 1032 0 0 0 32 0 0 1075838976 0 0 0 0 34816 2 0 33554432 1 20992000 17024 32768 0 0 0 0 0 524416 8388608 16 256 0 0 0 0 0 0 0 0 0 0 0 0 0 0 0 4098 0 0 134217728 1745900560 536870912 1074856064 0 0 262144 8192 67108864 0 16777248 536870912 411304000 0 0 0 0 0 84934656 8 24 2147549312 0 0 34078720 0 64 0 0 688392192 0 0 0 0 0 0 0 0 16384 16777216 0 536870912 1050624 67108864 262144 0 0 0 0 0 4194304 1073741824 0 4718592 0 1097728 0 4 0 0 0 0 0 131072 33554436 525312 268435456 0 0 8 0 0 16 4096 0 0 2097408 0 0 0 524288 0 536870912 4 0 2048 524289 65624 2097152 67108864 9437184 0 512 32 131072 0 65536 0 0 0 17301504 268435456
is_linear=0
shrinkage=0.25


Tree=8
num_leaves=31
num_cat=28
split_feature=1 1 6 1 1 1 1 3 1 1 1 1 5 1 1 1 1 1 1 1 1 16 3 1 1 1 1 1 1 3
split_gain=45742.6 43517.6 27576.5 19964.3 18508.5 16147.5 16969.4 15173.9 15119.4 16913.9 13563.1 13298.8 12347.1 12680.3 12251.7 11488.6 10650.6 9313.15 9124.71 8339.68 8269.73 7681.95 10329.2 22679.8 14987.5 14514.6 12874.3 10176.4 9656.77 7487.72
threshold=0 1 11.714843750000002 2 3 4 5 6 7 8 9 10 11 12 13 14 15 16 17 18 19 -1.0000000180025095e-35 20 21 22 23 24 25 26 27
decision_type=9 9 2 9 9 9 9 1 9 9 9 9 1 9 9 9 9 9 9 9 9 2 1 9 9 9 9 9 9 1
left_child=-1 7 4 29 -3 -6 -7 11 -8 -10 -11 -2 17 -14 -5 -16 -17 -12 -19 -9 -15 28 23 -23 -25 -24 -27 -26 -20 -4
right_child=1 2 3 14 5 6 8 19 9 10 12 -13 13 20 15 16 -18 18 21 -21 -22 22 25 24 27 26 -28 -29 -30 -31
leaf_value=-0.21844695767092751 1.0395649433587952 -0.15394760555907103 -0.013531399867709839 -0.03949200094638948 0.1147388917205226 0.1025740578252098 0.093663228654827096 -0.083576522809763146 0.08649600448443269 0.077583392461424233 -0.13950370867385989 0.31668485437779814 -0.25216356364879233 -0.19896035014632127 -0.018440640223878681 0.00039842347771712336 0.079313477643905991 -0.12328614792437587 0.14353243790658027 0.16295198322997459 -0.04632111612752169 0.15939822430836037 0.17612591188184465 -0.31999821626294739 -0.2289771908780156 -0.19417088983909073 -0.0095996767202069112 -0.05477150801897613 0.0028150051598355339 -0.14954404872176491
leaf_weight=58917 1791 58168 60024 97347 61936 75034 73259 9954 86949 76468 37777 14056 20355 23000 117860 129443 613875 46059 32052 61767 619952 23001 25146 18071 24563 24766 505921 142689 617518 43731
leaf_count=58917 1791 58168 60024 97347 61936 75034 73259 9954 86949 76468 37777 14056 20355 23000 117860 129443 613875 46059 32052 61767 619952 23001 25146 18071 24563 24766 505921 142689 617518 43731
internal_value=0 0.00354223 -0.000630694 0.0332945 -0.0145307 -0.0113302 -0.0144887 0.177695 -0.0181529 -0.0216778 -0.0258822 0.399064 -0.0295441 -0.0579395 0.0445703 0.0540734 0.0655716 -0.0169671 -0.0137947 0.128726 -0.0517851 -0.0102264 -0.0272174 -0.074693 -0.103756 -0.00942163 -0.0182175 -0.0803706 0.00976133 -0.0708706
internal_weight=0 3.74253e+06 3.65496e+06 1.06228e+06 2.59268e+06 2.53452e+06 2.47258e+06 87568 2.39755e+06 2.32429e+06 2.23734e+06 15847 2.16087e+06 663307 958525 861178 743318 1.49756e+06 1.45979e+06 71721 642952 1.41373e+06 764157 208324 185323 555833 530687 167252 649570 103755
internal_count=3801449 3742532 3654964 1062280 2592684 2534516 2472580 87568 2397546 2324287 2237338 15847 2160870 663307 958525 861178 743318 1497563 1459786 71721 642952 1413727 764157 208324 185323 555833 530687 167252 649570 103755
cat_boundaries=0 46 92 136 173 219 263 264 309 354 400 435 436 482 526 570 614 652 697 735 774 775 819 863 906 951 996 1038 1039
cat_threshold=0 0 0 0 0 0 0 0 0 69271552 524288 0 0 0 268435456 1073741824 1 0 16384 268435456 0 1048576 256 33554480 16 6291744 35872768 0 0 67108864 0 0 0 0 33554432 0 0 0 32 0 0 0 0 256 0 304 2684354560 262144 2147487744 3 0 0 2147614720 0 0 0 8 0 0 0 0 67109376 128 131072 0 4096 32 0 0 16384 393217 0 0 32 0 0 0 0 0 0 2049 0 16 1342185472 0 16 532 0 0 0 0 2 0 0 0 0 0 2048 0 262144 8192 0 0 0 0 8 0 524288 262144 0 0 1025 4096 536870912 2222981120 0 2181038080 0 0 0 0 0 16778240 0 0 65536 1024 1610614272 0 2097154 4198404 0 8388608 128 32768 67108864 0 0 0 1024 65536 67108865 2 64 0 0 33554944 0 0 262144 0 1 71303168 1048576 32 32 2216689664 2048 1610629120 0 0 25088 16779264 8192 0 0 0 0 538968064 0 4194304 0 8 32768 8388608 134217728 16384 71303168 0 0 0 536870912 1073741832 0 2097152 0 65552 0 96 0 268435456 0 196608 515 0 0 2147549312 4194304 0 4194304 0 0 0 0 4096 4 0 0 0 0 0 0 8192 4096 4 0 0 8192 128 16512 0 0 1073741824 0 0 524288 32768 1048608 0 16781312 0 34603016 0 0 0 0 33554560 65536 2048 268435456 0 0 268435456 0 0 2147483648 1 320 0 0 0 0 0 0 0 0 262144 0 32768 8 2306 8388640 5120 4 0 0 0 553684992 807403528 0 0 0 524288 0 0 65536 0 1077936132 0 1048576 0 1024 8388608 0 0 0 0 16777216 0 0 786432 33280 0 0 0 2147483648 0 8 0 262208 268435457 33554432 268435456 0 0 2147483648 268435456 0 536870912 1073741824 0 0 75499520 0 0 3072 8388608 0 0 131072 0 0 536870914 2148009984 33554432 0 0 1 524288 0 8 0 0 0 8388608 0 0 0 0 0 0 0 0 536870928 0 536870912 0 2164260864 1073742336 16777344 0 256 2 3221356544 0 0 278528 1048576 0 16384 134217728 0 1024 4096 1744830464 4096 64 0 0 536870912 301989888 512 2048 0 0 16 0 2097152 128 0 0 0 0 0 0 0 524288 0 16384 0 0 0 128 2281766921 0 32768 65536 65536 0 8 0 0 0 0 0 0 0 0 0 0 0 0 0 0 0 0 0 0 0 0 0 0 0 0 0 0 0 0 0 0 0 0 0 0 2048 1 0 2048 0 0 0 134217732 0 134217728 67108865 0 0 0 0 0 0 0 0 0 536870912 2097152 134217728 2432778240 137697348 262662 0 268435456 0 0 0 0 0 0 0 0 0 4096 1073741824 512 0 0 0 0 0 0 0 64 0 0 0 0 0 0 16512 4096 16 2048 0 0 32768 0 8388608 0 0 67108864 9216 262144 32768 4096 0 8 0 0 0 268500992 8 65538 541090304 0 16777216 16384 0 0 16777216 0 0 0 0 134217728 1073741824 545390592 0 0 0 0 1048576 8388608 33554432 524288 268435456 0 0 0 0 512 0 0 4096 0 2097408 64 2048 4 524288 0 268435456 4 0 0 67633152 8 4096 67108928 256 285212672 0 16384 131072 0 0 4 0 1024 524352 33554433 0 0 0 0 0 1075970048 4 1073742850 0 0 0 8 0 0 16 4096 0 0 0 0 0 0 0 0 537395200 0 0 33556480 1 80 2097408 536870912 9437216 0 512 16777248 64 0 65536 0 0 4194816 16777216 268435456 0 0 0 0 0 0 0 0 0 17825792 0 33554560 553910272 129 0 268435456 2818574368 4194304 8 536870912 33554432 2 0 0 0 35031104 268435456 256 0 0 0 0 1 0 67108864 0 0 536870912 0 0 0 128 0 4194304 8 268435456 2147483648 0 0 1072 0 1048832 0 0 17301504 0 0 201326592 0 524832 0 67108864 0 65536 512 192 0 1024 0 262144 8192 8704 0 0 0 0 0 0 33554432 0 0 0 134219912 0 0 0 0 0 0 0 0 0 0 0 0 0 0 0 0 0 0 0 0 0 0 0 16384 0 0 0 0 0 0 0 0 0 0 2048 0 0 1073750016 512 0 0 0 0 536870912 0 3145728 278532 0 0 0 0 0 0 0 0 0 0 0 4194304 235143168 323003441 0 0 128 0 0 0 0 0 0 9216 2147491840 32 4194304 8704 0 8 10 268435456 0 0 0 131072 0 4096 384 4096 0 0 0 0 0 0 0 0 0 0 0 0 0 0 0 0 0 0 2690662400 0 16512 41 36 0 0 0 0 0 0 9472 264320 470286336 2228224 8192 8192 0 0 0 8192 0 0 4194304 0 8 0 0 0 0 0 0 0 0 0 0 0 0 0 0 33280 1032 1 0 0 0 0 0 2097152 0 10485760 96 0 33587488 4096 536870913 0 1 1660944384 3200 5537792 0 268437504 0 8192 2048 0 0 0 8388872 0 0 0 0 0 0 0 0 0 0 0 0 0 0 537001984 5120 1 0 0 0 0 0 33556480 144 538968064 128 8194 32 67112960 1075838976 0 0 587218944 3072 0 0 0 65536 0 1048608 0 8 0 2 0 0 0 64 0 0 0 0 0 0 262144 16384 0 0 0 0 0 2684354560 1048576 1089696 0 32 0 4194304 2147483648 0 0 0 418048 8652928 0 0 8704 8192 4 0 0 0 0 2048 0 65536 2097168 8390660 0 0 0 0 0 0 0 0 0 0 0 0 0 0 537008128 0 0 0 0 0 536870912 0 133120 0 0 128 4194304 512 134348800 1151336456 4198400 0 16384 0 17317896 16 8704 0 2048 0 0 20 0 18874368 0 4 0 262144 0 0 0 0 256 0 131072 0 1073741824 32768 0 320 0 0 0 0 0 0 0 0 268435456 134217728 0 4096 2097152 2560 612384768 614486016 0 64 9
is_linear=0
shrinkage=0.25


Tree=9
num_leaves=31
num_cat=15
split_feature=6 3 8 3 3 8 8 10 3 0 6 0 3 0 8 12 3 0 6 8 2 0 8 3 0 2 6 10 8 6
split_gain=21231.5 12817.9 61352.5 91013.3 37671.8 39667.2 31911.7 28987.6 45848.9 21833.2 13297.9 13183.2 16231.3 11526.5 11659.1 11428.6 11356.2 10981.3 10725.3 10557.1 9576.07 8259.25 7959.8 7870.76 7672.01 7556.15 6883.48 6798.9 6483.71 6067.52
threshold=10.425781250000002 0 17.046875000000004 1 2 4.4492187500000009 5.5507812500000009 -1.1499023437499998 3 4 13.152343750000002 5 6 7 24.953125000000004 4.5000000000000009 8 9 11.605468750000002 8.2500000000000018 10 11 11.652343750000002 12 13 14 13.152343750000002 8.2500000000000018 19.453125000000004 11.550781250000002
decision_type=2 1 2 1 1 2 2 2 1 9 2 9 1 9 2 2 1 9 2 2 9 9 2 1 9 9 2 2 2 2
left_child=16 2 4 13 5 -2 10 8 17 20 -6 12 18 -4 -15 28 27 25 -9 -17 -8 23 -11 -18 -5 -3 -27 -1 -14 -7
right_child=1 7 3 24 6 29 9 11 -10 22 -12 -13 15 14 -16 19 21 -19 -20 -21 -22 -23 -24 -25 -26 26 -28 -29 -30 -31
leaf_value=0.15563977399369164 0.25212028722220764 -0.20159069697049314 0.25376475525240494 -0.026535574597868178 -0.18493379959276343 -0.12826937266795799 -0.20523761974368451 -0.05049319096034912 0.027480410765340958 -0.1559417154339236 -0.5761236656001647 0.01813721104862908 -0.029591390090272004 0.05921242795215155 0.16214729862766009 0.081298047701958753 0.055812247472529296 0.089535874559342726 0.055676541802620792 -0.6804330245789546 0.14175750585620339 -0.060066565706038806 -0.044300946102876285 -0.029330547339638847 -0.20111851309873205 0.22995721939277647 0.50813119867885836 -0.046877877266835205 -0.13684887700555604 0.014215697832243083
leaf_weight=31211 39847 2403 36163 20229 150779 37210 5639 115725 412303 71101 5634 996458 64883 158874 121284 1611 84370 46907 122331 3859 41427 491879 91023 346521 71046 92985 5915 15506 77080 37500
leaf_count=31211 39847 2403 36163 20229 150779 37210 5639 115725 412303 71101 5634 996458 64883 158874 121284 1611 84370 46907 122331 3859 41427 491879 91023 346521 71046 92985 5915 15506 77080 37500
internal_value=0 0.0110259 -0.0138606 0.0574713 -0.0744133 0.0506822 -0.113609 0.0223997 0.0703536 -0.0497436 -0.19903 0.00294978 -0.0363073 0.120929 0.103772 -0.10149 -0.0318413 0.189604 0.00406355 -0.456072 0.10014 -0.0379295 -0.0932585 -0.0126577 -0.162437 0.235923 0.246577 0.0883976 -0.0878301 -0.0567477
internal_weight=0 2.83022e+06 887756 407596 480160 114557 365603 1.94246e+06 560513 209190 156413 1.38195e+06 385489 316321 280158 147433 969487 148210 238056 5470 47066 922770 162124 430891 91275 101303 98900 46717 141963 74710
internal_count=3799703 2830216 887756 407596 480160 114557 365603 1942460 560513 209190 156413 1381947 385489 316321 280158 147433 969487 148210 238056 5470 47066 922770 162124 430891 91275 101303 98900 46717 141963 74710
cat_boundaries=0 1 2 3 4 5 6 7 8 9 10 11 12 13 14 15
cat_threshold=10 2 8 4 16384 672 1 16512 4 41088 6 17931 10 49152 8
is_linear=0
shrinkage=0.25


Tree=10
num_leaves=31
num_cat=28
split_feature=1 1 3 1 6 1 1 1 1 1 1 1 3 3 1 1 1 1 3 1 1 1 1 8 3 1 3 1 1 1
split_gain=28984.7 25934.8 13634.7 13273.9 12060.1 11429.9 11121.2 11312.6 10859.3 10169.9 10156.7 9884.84 9281.09 8849.36 8522.08 6936.42 7239.7 6717.46 7535.24 46605.4 32179.8 26354.9 23792 20410.5 48642.7 50724.7 38299.4 74979 46824 43239.7
threshold=0 1 2 3 9.1992187500000018 4 5 6 7 8 9 10 11 12 13 14 15 16 17 18 19 20 21 16.046875000000004 22 23 24 25 26 27
decision_type=9 9 1 9 2 9 9 9 9 9 9 9 1 1 9 9 9 9 1 9 9 9 9 2 1 9 1 9 9 9
left_child=-1 2 11 -3 8 -6 -7 12 -5 13 -11 -2 -8 -9 -12 -16 -17 -18 21 -20 -21 -19 -23 26 25 -25 29 -28 -29 -22
right_child=1 3 -4 4 5 6 7 9 -10 10 14 -13 -14 -15 15 16 17 18 19 20 23 22 -24 24 -26 -27 27 28 -30 -31
leaf_value=-0.16315393922307406 0.57757426345160912 0.096030138826608824 0.045255701660930028 0.040478534698162739 -0.1078848327793847 -0.096936563011465887 -0.049488170361274043 -0.043915881354621877 -0.081425134047953068 -0.072845211752757155 -0.065917046058932061 0.19363082022551059 -0.27850810502946044 -0.27093433828416363 -0.059418703499590081 -0.054465044932279869 -0.049784677424197815 -0.13798356847926083 -0.23221208530796639 0.19194910864722006 0.30427145893764473 0.18393390552184871 0.030426710248768186 -0.42184362519512664 0.094869574396218181 0.0041622174887407312 -0.48882888035463579 0.29683882216754592 -0.083626854455562172 -0.046436951021980047
leaf_weight=66953 4704 86767 51708 58720 58950 67865 68253 69194 205432 89402 83687 38415 13192 12695 76099 85605 84922 55989 49955 60500 37157 65604 1649906 24935 272291 58288 26649 22482 199805 53738
leaf_count=66953 4704 86767 51708 58720 58950 67865 68253 69194 205432 89402 83687 38415 13192 12695 76099 85605 84922 55989 49955 60500 37157 65604 1649906 24935 272291 58288 26649 22482 199805 53738
internal_value=0 0.0027911 0.131854 -0.000573262 -0.00293387 0.00119594 0.00318828 0.00533876 -0.054327 0.00777167 0.0101469 0.235659 -0.0866192 -0.0791446 0.0126991 0.0150292 0.0170913 0.0193925 0.0216722 0.00162873 0.0170871 0.0307892 0.0362984 0.00186972 0.0437464 -0.123512 -0.0419388 -0.0926517 -0.0451328 0.096946
internal_weight=0 3.73291e+06 94827 3.63808e+06 3.55132e+06 3.28716e+06 3.22821e+06 3.16035e+06 264152 3.0789e+06 2.99701e+06 43119 81445 81889 2.90761e+06 2.82392e+06 2.74783e+06 2.66222e+06 2.5773e+06 805800 755845 1.7715e+06 1.71551e+06 695345 355514 83223 339831 248936 222287 90895
internal_count=3799862 3732909 94827 3638082 3551315 3287163 3228213 3160348 264152 3078903 2997014 43119 81445 81889 2907612 2823925 2747826 2662221 2577299 805800 755845 1771499 1715510 695345 355514 83223 339831 248936 222287 90895
cat_boundaries=0 46 92 93 139 185 227 266 311 357 402 440 441 442 487 532 576 620 621 666 710 755 799 800 841 842 884 928 970
cat_threshold=0 2048 0 1024 65536 0 0 262144 0 67174400 34078720 0 0 262144 0 0 4718592 1048576 536870912 2097152 0 0 0 100925456 16 268435712 2097152 0 0 67108864 0 0 1 8388608 100663296 0 8 536870912 32 0 0 0 4 0 0 256 2684354560 262144 4096 1 0 512 2148663296 0 536870912 0 2048 8388608 0 0 134217728 67108864 0 0 67371008 128 288 0 0 16384 4456448 0 0 0 0 0 0 0 0 0 2048 268435456 16 1073750016 0 0 532 32 0 0 0 2 6 0 0 0 0 0 0 536870912 4194304 0 32 8 16785408 0 16 1 0 192 268439556 0 4096 268435456 8192 0 0 196609 0 0 0 0 0 0 2 16384 0 1 1572864 65664 262144 0 0 2048 4 32 4096 0 128 0 0 0 128 0 0 0 64 0 268435456 0 33554436 553648128 1057032 0 268959745 67108864 0 32 0 0 268435458 536887296 0 0 0 0 0 0 0 0 0 0 1536 0 0 1073742080 0 0 0 33554432 67108864 0 256 2432 80 0 0 0 0 262144 135266305 0 134217728 262144 0 65536 1024 0 0 0 0 0 536870912 0 0 201326596 4800512 2097472 4194336 0 64 268435456 0 0 0 0 134479872 538968064 2147491840 4194336 0 0 0 0 0 0 1073741824 0 268435456 0 0 0 268435456 0 24 2147483648 0 0 0 16384 0 160 8388608 4 0 1048576 32768 0 17039872 1159004292 514 4 0 0 0 1073807360 0 0 0 0 32768 1073741824 536870912 0 0 1073741824 0 0 0 0 536870912 0 0 2048 0 131072 1048576 0 5245952 33587200 132096 4194304 1098768 16 0 0 65536 8 0 0 0 2281701376 134254612 0 0 0 131072 8388608 0 0 0 0 0 0 0 0 0 0 67108864 0 131072 0 0 0 0 16 6 0 0 8405000 524288 0 0 512 0 0 0 2 0 68 2155872256 4194304 2181038080 134217728 0 0 1073741824 0 0 1048576 1049600 0 1050624 0 65600 0 4194304 8192 0 0 0 1 0 536870912 2097152 32768 4 0 0 0 0 0 2048 4194304 0 4 17408 0 0 335544320 0 32770 0 0 2097153 0 0 4096 2097280 512 4 0 0 32 2147483648 0 0 0 2162688 134217728 5242896 276824064 8519680 0 0 0 4194304 0 4096 4194304 0 4096 0 262144 0 0 0 0 0 0 0 0 0 0 0 0 0 0 0 0 0 0 0 0 0 0 0 0 0 0 0 0 0 0 0 0 2048 0 0 8192 3 3 0 0 0 0 0 0 0 2147483648 67108864 128 32 0 0 402653184 0 128 0 0 2 1 0 545259520 41977907 8390656 0 0 0 0 0 0 0 131072 67108864 2097152 0 1 1024 8 67112960 0 0 0 32768 1048576 16384 0 0 0 0 1 2147745792 0 0 16785409 8192 0 64 0 0 536870912 134217728 262144 1073758208 0 34603264 16777224 134217728 2147618816 0 0 536870912 0 268435456 0 536870912 16777216 0 0 1 1024 0 0 10485760 0 0 134217728 0 0 0 262144 0 0 0 0 4262 0 0 0 0 0 0 0 2097152 1024 0 0 0 0 0 4195328 131072 67108864 268443648 32768 33555712 0 0 536870912 8388608 512 1024 524320 0 4096 256 0 262144 256 2361344 0 0 0 0 4718592 0 0 0 2147549184 0 0 0 2097152 0 4194304 8192 0 2147483648 0 0 0 0 0 4194304 0 64 64 0 8 0 0 0 8 536879104 0 1077936128 0 2147485696 128 0 8 41943552 1048576 131072 2304 8388608 268435456 2147500032 67239936 5 0 0 0 8192 2048 0 0 0 0 0 0 0 0 0 0 0 0 0 0 0 0 0 0 537395200 524296 9 0 0 0 0 0 0 32 16777216 128 67109888 32864 134221826 13 0 0 587218944 3264 262144 16 16512 8388608 2147745792 0 131072 0 0 0 0 0 0 0 0 0 0 0 0 0 0 0 0 0 0 0 25165824 4 0 4210688 2147483648 0 8 0 0 0 0 0 131072 268435456 4203264 66710 528672 131072 8192 8192 49280 8388608 2147745792 0 0 0 0 1026 18 0 0 0 0 0 0 0 0 0 0 0 0 0 0 0 0 4 0 0 134217728 128 65544 0 0 0 0 0 131072 0 20996480 9240708 0 0 8704 8192 4 0 0 0 8790016 2048 0 33554432 16384 0 0 0 0 0 0 0 0 0 0 0 0 0 0 0 536870912 201330688 8 0 0 0 0 0 33554432 16 268435456 128 9216 268435489 0 1 0 4195328 587202560 16780544 268435456 8 0 0 0 262144 1024 131080 302006528 1141899264 268435840 0 0 0 0 0 0 0 0 0 0 0 0 0 0 0 201326592 0 0 0 0 0 0 1644167232 144 0 0 0 0 0 33587200 0 7790592 8 8192 0 0 0 0 1074270208 8454144 4096 2048 0 0 0 0 0 0 0 0 0 0 0 0 0 0 131072 201326594 0 0 0 4096 268435464 1057282 67108864 64 0 0 0 0 128 0 118620160 0 528000 0 0 0 0 0 131136 318786305 1107297408 1073741970 0 0 0 0 0 0 0 0 0 0 0 0 0 0 0 0 0 0 0 0 0 2097152 0 0 0 0 0 0 0 50855936 32 7757832 0 0 2 0 0 0 0 0 0 2097152 4352 0 0 0 0 0 0 0 0 0 0 0 0 0 0 0 0 201326592 0 0 0 0 0 0 1140851008 320 0 0 0 0 0 114816 532545568 0 527552
is_linear=0
shrinkage=0.25


Tree=11
num_leaves=31
num_cat=18
split_feature=5 16 0 3 8 10 0 8 3 8 0 3 8 3 8 8 3 3 10 0 7 0 0 10 0 6 0 3 0 3
split_gain=9640.59 7579.02 6862.9 4949.29 17768.5 7077.13 5926.48 5565.19 5377.48 10605.3 4696.39 7609.33 6462.62 4299.44 25886.7 9704.29 9945 6438.97 14847.9 5709.39 8296.08 5659.01 5102.22 5591.57 4654.65 4163.14 4237.31 3930.31 3907.21 3899.55
threshold=0 -0.37939453124999994 1 2 13.949218750000002 15.152343750000002 3 -5.5507812499999991 4 9.3476562500000018 5 6 6.6503906250000009 7 6.7500000000000009 22.250000000000004 8 9 5.5507812500000009 10 1994.5000000000002 11 12 11.050781250000002 13 12.015625000000002 14 15 16 17
decision_type=1 2 9 1 2 2 9 2 1 2 9 1 2 1 2 2 1 1 2 9 2 9 9 2 9 2 9 1 9 1
left_child=1 10 -2 4 7 8 -6 -4 -5 28 11 12 -1 14 -3 17 29 19 24 20 -15 -20 -16 -24 -19 26 -11 -7 -10 -17
right_child=2 13 3 5 6 27 -8 -9 9 25 -12 -13 -14 15 22 16 -18 18 21 -21 -22 -23 23 -25 -26 -27 -28 -29 -30 -31
leaf_value=0.15167474259996283 -0.11196866740515053 0.1453814135655988 0.245241777994683 -0.018961374811582683 -0.56909984585891338 0.095781382631555903 -0.058383944725773747 0.072869182082235834 -0.086864568905157841 0.040248382348974342 0.0087859702591033262 0.054576945694470948 -0.080582096628321762 0.23807758197815232 -0.33549254304036769 0.097532965175530159 -0.11883156436818511 -0.057216854261186757 0.13113575466563027 -0.0088411294075852465 -0.66667091740971152 -0.0077662962364063544 0.02393044100401048 -0.075623557713270409 -0.14001179653805346 0.062786619611284941 -0.078394588392214845 0.003546462914685963 -0.19602699119327793 0.029351474049091549
leaf_weight=8907 47565 78855 13860 611249 1440 40300 67824 75392 47213 26220 506060 427636 46949 9618 3386 77705 23515 91794 24111 876423 677 76359 71126 69922 79031 29621 66547 101815 36309 161276
leaf_count=8907 47565 78855 13860 611249 1440 40300 67824 75392 47213 26220 506060 427636 46949 9618 3386 77705 23515 91794 24111 876423 677 76359 71126 69922 79031 29621 66547 101815 36309 161276
internal_value=0 0.00833559 -0.0189747 -0.0150161 0.0259049 -0.0217786 -0.069104 0.0996423 -0.0307339 -0.0656755 0.0256217 0.0432416 -0.0435313 -0.00207036 0.0301771 -0.00713968 0.0362604 -0.0169778 -0.0506797 -0.00666562 0.178325 0.0255785 -0.0327164 -0.0254183 -0.095535 -0.0188062 -0.0448623 0.029711 -0.134359 0.0515253
internal_weight=0 2.63335e+06 1.16536e+06 1.11779e+06 158516 959274 69264 89252 817159 205910 989552 483492 55856 1.6438e+06 223289 1.42051e+06 262496 1.15801e+06 271295 886718 10295 100470 144434 141048 170825 122388 92767 142115 83522 238981
internal_count=3798705 2633350 1165355 1117790 158516 959274 69264 89252 817159 205910 989552 483492 55856 1643798 223289 1420509 262496 1158013 271295 886718 10295 100470 144434 141048 170825 122388 92767 142115 83522 238981
cat_boundaries=0 1 2 3 4 5 6 7 8 9 10 11 12 13 14 15 16 17 18
cat_threshold=1 32 4 128 9 24599 8 4 3 9 128 16512 128 49157 17024 2 49668 2
is_linear=0
shrinkage=0.25


Tree=12
num_leaves=31
num_cat=15
split_feature=6 0 3 10 16 0 0 3 3 7 6 10 0 2 6 6 0 6 0 7 2 5 10 3 0 10 12 10 0 17
split_gain=9290.71 7880.58 6485.9 18923.8 6710.14 6274.61 6083.95 5437.36 5287.06 4276.8 3804.06 3546.76 4098.45 3404.46 3698.6 3635.74 3253.73 3215.73 3155.01 3050.71 2876.41 2563.51 2555.53 2715.75 2548.7 2532.59 2475.01 2606.08 2409.78 2304.27
threshold=12.042968750000002 0 1 6.1503906250000009 0.37939453125000006 2 3 4 5 2015.5000000000002 9.0820312500000018 11.847656250000002 6 7 11.949218750000002 11.957031250000002 8 11.847656250000002 9 1967.5000000000002 10 11 13.250000000000002 12 13 -7.2499999999999991 4.5000000000000009 19.453125000000004 14 0.68310546875000011
decision_type=2 9 1 2 2 9 9 1 1 2 2 2 9 9 2 2 9 2 9 2 9 1 2 1 9 2 2 2 9 2
left_child=1 9 3 5 6 -3 8 11 19 -1 -9 12 -8 14 17 -16 -6 -7 -5 -4 24 -12 -21 28 -2 -15 27 -20 -24 -19
right_child=20 2 4 18 16 13 7 10 -10 -11 21 -13 -14 25 15 -17 -18 29 26 22 -22 -23 23 -25 -26 -27 -28 -29 -30 -31
leaf_value=0.10295015996172463 -0.26422586897713274 0.0118857704149421 -0.078549833335487429 0.054548919038680747 -0.047006889448215607 0.14476343694406102 -0.09775694473672715 -0.0431876028205029 -0.0029471466941407842 -0.16631018877150908 0.013377263137578024 0.046854581576346546 -0.029423591381507463 0.1358705623650508 0.74217538476580436 0.21363971747584001 -0.017331284841765413 -0.27773917048169944 -0.036011515979149575 0.041476108800671665 0.028078989066463601 -0.017260385326623846 0.23284681076652936 -0.026081241607556552 -0.027063202637531873 0.030219558335074153 -0.52274019096901503 -0.12521049688526964 0.097117853271182455 0.086018771820850923
leaf_weight=54649 3229 67378 10675 18730 367495 61799 80305 123405 236649 3952 555442 25430 173221 20888 1211 2484 621576 1965 111433 145233 718445 246405 10792 8265 22592 44188 702 25083 33990 2436
leaf_count=54649 3229 67378 10675 18730 367495 61799 80305 123405 236649 3952 555442 25430 173221 20888 1211 2484 621576 1965 111433 145233 718445 246405 10792 8265 22592 44188 702 25083 33990 2436
internal_value=0 -0.00601584 -0.00779126 0.0237695 -0.0120766 0.0742089 -0.00231556 -0.0115507 0.0226409 0.0847702 -0.00232622 -0.0421448 -0.0510747 0.10531 0.143634 0.387084 -0.0283584 0.130058 -0.0416747 0.0516201 0.0251324 0.00396209 0.0586324 0.105597 -0.0568307 0.0641268 -0.0548111 -0.0524033 0.129882 -0.0763647
internal_weight=0 3.05578e+06 2.99718e+06 358297 2.63888e+06 202349 1.64981e+06 1.20421e+06 445604 58601 925252 278956 253526 134971 69895 3695 989071 66200 155948 208955 744266 801847 198280 53047 25821 65076 137218 136516 44782 4401
internal_count=3800047 3055781 2997180 358297 2638883 202349 1649812 1204208 445604 58601 925252 278956 253526 134971 69895 3695 989071 66200 155948 208955 744266 801847 198280 53047 25821 65076 137218 136516 44782 4401
cat_boundaries=0 1 2 3 4 5 6 7 8 9 10 11 12 13 14 15
cat_threshold=1 4 17024 17026 10 10 9280 16407 57376 16384 37120 1 2 1 16384
is_linear=0
shrinkage=0.25


Tree=13
num_leaves=31
num_cat=27
split_feature=1 1 1 1 1 1 1 1 1 1 1 1 1 3 1 3 8 1 14 1 1 1 3 1 8 3 1 1 1 3
split_gain=17965.3 12705.4 7831.21 7451.26 7500.83 6370.14 6745.05 6755.65 5817.59 4852.45 5110.38 6605.06 5865 6060.71 5083.72 7285.73 5142.02 5101.2 4769.25 6351.32 4682.01 3895.95 3760.26 5135.59 3638.54 24342.6 16634.5 14093.4 9511.33 8289.27
threshold=0 1 2 3 4 5 6 7 8 9 10 11 12 13 14 15 7.1503906250000009 16 -0.60778808593749989 17 18 19 20 21 23.351562500000004 22 23 24 25 26
decision_type=9 9 9 9 9 9 9 9 9 9 9 9 9 1 9 1 2 9 2 9 9 9 1 9 2 1 9 9 9 1
left_child=8 -2 -3 -4 -5 -6 -7 -8 -1 -9 -11 -12 13 -13 15 16 -14 -16 19 -19 -15 -20 23 -17 29 28 -27 -28 -26 -23
right_child=1 2 3 4 5 6 7 9 -10 10 11 12 14 20 17 22 -18 18 21 -21 -22 24 -24 -25 25 26 27 -29 -30 -31
leaf_value=-0.30313515320584394 0.10574154196884997 0.079754988635167168 0.074189296483520642 0.070293883231792115 0.066954236150546728 0.062487311101031326 0.058937880324512158 0.055691259900761521 -0.098821202662163155 0.051374763015087241 0.047490495260399619 0.11827538992565591 0.064177864195661669 -0.22247672170177185 0.033693833714919477 0.34315382336972633 -0.45030474522121811 -0.16785922543016044 0.043963968570321484 -0.03484513384311335 0.015687243240159961 -0.059661281560758658 0.010304134005375736 0.07759853568548275 -0.2388458632901049 -0.61799035468726482 0.40954492407230758 -0.12711533339902825 0.044964498402118205 -0.013308796631090653
leaf_weight=10475 72542 75527 79309 84474 74974 85745 90157 67819 51791 77765 106957 40440 1976 5667 106687 5241 3144 23147 66765 722793 56418 305008 51358 34377 7573 4109 3217 58406 274726 1151421
leaf_count=10475 72542 75527 79309 84474 74974 85745 90157 67819 51791 77765 106957 40440 1976 5667 106687 5241 3144 23147 66765 722793 56418 305008 51358 34377 7573 4109 3217 58406 274726 1151421
internal_value=0 0.00214399 9.31926e-05 -0.00158307 -0.00329528 -0.0051101 -0.00672277 -0.00854054 -0.133244 -0.0104569 -0.011901 -0.0135255 -0.0157588 0.0429737 -0.0178944 0.0386152 -0.251233 -0.0198883 -0.0220728 -0.0389759 -0.00608344 -0.0153345 0.0549586 0.11282 -0.0175288 0.00543542 -0.13157 -0.0990271 0.0373411 -0.0230167
internal_weight=0 3.73774e+06 3.6652e+06 3.58967e+06 3.51036e+06 3.42589e+06 3.35092e+06 3.26517e+06 62266 3.17501e+06 3.1072e+06 3.02943e+06 2.92247e+06 102525 2.81995e+06 96096 5120 2.72385e+06 2.61716e+06 745940 62085 1.87122e+06 90976 39618 1.80446e+06 348031 65732 61623 282299 1.45643e+06
internal_count=3800008 3737742 3665200 3589673 3510364 3425890 3350916 3265171 62266 3175014 3107195 3029430 2922473 102525 2819948 96096 5120 2723852 2617165 745940 62085 1871225 90976 39618 1804460 348031 65732 61623 282299 1456429
cat_boundaries=0 46 92 138 183 228 273 319 364 403 448 491 537 581 582 627 628 673 719 760 805 806 847 848 894 939 985 986
cat_threshold=0 268437504 0 0 0 0 0 262144 0 335609856 0 4 536870912 262152 0 0 0 0 32 0 0 0 0 4456464 16 1280 69271552 8192 0 67108864 0 0 0 0 301989888 0 8 536870912 32 0 33554432 67108864 4 0 128 256 0 262144 4096 0 0 0 2147483648 32768 536870912 0 2048 8388608 1048576 0 0 67108896 0 0 0 128 288 24 0 65664 4456448 0 2147483648 0 256 0 0 0 0 0 2048 0 134217728 270336 0 0 516 524288 268435488 4096 0 2 0 0 0 1074282496 536870912 512 1048576 8388608 0 8 0 0 8388608 65536 134217728 576 0 128 75760128 0 268435456 8192 0 16384 0 0 524288 1 64 0 134217728 268439552 0 0 0 0 0 0 0 8192 0 4 8388624 0 0 128 0 0 0 0 0 0 131072 0 0 64 32768 1 0 16 0 8 0 132096 1073741824 65546 532993 0 0 2147483648 1 2 0 32 0 134217728 0 0 1074069504 134217730 0 0 65536 0 268435456 0 64 8192 0 0 1048577 0 0 0 570425344 67108864 0 1024 33554432 0 0 0 18972672 0 0 1 0 0 301993984 0 16896 2 0 0 1024 67125248 16 4456448 0 0 0 0 0 16384 0 0 524288 2147483776 1073774592 0 0 0 2082 0 0 8192 0 0 0 0 4194312 0 2099200 256 1048608 1073741856 135176 8192 0 131072 1073741824 0 1048640 0 65536 133120 0 0 0 0 0 75497472 0 67108864 0 0 131072 2 524292 0 0 0 0 0 0 0 0 2147483904 256 1024 16777216 0 0 0 4194305 0 0 805306368 20971520 0 0 17039360 0 0 4 0 536879108 128 327684 16777344 4096 0 32768 0 0 131072 0 0 131072 0 0 0 2147483648 0 0 16 1048576 16 1024 0 33280 16 0 2097152 0 0 1 0 0 0 83890176 0 64 524289 32 1024 16 0 0 33554440 1077936128 0 1048576 2097152 0 0 16777216 16384 0 0 0 0 0 256 33792 0 33554432 0 4194304 0 2056 1 262144 0 33554432 33554448 0 16777216 1048576 0 0 2 0 0 0 0 0 0 0 0 0 0 0 0 0 0 0 0 0 0 0 0 0 0 0 0 16 0 0 0 0 67108864 0 0 0 0 33554432 0 0 0 32 0 0 0 8423424 270532608 0 0 0 524288 0 0 0 0 537395200 33687552 33554432 0 2147483648 1 4 0 0 0 0 16846848 2147483648 36868 512 33554432 0 0 0 2 0 0 268435456 538968064 2048 0 1073741824 0 8388608 0 0 2147483648 0 0 0 1048576 0 256 16 2048 0 397824 536870912 1073741824 64 16777218 2148007936 262144 301989888 66 0 524288 0 0 0 16777216 128 0 128 524288 128 0 0 0 0 0 0 0 32 67108864 64 0 256 131072 67108864 536870912 0 0 0 0 8192 0 67108864 134217728 1 134217728 4096 1024 0 0 16777216 0 0 131072 0 1073741824 0 0 268566592 1048576 0 8 0 2048 0 16 0 0 0 0 32768 268439553 268435456 2164260992 1026 2048 32768 0 0 524288 8 2415919104 0 0 2097152 0 0 262656 0 0 0 1073741824 0 139264 2097152 0 65552 0 768 2048 0 0 0 0 0 8388608 134221824 0 0 2147484672 0 0 0 0 256 4096 2281701376 0 0 0 2147483672 266368 0 0 1073750032 6 0 0 2147483648 134217730 0 16384 134217728 0 0 536871168 0 0 0 33554464 0 4194304 0 32 0 0 0 0 0 8192 0 0 1 2 268435456 2147483648 0 0 268435464 1073741824 2 0 0 20971520 524288 536936448 4228096 2097152 0 2147483650 131072 8 0 0 0 0 0 32784 0 1073741824 0 134217728 128 4194304 4 0 512 32768 16 0 524288 0 0 0 0 0 0 0 64 1048576 131072 147457 0 0 0 131076 65536 16779282 1048576 0 512 16384 0 536870912 8 8 603979776 512 0 0 0 0 134217732 2 136314880 67108865 2052 65536 0 512 0 0 0 0 1073741824 16 0 4096 536872960 1145061632 512 0 268435456 0 0 0 0 1073741824 0 0 0 1024 4096 1073741824 514 8 0 0 0 0 0 0 64 2147483648 0 0 0 0 0 0 0 0 0 0 0 0 0 0 0 0 0 0 0 0 0 0 0 0 0 0 0 0 0 0 0 0 0 0 0 0 0 0 0 266240 0 0 0 8704 134219776 33554432 0 0 0 8388608 0 1048576 0 32768 1048580 2097152 0 0 0 0 0 0 0 1074266112 1073741824 4 0 262144 0 0 0 8421376 4198400 0 16384 4160 0 134218242 8 128 0 33554440 134217728 0 1073741824 6 0 0 0 0 0 0 0 0 0 0 0 0 0 0 0 0 0 0 0 0 0 0 0 0 0 0 0 0 0 0 0 0 0 1073741824 0 0 0 0 524288 0 4194304 3 0 0 0 0 0 0 0 0 0 0 0 0 0 0 0 0 0 0 0 0 0 0 0 77596672 840958026 0 0 0 16 0 4160 0 0 4718592 2155872268 536870912 1024 65796 4 260 135266304 0 0 0 0 4 0 0 0 0 0 0 0 0 0 0 0 0 0 0 0 0 0 0 0 0 0 0 0 32768 0 1 0 0 0 0 0 67108864 0 0 553648160 8192 67240004 32 4217088 463863809 0 1536 33554434 65536 268435456 0 0 0 0 0 0 0 512 8208 0 33554432 0 0 268439552 0 1073741824 1 0 0 0 0 0 0 8388608 1024 0 33554432 0 0 0 0 1142947840 0 0 1179648 32 131328 2097152 0 524288 9 4096 33587200 256 33555744 16 2
is_linear=0
shrinkage=0.25


Tree=14
num_leaves=31
num_cat=27
split_feature=1 1 3 1 1 1 1 1 16 1 3 1 3 1 1 1 1 1 3 1 3 1 1 3 6 1 1 17 1 1
split_gain=11938.4 7711.97 5324.61 6308.29 5135.63 5002.06 4945.63 5121.87 4287.94 18454.3 10354.9 6357.57 9583.59 4762.06 4170.15 3333.7 3315.43 3251.43 4188.36 3242.92 3208.35 3584.76 3037.48 6582.44 3007.99 2950.59 2860 2709.92 2591.42 2846.24
threshold=0 1 2 3 4 5 6 7 0.60351562500000011 8 9 10 11 12 13 14 15 16 17 18 19 20 21 22 12.621093750000002 23 24 1.0000000180025095e-35 25 26
decision_type=9 9 1 9 9 9 9 9 2 9 1 9 1 9 9 9 9 9 1 9 1 9 9 1 2 9 9 2 9 9
left_child=24 2 5 -4 -3 -2 -6 -8 11 10 13 12 -9 -10 -13 -14 -11 18 -16 20 -19 27 23 -21 -1 -24 -18 -22 -27 -30
right_child=1 4 3 -5 6 -7 7 8 9 16 -12 14 15 -15 17 -17 26 19 -20 22 21 -23 25 -25 -26 28 -28 -29 29 -31
leaf_value=-0.092297404510280415 0.36032164564234509 -0.072697513610013073 -0.19090650687971011 0.067508446447269346 -0.069038862264974923 0.1089922771176673 -0.065351831391192466 0.24419161460598821 -0.14035732360939865 -0.092395963114124374 -0.10364808555992008 -0.06596321070519176 -0.075601938127093662 -0.51916432989079786 -0.024414413910228552 0.066022561890600601 0.082806397070323876 -0.20786263234223201 -0.23146939255956953 -0.0091308319199959655 1.2079614910161551 -0.038317058083894052 -0.042291421288085211 -0.2459741757490703 -0.29055617598397881 -0.039276951694774423 -0.0032013570610759986 0.22550701825982994 -0.036119120358227078 0.01748356141636483
leaf_weight=56763 6487 59761 6879 41255 61592 20946 68360 17331 3025 25436 27508 47773 13694 6793 38048 42913 24800 7042 7265 46493 212 45612 58943 8698 5224 54736 926705 1007 63873 2005309
leaf_count=56763 6487 59761 6879 41255 61592 20946 68360 17331 3025 25436 27508 47773 13694 6793 38048 42913 24800 7042 7265 46493 212 45612 58943 8698 5224 54736 926705 1007 63873 2005309
internal_value=0 0.00161356 0.0806614 0.0305371 -1.73856e-05 0.168553 0.00118821 0.00240982 0.00374378 -0.00993327 -0.182428 0.00938541 0.0815778 -0.402764 0.00714686 0.0317492 -0.00334043 0.00864163 -0.057665 0.00995294 -0.0506521 -0.0269637 0.0114121 -0.046503 -0.108997 0.0128768 -0.000958459 0.394193 0.0144082 0.0158286
internal_weight=0 3.7385e+06 75567 48134 3.66293e+06 27433 3.60317e+06 3.54158e+06 3.47322e+06 1.01427e+06 37326 2.45895e+06 73938 9818 2.38501e+06 56607 976941 2.33724e+06 45313 2.29192e+06 53873 46831 2.23805e+06 55191 61987 2.18286e+06 951505 1219 2.12392e+06 2.06918e+06
internal_count=3800483 3738496 75567 48134 3662929 27433 3603168 3541576 3473216 1014267 37326 2458949 73938 9818 2385011 56607 976941 2337238 45313 2291925 53873 46831 2238052 55191 61987 2182861 951505 1219 2123918 2069182
cat_boundaries=0 43 89 90 131 175 216 261 307 349 350 395 396 436 482 524 568 614 615 660 661 695 737 738 782 825 870 915
cat_threshold=0 268437504 0 0 0 1048577 0 72 8 70254592 0 0 16777216 8192 0 268435456 67110912 0 0 32 0 0 0 262160 16 4194816 2105344 0 0 67141632 0 262144 1 0 33554432 0 8 0 32 0 0 67108864 4 0 0 4096 524288 0 512 2147483648 32768 0 0 2048 0 0 0 134217728 67108864 0 0 75759616 128 268435744 0 0 82048 4456448 0 0 1 64 0 0 0 0 0 2048 0 134217728 0 0 0 262660 0 268435488 4096 0 130 6 0 0 0 0 0 0 0 0 0 0 0 0 0 0 0 0 0 0 0 0 0 0 0 0 0 0 0 0 0 0 0 0 0 0 2048 0 0 0 0 0 262656 0 0 0 0 0 0 0 134217728 278528 0 524288 0 0 257 268435584 524288 134225956 536870912 537919488 2129920 0 256 0 33554432 0 2255168 16777216 128 0 0 0 0 0 0 67108864 0 0 0 0 0 33554432 0 0 256 0 0 4096 0 0 0 0 0 0 0 0 0 0 0 0 0 0 0 0 0 0 0 0 0 0 0 0 0 0 0 0 0 0 0 2048 0 0 0 0 0 262144 0 0 0 1024 0 335544322 0 0 0 0 512 33554560 16384 1048704 32 8388609 2148007936 0 0 1610612736 4 0 0 67108866 0 1048576 268568576 0 0 1024 0 0 132096 512 1342177280 0 0 0 0 0 0 0 0 0 2304 0 0 0 0 327680 0 0 268435456 0 16842752 0 0 0 8 0 0 16777216 5242880 16384 8388608 1048576 2 0 0 0 302055456 16384 0 0 0 0 134217728 8192 13665344 32 0 1073750016 536870912 0 0 0 0 0 0 262144 16 0 0 0 0 16 0 0 0 0 0 0 0 0 0 262144 0 0 0 2097152 256 262144 4212772 0 0 0 0 0 0 0 0 0 0 0 0 0 0 67108864 4 2766557184 123752449 0 192 2 0 0 0 0 536870912 0 1048576 0 1024 0 0 0 0 0 0 0 0 1024 0 196608 524288 0 0 16777280 0 0 0 131072 0 0 0 0 4 134217728 0 0 2954887312 1073741824 2692743184 3305127937 0 2304 0 0 1 12 0 0 0 0 0 0 0 0 0 0 0 0 0 0 0 0 0 0 0 0 0 0 0 0 0 0 0 0 0 0 0 0 0 0 0 0 0 0 4603904 20480 0 0 0 128 0 134479872 4194306 262144 512 268435456 0 1044 537133056 4096 0 1073741824 4194307 0 12 268435456 0 18874368 0 0 4 1073741824 0 0 0 0 0 0 0 0 4194304 0 0 1048832 0 0 0 1073741824 0 0 0 352 0 0 0 0 0 0 0 0 0 0 0 0 0 0 0 0 0 0 0 0 0 0 0 0 0 0 0 0 0 0 0 0 0 0 0 0 268435584 1073741824 0 83886080 0 2048 0 0 0 0 1060 4 65536 2097152 2052 0 0 0 4194304 0 0 0 0 0 134217728 0 100696064 301990400 65540 0 0 0 0 134217728 1074790408 10240 1073741824 0 0 2147491856 0 1610612736 0 131072 0 0 0 0 0 2097152 0 0 0 0 0 0 8 0 0 524288 65536 524288 0 262144 0 131072 536870912 1 64 201326592 0 524288 17039488 0 0 295936 1140916736 8448 0 0 0 0 536870912 0 8388608 0 0 0 1073741824 0 0 0 536870912 512 36864 4 3 0 0 0 0 0 4194304 0 0 64 0 33570816 0 67109376 134217728 67108864 0 0 0 0 0 2281701376 2147483776 68173824 2048 64 0 32 16 0 8192 0 0 136314880 2147557376 262144 0 0 0 0 256 2147483648 4096 4194304 0 134217856 4 0 0 0 0 0 0 0 0 0 0 0 0 0 0 0 0 0 0 0 0 0 0 0 0 0 0 0 0 0 0 0 0 0 65536 0 0 0 0 1073741824 0 4 2147483648 0 4195328 0 32 32768 0 8 0 0 2097152 34 2181038080 25165824 268435456 136380480 32 0 536870912 0 64 0 256 2164260864 0 0 524288 0 545259520 0 0 0 0 142606336 268435456 3 0 0 0 65536 0 0 0 0 2147483648 8192 2147483684 2147483648 2147483648 0 536870914 2176 0 0 0 1 2097152 33619968 260 0 0 128 33554432 2147483648 0 536871424 68157440 0 0 0 134217728 1 131328 0 2048 0 0 0 0 1064960 268435456 0 0 128 0 0 0 256 536870912 48 0 2097152 41943040 16842752 0 64 268435456 0 1073741824 0 0 16 0 0 83886080 6 786432 32 0 0 0 20971520 0 0 32768 0 0 270336 16785408 0 0 524292 16 0 0 0 0 512 536936448 8192 0 0 2048 0 256 270532608 268435456 0 0 262152 16384 8208 0 4194304 1310720 1644169216 4194816 33554432 0 0 8 4 0 0 524288 67108864 2097152 256 0 0 0 0 0 0 0 16384 0 16384 0 0 0 0 2164785152 2048 32768 0 65536 4 8193 134217728 0 1088 32768 0 0 0 4096 0 4160 0 1024 8388608 2415919104 0 0 0 65536 526336 16384 8192 0 16 0 0 4195328 8388608 0 0 1 16777216 0 0 8
is_linear=0
shrinkage=0.25


Tree=15
num_leaves=31
num_cat=26
split_feature=1 1 3 1 1 8 3 1 1 1 3 16 1 1 3 8 3 1 1 1 1 8 1 1 1 1 1 1 1 1
split_gain=7583.22 5036.52 4326.37 8430.83 6773.65 4105.33 6138.03 3728.42 3261.42 3771.7 3124.37 3116.59 6795.85 6040.75 4387.9 4202.21 3817.02 55370.5 25891.1 20770.1 19642.8 11777.1 10629 10512.5 7648.51 6250.79 5448.73 4809.62 4767.06 3912
threshold=0 1 2 3 4 6.6503906250000009 5 6 7 8 9 -0.37939453124999994 10 11 12 25.648437500000004 13 14 15 16 17 -2.1494140624999996 18 19 20 21 22 23 24 25
decision_type=9 9 1 9 9 2 1 9 9 9 1 2 9 9 1 2 1 9 9 9 9 2 9 9 9 9 9 9 9 9
left_child=-1 2 3 -2 5 6 -4 -3 -9 10 -10 12 -11 14 -13 -16 17 21 -19 -18 29 26 -20 -23 -24 -22 -15 -27 -26 -21
right_child=1 7 4 -5 -6 -7 -8 8 9 11 -12 13 -14 16 15 -17 19 18 22 20 25 23 24 -25 28 27 -28 -29 -30 -31
leaf_value=-0.087698469929122433 0.43756336100954174 0.052172956701595198 -0.10286444377585457 -0.024764831142375324 0.075826475592227091 -0.0062621225735905476 -0.74732154720913724 0.049776677366987369 -0.096086537345288048 0.10992883681348821 0.061890612783156551 -0.033930212141538053 0.0028636269638975275 0.38343112863534823 -0.20948234477264147 0.14317541912541271 -0.18610020522511717 0.27507395766990445 0.16278742513864281 0.41167821489628642 -0.10078574292495425 -0.58685140920237999 -0.10500605599723761 -0.25014908512368156 0.11654613205879512 0.062931763016697062 -0.14552339162831487 -0.011926033472595261 0.008268114684373858 0.12891930082028158
leaf_weight=60827 5241 83640 2410 4650 52951 4733 1500 76693 8612 38181 84590 36241 1243128 1971 20710 2350 41637 30268 31922 3271 48137 8419 31775 18791 31406 55508 3144 1587509 133032 46280
leaf_count=60827 5241 83640 2410 4650 52951 4733 1500 76693 8612 38181 84590 36241 1243128 1971 20710 2350 41637 30268 31922 3271 48137 8419 31775 18791 31406 55508 3144 1587509 133032 46280
internal_value=0 0.0012799 0.066996 0.2204 0.0423227 -0.162744 -0.352464 -1.22662e-06 -0.00121919 -0.00233466 0.047281 -0.00368951 0.00605516 -0.00954507 -0.0882119 -0.173453 -0.00729415 0.0192663 0.057859 -0.0116268 -0.00745217 -0.289148 0.0290269 -0.354662 0.00725611 -0.0119986 0.0587538 -0.00939647 0.0289561 0.147677
internal_weight=0 3.7387e+06 71485 9891 61594 8643 3910 3.66722e+06 3.58358e+06 3.50688e+06 93202 3.41368e+06 1.28131e+06 2.13237e+06 59301 23060 2.07307e+06 290728 258403 1.78234e+06 1.7407e+06 32325 228135 27210 196213 1.69115e+06 5115 1.64302e+06 164438 49551
internal_count=3799527 3738700 71485 9891 61594 8643 3910 3667215 3583575 3506882 93202 3413680 1281309 2132371 59301 23060 2073070 290728 258403 1782342 1740705 32325 228135 27210 196213 1691154 5115 1643017 164438 49551
cat_boundaries=0 39 85 86 128 170 171 214 259 305 306 348 390 391 392 438 483 528 574 619 660 705 750 791 834 879 919
cat_threshold=512 2048 0 0 16 1 0 134217792 262144 67108864 512 524416 0 0 0 0 536870912 0 64 0 0 0 64 262160 16 4603904 85983232 128 0 67108864 0 0 536870912 66560 33554432 0 8 0 32 0 262144 4096 1073758208 0 0 2147614720 0 0 0 0 8388608 9437184 0 0 67109408 0 128 512 0 32 0 0 65536 262145 0 2152202240 0 0 0 0 268439552 0 2 2048 0 65536 0 0 8192 516 2048 8388608 0 0 2 12 0 0 0 0 0 0 0 0 0 0 0 0 0 0 0 0 0 0 0 0 0 0 0 0 0 0 0 0 0 0 0 0 0 0 2048 0 65536 0 0 0 0 2048 0 0 0 0 0 0 0 0 0 0 0 0 0 0 0 0 0 0 0 0 0 0 0 0 0 0 0 0 0 0 0 0 0 0 2048 0 65536 0 0 0 0 2048 1 0 0 0 536870912 0 0 2097152 8388608 0 8 0 16842753 0 0 134217729 8 0 131072 0 17034 8704 8 0 2147483648 0 18 0 67108864 0 0 134217728 0 1074069504 0 0 0 0 294912 0 0 64 32 268435456 0 0 0 33554432 608174080 0 1024 0 0 0 32768 32768 0 16 0 64 0 301993984 0 2048 259 8192 0 1024 16384 0 262144 32 0 0 0 2 16384 0 0 524288 134217728 0 268435456 0 16 2147491840 256 0 1056768 0 0 0 0 8 0 268437504 37748736 537919488 1073741888 4096 8192 0 0 0 536870912 1048640 4 67174400 65536 268435456 0 0 128 0 0 0 32768 0 134217728 0 0 268959744 0 0 1048576 0 1073741824 33554432 0 0 2 16 1024 16777216 1 8 1073750016 0 134236160 0 0 0 256 16777216 1024 0 1048576 0 8 2097152 0 0 0 1024 0 0 0 0 0 16777536 0 0 0 0 0 0 0 0 0 134217728 536870912 0 2216689728 0 2684375056 3238019073 0 512 1073750016 0 18432 0 0 4 0 0 4 2179074 0 32 0 136 268435456 0 16779264 0 0 0 262144 32 0 512 0 0 0 0 0 0 1073741824 0 0 0 2415919104 0 64 0 79695872 20480 0 268435648 9 4 0 0 0 0 0 0 0 0 0 0 0 0 0 0 0 0 0 0 0 0 0 0 0 71303168 1887436800 0 0 2684354560 1048592 24 69632 0 0 4194304 8388608 536871424 0 276824064 65540 2052 142606336 134217728 68 0 4608 4 0 0 0 0 0 0 0 0 0 0 0 0 0 0 0 0 0 0 0 0 0 0 0 268451840 2147483648 4 0 0 0 0 0 32 0 131072 1130496 268435456 131236 171991040 0 0 2097160 570425344 33685506 1114368 302514176 0 0 0 0 0 0 0 0 0 0 0 0 0 0 0 0 0 0 0 0 0 0 0 268468224 2147483648 0 0 0 0 0 0 32 0 1076363264 538001408 268435456 67240064 24576 536870912 0 0 570425344 34606082 1114368 302514208 0 0 0 0 0 0 0 0 0 0 0 0 0 0 0 0 0 0 0 0 0 0 0 71303168 1910505472 0 0 0 0 16 4096 16 0 4194304 2 536871424 0 276889600 0 2308 142606336 131072 68 4 4198912 4 0 0 0 0 0 0 0 0 0 0 0 0 0 0 0 0 0 0 0 0 0 0 0 537001984 65536 1 0 0 0 0 0 0 0 1075838976 537396289 8192 1 524288 2281701376 32768 1342352416 0 1050624 160 1058 0 0 0 0 0 0 0 0 0 0 0 0 0 0 0 0 0 0 0 0 0 0 0 67108864 1610612736 0 0 0 0 0 0 0 0 0 0 536871424 0 0 65540 2052 8388608 0 0 0 0 0 0 0 0 0 0 0 0 0 0 0 0 0 0 0 0 0 0 0 0 256 0 0 18432 74254345 262146 536879360 16 0 0 0 8388608 16778240 65536 8 256 33554432 131072 2148007944 536870916 4194304 0 0 0 0 0 0 0 0 0 0 0 0 0 0 0 0 0 0 0 0 0 0 0 8388608 65536 1 0 0 1073741824 1048576 0 0 0 545259520 132160 1207959552 268435460 168296449 2281701376 1 8 1140850696 0 1140867104 66624 0 0 0 0 0 0 0 0 0 0 0 0 0 0 0 0 0 0 0 0 0 0 0 4194304 1610612736 0 0 0 0 0 0 0 0 4194304 0 536870912 0 0 65540 0 134217728 0 0 0 0 0 0 0 256 0 0 0 0 0 50397184 0 0 268435456 2 1082130432 0 0 16 0 0 0 0 0 2684354560 2149845008 262216 131160 4194304 0 0 262160 0 0 32 65540 0 0 135266304 8 0 0 0 0 0 0 0 0 0 0 0 0 0 0 0 0 0 0 0 0 0 0 0 0 524288 0 0 0 268435456 16777216 8388608 0 0 0 2228224 134217746 16 67108995 536870912 67 67375232 16777224 66560 1073790984 131136 0 0 0 0 0 0 0 0 0 0 0 0 0 0 0 0 0 0 0 0 0 0 0 67108864 0 0 0 0 0 0 0 0 0 0 0 0 0 0 0 4
is_linear=0
shrinkage=0.25


Tree=16
num_leaves=31
num_cat=27
split_feature=1 1 10 3 1 1 1 3 1 3 1 1 1 1 1 3 8 1 1 1 1 1 8 3 3 1 1 1 1 1
split_gain=5917.7 3793.96 3450.23 33772.1 35242.3 28634.6 21310.1 9942.32 9806.47 9135.19 19465.7 11296.8 9636.59 8728.65 8590.6 14665.7 15688.4 8291.71 7447.23 6888.56 6885.79 6788.56 11782.7 14809.7 7933.89 48033.2 24903.2 24833.4 11878.9 8124.4
threshold=0 1 -7.1503906249999991 2 3 4 5 6 7 8 9 10 11 12 13 14 8.8476562500000018 15 16 17 18 19 8.8476562500000018 20 21 22 23 24 25 26
decision_type=9 9 2 1 9 9 9 1 9 1 9 9 9 9 9 1 2 9 9 9 9 9 2 1 1 9 9 9 9 9
left_child=-1 -2 3 4 -3 7 -6 18 -7 12 -11 -12 -10 -9 15 16 -4 -8 -5 -14 -13 22 23 -16 25 -23 29 -26 -29 -27
right_child=1 2 14 5 6 8 17 13 9 10 11 20 19 -15 21 -17 -18 -19 -20 -21 -22 24 -24 -25 27 26 -28 28 -30 -31
leaf_value=-0.076506140278266868 0.056181368248624824 -0.35403216809476057 0.029199010902126076 -0.47654990490005883 0.49340712873442488 0.22013802701839572 0.32950760750299829 -0.16771112280181188 0.24409593347023761 -0.38742817598651696 0.23898133461257914 -0.24114130951356802 -0.19371283527507935 -0.6615987048732519 -0.2873423411759623 -0.014831926594667016 -0.42048479920782877 0.10864397625197969 0.014218469481265171 0.017006302317227804 -0.03192129280537246 -0.27091914639778347 0.12631269958009836 0.057922136171249694 0.12412847999398294 0.52200913880581612 -0.047503465240674551 -0.10236081318897812 -0.0012853328479436711 0.14347711304931859
leaf_weight=62243 76849 8404 7473 2723 11850 12014 12224 3459 11232 10982 8527 11642 10209 6455 11401 50310 13802 81212 6595 189147 63005 47337 65055 24286 97846 3888 105245 74694 2670228 39526
leaf_count=62243 76849 8404 7473 2723 11850 12014 12224 3459 11232 10982 8527 11642 10209 6455 11401 50310 13802 81212 6595 189147 63005 47337 65055 24286 97846 3888 105245 74694 2670228 39526
internal_value=0 0.00121157 5.73752e-05 0.0205668 0.138339 -0.0192873 0.177676 -0.315391 -0.00129821 -0.0100364 -0.074765 -0.0334333 0.0189056 -0.489683 -0.00281468 -0.0884418 -0.262401 0.137577 -0.129565 0.00620405 -0.0645855 -0.000861876 0.0629816 -0.0524425 -0.00297874 -0.0516272 0.0182145 0.000375453 -0.00403626 0.177506
internal_weight=0 3.73762e+06 3.66077e+06 449680 113690 335990 105286 19232 316758 304744 94156 83174 210588 9914 3.21109e+06 71585 21275 93436 9318 199356 74647 3.13951e+06 100742 35687 3.03876e+06 195996 148659 2.84277e+06 2.74492e+06 43414
internal_count=3799863 3737620 3660771 449680 113690 335990 105286 19232 316758 304744 94156 83174 210588 9914 3211091 71585 21275 93436 9318 199356 74647 3139506 100742 35687 3038764 195996 148659 2842768 2744922 43414
cat_boundaries=0 44 90 91 134 178 221 222 267 268 312 354 397 441 486 487 532 575 620 665 708 709 710 751 793 834 880 922
cat_threshold=0 268437504 0 0 0 0 0 8 0 67108864 524288 0 0 256 0 524288 134742016 0 536870912 1075838976 0 268435968 136314880 18 16 1057856 2097152 0 8192 67108864 0 0 131072 65536 100663296 0 0 0 32 0 0 0 0 256 0 0 4096 524289 0 512 2147483649 33587200 32 0 262152 0 0 131078 1073741824 0 0 0 262144 4096 32 32768 0 0 262144 0 0 131073 256 0 0 2147483648 0 2048 2048 0 128 2048 0 0 516 0 0 0 0 130 12 0 0 0 0 0 16809992 33571328 2148532240 2424307840 0 0 0 0 0 0 0 0 0 0 0 0 0 0 1140883456 64 0 0 0 0 16 0 67584 0 0 268435456 0 20971520 32 1077938176 2052 41943040 0 64 0 0 0 0 0 0 0 0 0 0 0 0 0 0 0 0 0 0 0 0 0 0 0 268435456 2281701376 0 0 0 0 0 67108864 67108864 0 6291456 65536 0 196610 0 397312 267649088 1024 3584 33555488 2097152 0 0 0 0 0 0 0 0 0 0 0 0 0 0 0 0 0 0 0 0 0 0 0 4194304 2248146952 4 0 0 0 0 0 1107820608 0 0 4104 805306368 131072 532740 67158020 1052672 0 536892608 2 1 0 0 0 0 0 131072 50331648 1074792448 144 80 1077936128 0 0 40 134218752 4194304 2097168 0 0 0 0 0 0 67108864 16777216 2 0 0 0 536870912 0 0 0 0 2147483648 536870912 0 0 16777216 4 4456448 0 32772 0 512 1 0 0 0 0 0 0 0 4096 8 0 0 0 0 0 0 0 0 0 0 0 0 0 0 131072 100663296 9 0 0 0 0 0 33555008 0 0 524289 285212672 33554465 128 1822490624 268566528 0 3221229568 0 786432 0 0 0 0 0 65544 805323528 2164262400 2 0 0 0 0 0 0 0 0 0 0 0 0 0 0 2147483648 0 4 0 0 0 0 0 0 0 0 0 524288 0 268435456 34078720 1170 11227144 1 0 0 0 0 0 0 4194304 0 2155872264 4 0 0 0 0 0 0 8388608 0 0 0 0 0 0 2048 1954546688 8 0 0 0 0 0 8390656 0 0 1 1024 33554432 8388608 1075904524 133120 1 1090535424 64 0 0 0 0 0 0 0 0 0 0 0 0 0 0 0 0 0 0 0 0 0 0 0 0 2147483648 0 0 0 0 0 0 0 0 6291456 0 0 131072 0 393216 134217728 0 0 1024 2097152 0 0 0 0 0 0 0 0 0 268435456 0 4 0 4104 0 1342177280 3 0 0 0 0 0 0 73662464 33554432 0 0 0 0 0 0 0 0 1048576 2147483648 545259520 9224 539033860 4 0 134217729 4096 32772 0 262144 4 0 0 0 0 0 0 0 0 0 0 0 0 0 0 0 0 0 0 0 0 0 0 0 2361344 134742016 0 0 0 0 0 0 256 144 524288 720896 1073741840 65600 65536 77824 12713984 2148532224 50856449 0 0 268435520 0 0 0 0 0 0 0 0 0 0 0 0 0 0 0 0 0 0 0 0 0 0 0 268435456 2147483648 0 0 0 0 0 67108864 0 0 0 0 0 131074 0 393216 0 0 0 33554432 0 0 0 0 0 1048576 0 0 536870912 0 0 134742032 0 0 128 0 0 0 0 0 0 0 0 0 0 4 0 0 0 0 0 0 0 1073872896 536887296 2147483648 0 4218880 8464 0 9050184 0 2 1115136 268959776 0 0 0 0 0 1073741824 0 0 0 0 0 0 0 0 0 0 0 0 0 0 0 0 0 2048 536870916 0 0 0 0 0 0 256 464 25165824 160 4326400 32772 16777248 1 4096 1073741824 587726848 2049 5242880 8 0 0 0 0 0 0 0 0 0 0 0 0 0 0 0 0 0 2 0 0 0 0 0 1342308352 4096 8 0 0 0 0 0 0 0 0 268500993 285474816 151064611 1090519072 0 159645696 1024 11008 32 2 8 0 0 0 8192 0 8585224 33833224 3221225488 2155872640 0 0 0 0 0 0 0 0 0 0 0 0 0 0 0 0 0 0 0 0 0 0 133120 0 0 0 0 0 0 1109393408 1024 7856128 0 0 0 66560 131072 1073741824 2097152 4096 16 0 0 0 0 0 0 0 0 0 0 0 0 0 0 0 0 0 0 0 0 0 0 1140850944 64 0 0 0 0 0 31104 372901928 0 525344 0 0 0 8658944 2048 131144 839273216 1073741824 384 0 0 0 0 0 0 0 0 0 0 0 0 0 0 0 0 0 0 0 0 0 0 133120 32 0 0 0 0 0 1107296256 0 7839744 0 0 0 66560 131072 0 0 4096 16 33554432 0 0 536875008 1 0 131072 8192 0 0 0 0 0 0 0 16777216 0 0 0 0 0 0 1140851008 64 0 256 0 1073741824 0 81920 303564800 0 525504 0 0 256 32 0 0 0 0 0 0 0 0 0 0 0 0 0 0 0 0 0 0 0 0 0 0 0 0 0 0 0 0 0 0 0 67108864 0 0 0 0 0 0 0 0 0 525312
is_linear=0
shrinkage=0.25


Tree=17
num_leaves=31
num_cat=26
split_feature=1 8 1 1 1 1 1 1 1 1 17 1 1 0 2 1 1 1 8 1 1 1 1 1 1 1 17 1 1 1
split_gain=4863.16 2843.6 13583.9 10278.4 8512.16 6335.98 5864.17 4705.19 4391.4 3593.84 3168.27 3152.35 3056.32 3177.28 3632.91 2777.86 2493.79 2385.63 2457.11 14582.4 13465.2 12246.2 8747.12 6274.93 4490.7 4308.67 4285.17 6590.4 3619.08 3403.26
threshold=0 23.250000000000004 1 2 3 4 5 6 7 8 0.68310546875000011 9 10 11 12 13 14 15 5.9492187500000009 16 17 18 19 20 21 22 1.0000000180025095e-35 23 24 25
decision_type=9 2 9 9 9 9 9 9 9 9 2 9 9 9 9 9 9 9 2 9 9 9 9 9 9 9 2 9 9 9
left_child=-1 4 -3 -4 -2 -6 10 -8 -7 -9 -5 -10 -11 14 -14 -13 -15 -17 20 -20 -19 -22 -21 -23 -25 26 27 -24 -26 -30
right_child=1 2 3 6 5 8 7 9 11 12 -12 15 13 16 -16 17 -18 18 19 22 21 23 25 24 28 -27 -28 -29 29 -31
