tree
version=v3
num_class=1
num_tree_per_iteration=1
label_index=0
max_feature_idx=17
objective=regression
feature_names=site_id building_id primary_use meter wind_direction is_holiday square_feet year_built air_temperature cloud_coverage dew_temperature precip_depth_1_hr floor_count beaufort_scale weekday_sin day_sin hour_sin month_sin
feature_infos=-1:13:9:2:14:3:15:0:5:4:6:1:8:10:7:12 -1:1249:1258:1296:1297:1295:1298:1232:1241:1294:1293:1259:1301:1331:284:1162:167:177:1150:879:166:774:997:1219:1191:1223:793:967:171:206:260:908:924:1242:1275:169:956:1289:234:896:1251:1252:1317:216:913:1324:878:1312:750:910:1224:217:957:1176:776:952:973:1107:1164:1168:1284:767:942:974:992:1287:248:795:887:894:1238:1243:1339:991:994:995:1104:1235:210:915:1080:239:769:920:946:979:989:1212:1270:1299:187:190:791:900:945:969:981:1260:1323:209:240:263:905:971:983:1000:1109:1148:191:287:770:794:918:927:962:1156:1230:250:264:875:951:1079:1157:1227:1233:1236:247:253:797:1163:1361:959:1143:1211:195:1032:1169:1319:213:226:753:963:976:1206:1237:1310:801:903:958:966:972:996:1090:1094:1097:1210:1214:1250:1265:1283:961:1073:1093:1244:1246:1322:1366:1383:163:228:249:890:906:968:978:1022:1273:1286:1391:168:175:244:771:885:914:987:1139:1381:202:220:255:747:787:1240:1253:225:236:796:798:899:901:917:928:1098:1133:1228:1266:1274:948:980:1321:183:1119:1185:176:916:929:965:1121:1226:1267:1268:1300:192:200:201:895:931:1088:1239:1248:1272:1303:1343:1386:246:279:765:893:922:993:1018:1151:1247:1255:1308:1311:1341:1367:224:800:888:1129:1189:1263:880:998:1347:1379:215:926:955:1309:953:1229:1318:1348:954:1158:1262:1276:1290:886:960:1003:1288:1377:1092:1245:1269:803:1031:1218:212:925:1154:1225:1285:907:1271:1332:898:911:1152:1254:1355:1358:802:1234:1350:179:1302:1307:1396:1140:1207:1329:1342:1345:889:932:1159:1344:1351:964:1405:203:221:1030:1220:1394:1306:1291:1409:1382:1028:1292:1375:799:1167:184:921:949:912:1412:207:254:1390:1326:1363:1384:1336:92:1337:784:1362:933:1101:1127:1179:1017:1111:229:257:1184:222:1208:1413:189:204:1074:1083:97:109:172:197:1198:1305:766:1085:1091:1146:174:259:1070:233:103:759:1106:1437:31:286:1160:1161:1200:252:1076:1264:1410:198:758:1209:1280:1411:9:112:162:214:745:1102:1196:1378:764:1130:1142:1338:117:180:245:273:891:1008:1346:121:138:231:256:267:755:95:139:874:1075:1077:1122:1398:145:208:268:1186:28:43:60:219:235:258:265:1117:1417:30:78:1013:1147:1174:1203:1256:1427:1431:173:883:935:1001:1089:13:748:1217:96:170:285:1100:1149:1172:1387:1404:1408:161:277:876:1105:1126:1136:1414:29:75:178:194:1084:1180:1187:1202:7:790:934:1021:1171:1193:1201:1402:1425:91:751:1086:1099:1407:76:113:114:238:271:777:792:1353:1438:144:290:778:1144:1178:1442:106:119:1376:281:1009:1072:1124:1368:1420:282:1177:1315:1401:1436:82:237:1364:98:205:1137:1392:1400:232:789:1434:1197:15:1108:1352:1216:1328:270:1359:1418:188:1231:990:1354:1406:1424:923:975:1333:14:1095:1357:1380:762:1078:1395:1433:1360:1369:1029:1015:181:1334:1389:55:780:1325:1011:50:479:1430:658:1012:364:423:102:405:409:661:525:543:39:706:1192:1423:262:705:744:68:313:412:422:439:480:501:683:704:902:1058:21:81:223:406:493:732:1123:54:62:136:272:296:330:342:348:446:521:556:692:715:760:1004:32:42:51:292:395:620:680:837:1002:47:100:314:426:498:516:565:566:648:737:919:982:1170:1282:34:227:266:306:307:333:381:529:555:605:606:639:697:702:712:719:722:752:1037:1039:1194:1199:26:88:108:148:251:326:329:343:461:496:497:504:634:643:1063:1372:1:110:328:428:437:476:552:560:569:598:612:614:701:713:834:882:1027:1257:1314:4:27:52:83:84:85:115:297:300:322:323:335:349:380:460:494:524:670:671:696:739:859:909:1034:1061:1131:1173:2:118:160:241:303:350:418:475:491:517:530:532:538:541:562:580:668:709:846:854:866:984:1040:1068:1134:90:155:298:316:402:410:441:445:451:452:455:540:558:586:622:635:937:938:1036:1041:1057:1128:1138:1182:1221:1419:17:104:120:123:150:157:199:230:293:334:401:470:484:489:499:534:539:547:576:673:676:686:707:756:772:947:1023:1049:1052:1081:1110:1116:1120:1320:156:275:278:336:353:372:386:464:559:646:651:708:710:731:735:1062:1082:1115:1118:46:152:317:363:389:398:427:448:450:477:488:495:537:590:633:664:773:877:986:1010:1026:1038:1060:1071:1103:1439:59:111:309:315:325:377:397:399:416:434:447:466:473:483:509:563:575:581:589:608:628:649:660:679:690:727:988:1047:1048:1113:1370:1421:19:35:79:89:124:261:332:347:357:374:394:438:474:503:533:584:596:629:672:749:786:869:941:985:1007:1042:1043:1053:1054:1114:1277:1356:1432:1435:16:20:57:86:94:107:116:128:130:186:193:211:305:354:378:379:440:485:492:506:513:518:573:597:599:601:603:616:618:644:656:659:669:688:693:746:815:857:864:940:970:1006:1044:1050:1064:1205:1215:12:25:48:72:132:134:153:359:375:384:462:471:472:490:507:527:545:550:579:582:613:619:623:698:728:738:741:782:844:930:1069:1096:1153:1365:1426:0:10:40:63:131:312:396:457:505:528:611:663:678:685:718:807:944:1005:1067:1112:1125:1183:1279:1371:1388:1443:36:58:67:137:143:147:242:289:327:340:361:365:366:385:433:444:468:522:544:571:610:624:625:627:631:657:682:687:725:733:754:761:806:845:943:1033:1059:1195:1304:1335:1385:5:22:41:64:69:74:142:151:158:185:276:291:360:407:421:432:443:454:546:557:574:585:593:607:640:775:779:818:826:1087:1213:1340:1373:1422:49:56:127:140:154:196:299:324:369:388:391:415:435:449:511:564:570:588:609:674:684:700:703:724:740:788:833:871:904:950:977:1066:1190:1330:6:37:45:93:165:218:283:294:304:310:320:321:337:339:346:383:390:393:465:478:514:526:542:551:577:650:655:711:714:730:763:999:1014:1056:1204:1278:1349:1441:1447:66:70:80:146:164:392:411:424:578:592:615:665:716:717:720:721:726:836:853:856:892:1019:1055:1222:1313:1327:1393:1399:1403:1415:11:33:101:149:182:274:301:351:404:417:436:463:502:520:595:617:630:645:653:723:736:742:811:821:822:1051:1429:3:44:141:344:352:387:400:425:429:430:500:519:523:549:572:785:835:852:868:939:1132:1281:1428:1446:8:23:65:73:77:122:126:135:362:373:431:481:536:561:587:666:667:814:828:863:1035:1141:1165:99:159:243:308:318:331:345:512:632:641:662:691:695:768:823:825:827:851:936:1046:1065:1166:1261:1440:38:61:71:280:367:370:371:459:482:515:677:743:810:830:848:858:1175:1181:1188:1445:87:376:382:456:809:816:855:865:881:1135:1374:1416:1448:295:302:319:355:356:358:419:458:486:531:600:637:729:781:870:1316:1397:18:105:125:453:467:554:594:654:689:694:734:831:872:884:1045:24:133:311:338:442:583:636:757:897:1025:1145:129:269:414:699:839:843:1020:413:510:675:805:812:842:867:1444:567:817:832:368:862:1016:1155:288:568 -1:0:6:1:4:9:3:7:8:5:11:2:15:12:13:14 -1:0:1:2:3 -1:0:170:180:300:160:290:190:310:320:200:350:270:150:340:280:330:140:210:70:260:230:80:360:90:100:220:130:120:110:240:250:60:10:20:50:30:40:165:175:185:195:155:176:145:85:75:95:15:115:205:105:172:183:173:135:166:215:45:125:225:153:35:106:65:255:235:285:146:193:178:245:113:305:53:126:46:136:55:196:116:186:143:163:93:133:156:25:345:96:325:43:142:223:5:168:76:295:335:56:162:66:157:315:112:202:355:123:174:167:177:26:36:72:6:86:184:336:188:216:16:191:192:8:17:33:62:226:275:32:313:326:343:52:128:152:197:198:243:12:23:73:203:265:137:206:233:246:37:63:68:94:132:171:187:34:78:24:181:253:266:164:182:213:38:217:293:92:102:124:194:263:296:3:18:158:262:267:273:352:353:357:29:88:103:154:161:4:42:83:97:144:286:323:27:236:2:14:47:57:58:207:306:333:82:276:31:64:104:117:151:258:282:307:346:21:28:48:87:91:248:256:332:7:13:41:77:84:101:108:134:138:141:222:327:342:54:127:147:159:214:302:303:44:67:71:122:169:224:287:301:316:107:204:212 -1:0:1 [5.64453125:13.6796875] [1900:2017] [-28.90625:44.40625] [0:9] [-31.703125:26.09375] [-1:340] [1:26] [0:7] [-0.97509765625:0.97509765625] [-0.99853515625:0.99853515625] [-1:1] [-1:0]
tree_sizes=2851 7568 7291 2944 7057 6818 2943 6760 6066 2966 6332 3113 2961 6962 6130 7266 5813 6163 6793 6704 3123 3134 5028 6813 2987 6494 5196 6066 4396 3337 6679 6527 2997 4666 3044 5935 4978 4818 3526 4491 3496 4175 3261 6310 5815 6466 3894 3501 3120 3764 5234 3024 7437 5662 3310 4170 3615 5365 3756 3570 3130 4969 4407 4307 7096 6268 2852 3585 3641 3822 3339 3651 4034 3003 3169 3687 3350 4380 3591 4113 3644 2985 3739 3574 3943 3503 3954 3608 3164 3528 3292 3898 4049 3664 3686 3213 3823 3988 3308 3805 3939 3719 3873 3959 3986 3543 3689 3872 3985 3199 2912 4584 3056 3065 3762 4416 3522 3672 3869 4202 3617 3875 4107 3951 3750 4101 3692 3412 3192 4416 3683 6789

Tree=0
num_leaves=31
num_cat=18
split_feature=6 6 6 0 0 0 0 0 0 6 6 2 2 0 6 0 0 7 6 2 0 6 2 7 2 6 2 12 0 2
split_gain=2.39038e+06 658992 423170 272457 222374 159282 136567 124135 102869 81275.8 79218 64747 64625 55669.9 52109.2 44515 38738.1 36315.3 28174.3 26059.6 26527.7 38963.5 32586.1 29517.7 25104.9 25082.3 25449.7 27063.5 24698.1 23635.5
threshold=10.964843750000002 11.917968750000002 9.6601562500000018 0 1 2 3 4 5 12.871093750000002 8.3789062500000018 6 7 8 11.542968750000002 9 10 1922.5000000000002 10.230468750000002 11 12 11.480468750000002 13 2000.5000000000002 14 12.605468750000002 15 5.5000000000000009 16 17
decision_type=2 2 2 9 9 9 9 9 9 2 2 9 9 9 2 9 9 2 2 9 9 2 9 2 9 2 9 2 9 9
left_child=2 3 5 -2 -4 24 14 -6 9 12 -7 -9 17 -12 -5 -8 -13 -3 -18 -17 21 22 -21 -22 -1 -10 27 -27 -14 -11
right_child=1 8 4 6 7 10 15 11 25 29 13 16 28 -15 -16 19 18 -19 -20 20 23 -23 -24 -25 -26 26 -28 -29 -30 -31
leaf_value=4.4930323899648057 4.7667719070270582 3.2593738447752862 4.5324508188962964 4.297580235077338 3.7467099706289066 3.5595769542792128 3.9189823672156452 4.5690889167135103 4.460934388019874 5.0672603691376912 3.6158129475001082 4.1569885276924134 4.9356417660043599 3.8739673995504411 4.4341692026052248 3.6586030742747582 3.9663209306075453 4.4069904123762997 4.0833969852003209 4.1104584513602802 4.1428541382144779 4.3931233625465556 4.3451912125122538 4.3964703649615169 4.0778107945611799 4.7160549172335635 4.3411167256447571 4.4220550380842338 4.6426872450716727 4.709688249855903
leaf_weight=10173 74682 1778 70766 457031 67440 91938 35242 17812 387045 35072 65330 343334 19107 261251 282460 5338 171424 55064 512828 101993 306448 102211 57959 31642 85690 76985 21328 26245 316879 17402
leaf_count=10173 74682 1778 70766 457031 67440 91938 35242 17812 387045 35072 65330 343334 19107 261251 282460 5338 171424 55064 512828 101993 306448 102211 57959 31642 85690 76985 21328 26245 316879 17402
internal_value=4.24775 4.40769 4.02048 4.30172 4.10276 3.83117 4.27655 4.07544 4.56883 4.65669 3.76459 4.09665 4.61766 3.82229 4.34975 4.19208 4.08845 4.37105 4.05407 4.20798 4.21287 4.27256 4.19551 4.16659 4.1219 4.49233 4.58992 4.64128 4.65937 4.94894
internal_weight=0 2.41191e+06 1.69799e+06 1.45501e+06 1.1836e+06 514382 1.38032e+06 1.11284e+06 956905 445302 418519 1.0454e+06 392828 326581 739491 640833 1.02759e+06 56842 684252 605591 600253 262163 159952 338090 95863 511603 124558 103230 335986 52474
internal_count=4109897 2411911 1697986 1455006 1183604 514382 1380324 1112838 956905 445302 418519 1045398 392828 326581 739491 640833 1027586 56842 684252 605591 600253 262163 159952 338090 95863 511603 124558 103230 335986 52474
cat_boundaries=0 1 2 3 4 5 6 7 8 9 10 11 12 13 14 15 16 17 18
cat_threshold=1 1 49153 53786 32 24921 20512 33026 48 1024 16648 32896 8576 840 16424 83 1 73
is_linear=0
shrinkage=1


Tree=1
num_leaves=31
num_cat=29
split_feature=6 1 1 1 1 1 1 3 1 1 1 1 1 1 1 1 1 1 1 3 1 1 1 1 1 1 1 3 1 1
split_gain=1.3574e+06 501263 490886 425806 406415 278238 232667 219142 280067 215882 198639 181373 155783 153894 141376 142573 126938 109799 93144.2 97426.2 174368 111321 89797.3 79303.5 71559 71531.4 52898.7 47066.1 45908.7 45357.3
threshold=11.480468750000002 0 1 2 3 4 5 6 7 8 9 10 11 12 13 14 15 16 17 18 19 20 21 22 23 24 25 26 27 28
decision_type=2 9 9 9 9 9 9 1 9 9 9 9 9 9 9 9 9 9 9 1 9 9 9 9 9 9 9 1 9 9
left_child=2 27 -1 -4 -3 -5 -7 8 -6 -9 -8 -12 -11 -13 -15 -16 -14 -17 -19 20 -20 -21 -18 -23 -24 -25 -27 29 -28 -2
right_child=1 4 3 5 7 6 10 9 -10 12 11 13 16 14 15 17 22 18 19 21 -22 23 24 25 -26 26 28 -29 -30 -31
leaf_value=0.48721160543009479 -0.60973981752625306 0.68779951226827862 -0.78228467528060885 0.33980511439542238 -0.62576321864898743 -0.59985981407891398 0.26157623021567283 0.55281376743619137 0.22021323351339683 -0.14937988245305286 0.21705498704978013 0.17455252236656868 -0.04367423468340436 -0.51657378059489678 -0.47026971808362616 0.13560456809049803 0.46008933505796668 0.10826229952648164 0.0061961110487538627 0.11032440975847645 -0.69569320095700127 -0.42882862742711714 0.393834214538334 -0.38652860353513829 0.18151997989249877 -0.34271423148934049 -0.30521048622963426 -0.4769236527518062 -0.11352400757160722 -0.026807638814720293
leaf_weight=82499 10559 108549 61486 80849 45843 64563 82752 106976 52410 82547 88698 88536 112604 67984 83002 88966 100862 83710 37113 98225 54769 67692 114894 76752 727929 74730 83636 60735 1177762 39610
leaf_count=82499 10559 108549 61486 80849 45843 64563 82752 106976 52410 82547 88698 88536 112604 67984 83002 88966 100862 83710 37113 98225 54769 67692 114894 76752 727929 74730 83636 60735 1177762 39610
internal_value=0 0.183389 -0.112605 -0.132713 0.222501 -0.116066 -0.131962 0.184917 -0.174527 0.213267 -0.118558 -0.133045 0.181367 -0.147955 -0.162274 -0.149767 0.207215 -0.135332 -0.149073 -0.161967 -0.412216 -0.147401 0.237153 -0.1645 0.210468 -0.151832 -0.138347 -0.32889 -0.126236 -0.149608
internal_weight=0 1.56352e+06 2.54372e+06 2.46122e+06 1.45261e+06 2.39974e+06 2.31889e+06 1.34406e+06 98253 1.24581e+06 2.25433e+06 2.17158e+06 1.13884e+06 2.08288e+06 1.99434e+06 1.92636e+06 1.05629e+06 1.84336e+06 1.75439e+06 1.67068e+06 91882 1.5788e+06 943685 1.48057e+06 842823 1.41288e+06 1.33613e+06 110904 1.2614e+06 50169
internal_count=4107242 1563518 2543724 2461225 1452614 2399739 2318890 1344065 98253 1245812 2254327 2171575 1138836 2082877 1994341 1926357 1056289 1843355 1754389 1670679 91882 1578797 943685 1480572 842823 1412880 1336128 110904 1261398 50169
cat_boundaries=0 46 87 133 177 223 269 270 312 353 399 444 488 533 578 624 668 712 758 759 801 846 891 930 974 1016 1061 1062 1107 1133
cat_threshold=0 0 512 2048 1024 2052 16777216 266240 16 67174400 0 0 0 0 0 0 0 0 0 33554432 0 0 524288 8 0 268435456 0 0 0 0 0 33554752 0 0 2147484672 4198400 0 2097664 65540 0 0 1077936128 1073741824 268959744 0 4 3221342208 1346371650 151027712 16384 4194304 0 134217728 0 536870912 0 4096 0 0 0 0 67109376 0 268435456 0 0 0 0 0 268451840 1 0 4194304 0 256 0 0 4096 0 0 0 64 0 8192 2147483648 0 4 0 8192 0 66560 0 0 0 268435456 0 0 33554432 0 0 262144 0 0 0 4194304 16392 872415264 0 524288 0 18 16 4358656 52518912 0 0 0 0 0 0 0 4194304 0 0 0 32 0 0 0 4 0 0 320 263184 0 69632 0 0 0 2147483648 0 0 0 0 8388608 0 0 0 0 128 4 0 4096 32 0 0 0 327680 0 0 32 0 0 0 2 0 1073741824 16779265 268959744 65680 268435456 0 0 8390224 262144 0 512 268435721 67141633 16384 603984128 67108864 0 526336 0 0 0 0 0 1048576 1073741824 0 0 0 33554560 0 0 1 0 0 0 0 0 0 0 0 0 0 0 0 0 16384 33554432 0 1048576 16777216 0 16777216 2050 0 66562 4194304 2 0 0 524288 0 65536 71303168 0 0 2147483648 18874368 512 48 0 128 268435456 0 2151677952 0 0 0 2317352960 268453888 320 4194304 0 2113536 0 0 0 32768 0 262144 0 0 0 0 0 536871168 0 65536 0 0 0 0 0 32 8 0 0 0 393216 0 1082294272 838877953 1140950017 268435456 0 0 0 0 0 0 0 0 0 0 0 0 0 0 0 0 0 0 0 0 0 0 0 288 0 0 0 0 0 33554432 1024 32768 128 545259520 1024 33554432 262149 0 512 538050561 0 0 0 0 8192 0 0 0 0 0 135168 0 128 256 0 0 0 67256320 2 0 0 2147483648 0 0 0 0 65536 0 135266304 0 1107296256 0 33808 262400 4096 579076484 67108864 17825792 0 24576 0 0 0 8 0 0 0 0 524288 0 0 0 0 0 0 0 0 134283264 0 0 0 0 64 0 0 2147483648 4 0 0 0 268435456 16384 268435456 512 4224 0 9437216 0 2181038080 128 134217728 2147483656 2048 1082130432 268435456 0 2097152 8388736 1048608 0 0 0 0 536870916 0 64 268435456 0 1 133120 0 0 0 2164260864 0 0 0 0 0 0 0 0 524288 0 131074 0 32 67110912 0 8192 67108864 4 33554432 0 64 0 0 96 0 0 0 0 0 16777216 33554432 0 0 0 0 0 524288 262144 0 2 256 133120 536870912 608305168 0 268435712 0 0 0 16 0 16778240 67108868 0 285212672 0 536870944 0 0 0 0 0 268443648 16809984 33554432 524290 16908320 268697608 0 536870912 0 0 16384 4096 0 1207959552 0 33554432 2 2048 0 0 8388608 0 524288 0 16 0 0 0 0 0 0 0 0 0 0 0 0 0 8192 537919490 262145 256 0 268959744 131080 0 0 67117056 0 0 0 0 0 134217728 8 0 4 0 0 0 0 0 0 1073741824 621281313 0 0 134217728 67108864 33554720 2179072 262176 0 66560 67108864 0 0 0 0 524288 8192 8192 67108864 0 264 0 0 0 0 0 0 6291456 134217728 0 0 0 0 0 0 0 0 8388736 0 1048576 0 262144 268435456 0 0 2048 16777216 0 0 1048576 1048576 1090520069 524292 8 32 0 8320 0 1024 0 1076887552 131072 0 33554432 0 0 0 0 4194304 0 4096 512 0 2056 16 0 0 0 0 0 0 0 524288 0 0 0 0 0 134217736 0 0 2 1 1024 1 0 8388608 2155872256 0 2147484672 0 0 0 67108864 536870912 537133056 0 256 134234112 512 1073741824 0 10 4096 50331648 0 134217856 2148270080 1 131072 512 538976262 134217744 0 0 1024 0 34078720 266240 536870912 0 0 0 0 32 0 0 8390656 0 268435456 8 0 1610612736 0 0 524288 8 0 16384 0 0 16384 0 64 2 0 0 0 0 2097152 1048832 0 8 67108864 65552 1 0 2097152 0 0 256 134251528 0 16777216 2097152 0 12582912 2181038592 33554432 0 1024 131072 65536 0 0 0 0 0 0 2147483648 16 0 0 0 0 0 67108864 0 0 0 0 1048576 2113536 1073741832 1 0 0 131072 8 8 0 0 0 2097152 131072 0 0 0 0 0 0 0 0 0 0 0 0 0 0 0 0 0 0 0 0 0 0 0 0 0 0 0 64 0 0 0 0 0 452736 345380992 2147483648 64 512 0 12582912 8192 0 34078856 67371008 536870912 256 512 131072 268435456 0 67108864 0 256 0 32768 0 0 0 0 0 0 0 0 0 0 0 0 131072 2048 0 2 0 262144 524288 0 1610612736 1 541204480 0 0 32768 268435456 16785536 0 2147483648 34078720 0 256 268435968 37748736 0 0 0 16777216 0 0 1 0 0 65536 0 522 8192 0 0 0 0 0 0 131072 0 0 0 0 0 0 16 2147483648 131073 128 0 42 2050 0 0 0 554172416 0 0 0 0 0 0 2 134217728 67108864 0 0 3200 536870912 4096 0 0 134217728 0 1048608 0 4194304 83886080 168075808 100665344 0 2048 2048 64 0 8224 0 0 0 512 0 0 33554432 0 1 0 0 0 163842 0 131136 0 32 0 0 0 0 8388608 0 134217728 4 0 0 65664 0 514 0 0 0 0 0 0 67634176 33554560 134217728 4 0 1073741824 131072 536936448 0 134221824 0 16 0 32 32 24 4 0 20480 0 0 262144 3 0 0 1 0 524288 0 0 1 8 0 0 0 64 2155872256 0 2147516416 2186 8388608 0 33554560 0 256 1073741824 1054720 0 0 1024 8388608 1342177280 0 512 0 0 0 0 16777216 0 0 131072 0 16777216 268435488 0 0 16384 268435456 0 167772160 0 64 0 0 0 537919488 0 2097152 262144 6619137 0 2097664 0 262144 0 536870912 0 768 8 0 2097152 32768 32 131072 1073741824 0 131072 0 0 0 0 0 32768 1 0 0 0 8 0 0 0 512 0 1048576 0 524288 134217728 8192 0 8519681 8196 2097152 0 0 0 0 4096 0 0 1073741824 1073741824 0 0 0 1048576 512 536870912 0 134226048 67108864 8192 8519680 67387392 0 0 0 0 256 16516 0 0 0 0 0 2048 0 262144 16 67174400 0 0 0 0 0 0 0 0 0 0 0 0 0 0 0 268435456
is_linear=0
shrinkage=0.25


Tree=2
num_leaves=31
num_cat=28
split_feature=6 1 1 3 1 1 1 1 1 1 1 1 1 1 1 1 1 1 1 1 1 3 1 1 3 8 3 1 1 1
split_gain=772089 365439 331868 224057 279625 219445 191055 175069 168859 125720 121731 108249 97726.3 88420.8 86306.4 71860.8 73238 66941.7 70423.3 64535.3 54780.4 47533.2 46980.9 46441.1 45167.9 43586.9 40586.8 38812.7 36927.8 36102.5
threshold=10.808593750000002 0 1 2 3 4 5 6 7 8 9 10 11 12 13 14 15 16 17 18 19 20 21 22 23 10.652343750000002 24 25 26 27
decision_type=2 9 9 1 9 9 9 9 9 9 9 9 9 9 9 9 9 9 9 9 9 1 9 9 1 2 1 9 9 9
left_child=6 24 21 4 -4 26 -1 -8 -7 -9 -10 -12 -6 -13 -11 -16 -17 -15 -19 -18 -20 27 -22 -21 -2 -14 -5 -3 -24 -25
right_child=1 2 3 5 12 8 7 9 10 14 11 13 25 17 15 16 19 18 20 23 22 -23 28 29 -26 -27 -28 -29 -30 -31
leaf_value=-0.58405069779105467 0.80633781880708422 -0.4160582001351093 -0.65369623026322832 -0.10069776038559267 0.3320082059205563 0.43060775651220567 0.28287354742590043 0.15854400588069642 -0.17313314763999982 -0.44568304691643301 0.35854523300818048 -0.12166746396882334 0.20658153914270652 0.31930232112336865 0.099797302679516281 0.060560910059718337 0.028891193445745766 0.29598995539865353 0.27658122467612839 -0.017694030080929915 0.23872511541571897 -0.50874308978706573 0.20646248195322534 -0.056188518888972347 0.4365837816099648 -0.25483592004173383 -0.41050840604278271 0.029630263795031662 0.053034127416039016 -0.23307651404818555
leaf_weight=59522 28054 22903 55905 55140 41978 103640 62297 79802 94787 64938 109419 103674 16649 95642 68012 83502 82964 111434 92506 79408 105427 61370 106592 79216 78781 55261 50790 26150 1221975 807619
leaf_count=59522 28054 22903 55905 55140 41978 103640 62297 79802 94787 64938 109419 103674 16649 95642 68012 83502 82964 111434 92506 79408 105427 61370 106592 79216 78781 55261 50790 26150 1221975 807619
internal_value=0 0.0808647 0.0617472 0.0810811 -0.195839 0.10197 -0.145365 -0.126811 0.119316 -0.145782 0.103511 0.116982 0.0289514 0.102593 -0.164972 -0.149786 -0.164773 0.116006 0.104132 -0.182707 0.0901247 -0.362077 0.0780943 -0.200876 0.533754 -0.147981 -0.249271 -0.178505 0.0653456 -0.217277
internal_weight=0 2.63808e+06 2.53124e+06 2.42082e+06 169793 2.25103e+06 1.46728e+06 1.40776e+06 2.1451e+06 1.34546e+06 2.04146e+06 1.94667e+06 113888 1.83725e+06 1.26566e+06 1.20072e+06 1.13271e+06 1.73358e+06 1.63793e+06 1.04921e+06 1.5265e+06 110423 1.43399e+06 966243 106835 71910 105930 49053 1.32857e+06 886835
internal_count=4105357 2638077 2531242 2420819 169793 2251026 1467280 1407758 2145096 1345461 2041456 1946669 113888 1837250 1265659 1200721 1132709 1733576 1637934 1049207 1526500 110423 1433994 966243 106835 71910 105930 49053 1328567 886835
cat_boundaries=0 44 90 91 132 178 224 270 311 356 400 445 487 531 577 623 668 713 757 802 845 846 891 936 937 938 984 1030 1071
cat_threshold=328720 268435456 33558528 0 0 0 2147483648 0 0 0 0 8388608 0 0 0 0 0 4 0 4096 32 0 0 0 327680 0 4194304 32 0 0 0 0 0 1073741824 1 268959744 65680 8192 0 32784 8390160 262144 0 512 0 0 0 0 65536 67584 0 1310720 148 67174400 0 2048 0 0 0 0 524288 0 0 0 0 0 0 100663300 24 268435456 0 0 0 0 0 1109917696 0 0 67109888 4198400 768 0 65536 0 0 1073745920 0 0 0 256 8 0 0 0 270336 3072 2156036232 319045888 1677791236 268435712 0 0 0 0 0 0 0 0 0 0 0 0 0 0 0 0 0 0 0 0 0 0 2048 16 0 0 0 0 0 1107296256 1024 6299648 0 0 0 2048 0 0 0 0 0 268435456 524288 0 0 0 0 0 0 1048576 536870912 33554432 0 2162688 1572864 0 64 0 0 4096 65536 0 65536 67109120 0 524288 2155872256 75497476 1073775616 8523776 2 0 0 8192 0 256 0 4 0 0 0 66560 0 71303168 0 268435456 0 0 33554944 0 0 262144 0 0 0 4194304 16392 872415264 0 524288 0 18 0 4375040 52518912 0 0 0 0 0 0 0 4194304 0 0 0 32 0 0 0 0 0 0 64 2057 1078231111 32768 536887552 67108864 0 524288 0 536870912 0 0 0 1048576 1073741824 0 67108864 0 128 0 0 1 0 0 16384 0 0 0 0 320 0 0 0 0 0 0 33554432 0 1048576 0 0 4 0 32 0 0 130 3238019072 1024 65536 8650757 0 512 1181696 0 0 0 0 8192 0 0 0 0 128 135168 0 0 256 0 0 0 131072 2 0 131072 0 0 0 2 0 0 16779264 1048576 0 301989888 0 1026 262208 528386 2692874504 262152 1074790400 268435456 0 0 16512 0 0 0 0 33554432 536870912 526336 0 0 0 0 0 0 0 0 65536 0 0 0 0 0 0 0 0 524288 0 131072 0 32 264192 256 8192 0 0 8388608 0 100671488 0 2048 512 0 132 4 0 0 0 4 0 4 0 0 0 0 0 0 0 0 8388608 134217728 0 8 2 0 0 0 1048576 0 2147483648 0 67108928 2151940304 8448 536936448 0 2097152 8 0 134217729 4194304 1073741824 524288 545259648 0 2298478592 33554432 0 256 805306369 37748736 0 0 0 16777216 0 0 1 0 0 0 0 128 8192 0 0 0 16385 0 0 0 2147483648 0 0 0 0 65536 16 2281701440 1 1073741952 0 32 2097408 0 0 0 524288 0 0 0 33554432 0 512 131072 0 0 0 0 0 0 0 0 0 0 0 0 0 0 0 0 0 0 0 0 0 0 0 0 603979776 64 0 0 0 0 0 285743104 52955146 0 536096 0 134217728 0 0 4608 0 4194304 0 0 8192 0 0 0 0 0 524288 0 1073758208 0 0 2112 0 876609536 0 268435716 0 0 4194304 536870916 0 16777217 4 0 1024 0 128 0 512 2052 0 0 0 49152 269484032 0 8192 524288 0 0 0 0 0 2147483648 18874368 0 48 0 128 268435456 1073741824 2688548864 0 0 0 2317352960 268453888 320 4456448 0 2097152 0 0 0 32768 0 262144 8192 0 0 0 8 0 0 65536 0 0 4 0 0 32 67239936 0 807411716 16 536870912 0 0 0 33554432 0 536870912 1075904512 0 4194304 2181038080 32 0 1024 8388608 65536 268435456 8 0 0 0 8388608 524288 0 0 0 0 268435456 16384 0 0 0 0 0 0 0 524288 1048832 0 0 131072 8 2097728 65536 8388608 64 0 0 4096 256 1024 131088 262144 32768 64 0 1073741824 0 0 32770 16777216 0 0 0 0 132224 0 0 2147483648 0 0 0 131072 8388608 262144 0 0 0 0 0 8192 131264 0 0 256 4096 268435456 1081344 0 0 532482 4194304 64 1536 1073741856 0 32 4096 0 0 0 0 0 0 65536 0 522 0 0 0 268435456 67108864 0 0 524288 128 167772160 0 4096 0 0 0 16 67108864 0 0 8 2050 0 0 65536 553648128 268443648 0 0 163840 0 0 33554432 8388608 0 0 8 0 0 0 0 0 64 0 65664 0 514 8192 0 0 16777216 0 0 67109888 33554432 16 0 0 0 131072 536936448 0 134348800 0 2164260880 524288 32 32 0 2116 0 0 4194304 160 8192 1024 67108864 0 2097152 0 131136 2147483648 0 2164391936 1048704 536969216 0 0 0 16777216 0 0 0 0 0 0 8388608 1 1024 0 0 0 268435456 2 0 262144 0 0 545259520 8388608 0 33554432 268435456 0 1026 0 0 0 4194304 0 131072 134217728 32768 0 0 32768 0 8388608 65536 134217728 8716 0 302252032 262144 0 0 0 0 0 134217728 0 0 0 268435456 1 134217732 0 1073741824 2048 1572864 0 2147487744 0 64 0 16777216 32768 24 1 256 1048576 0 67108864 0 8404992 19136768 67108864 0 0 0 4194304 0 0 0 1048576 0 0 0 0 16 0 0 0 0 0 0 32768 393216 262144 32768 0 32 8 16392 0 64 32 0 0 4194304 2 2162688 1073742848 1077936128 0 0 0 0 8421376 524288 16 2048 0 256 0 68157440 1073872896 34078720 64 16 0 0 0 0 16384 0 0 0 0 67108864 128 1048576 134219776 128 67108864 16416 0 0 0 0 2097152 1024 0 537133056 0 536870912 0 0 1376256 4 1 0 0 0 0 0 2048 0 262144 20 67174400 0 2048 0 0 0 0 524288 0 0 0 0 0 0 33554436 0 268435456 0 0 0 0 0 0 0 0 67108864 0 0 0 0 0 0 0 0 0 0 256 33554432 100663424 67125248 4096 0 0 0 1024 0 1073741832 0 0 0 0 0 0 0 0 0 0 0 0 0 134217728 41943040 0 0 0 2097152 2147614720 4160 2147483648 65536 256 0 0 268435460 16384 272629760 0 4096 524800 0 2 2147483648 1 0 0 1073741824 0 0 16 65536 0 1073741824 0 65792 0 20 0 4325376 4194304 2097168 524352 0 4 0 0 0 8448 0 134217792 9 2097152 0 0 32 4194304 8 0 32768 2048 4194304 0 1024 1048576 131072
is_linear=0
shrinkage=0.25


Tree=3
num_leaves=31
num_cat=14
split_feature=6 3 6 8 6 8 3 8 3 3 8 8 3 3 8 3 8 3 3 6 2 8 3 3 8 3 8 12 3 12
split_gain=434139 171687 132166 92619.4 77706.2 51774.9 263236 97054.1 92511.7 87298.7 69036.7 38392.2 87719.1 69577.7 45174.3 39530.6 39485.4 38283.5 37772.4 31855.4 27250.4 21188.7 190585 122784 83302 52031.1 70142.1 56218.1 43258.8 52030.8
threshold=10.808593750000002 0 11.761718750000002 8.9492187500000018 9.2343750000000018 20.046875000000004 1 10.550781250000002 2 3 9.0507812500000018 21.046875000000004 4 5 8.0507812500000018 6 10.550781250000002 7 8 10.628906250000002 9 18.046875000000004 10 11 9.3476562500000018 12 3.9501953125000004 4.5000000000000009 13 4.5000000000000009
decision_type=2 1 2 2 2 2 1 2 1 1 2 2 1 1 2 1 2 1 1 2 9 2 1 1 2 1 2 2 1 2
left_child=4 3 5 -2 -1 6 7 -3 -8 -7 -10 12 14 17 -6 -14 -17 -13 20 -15 -11 22 25 -23 -24 26 -4 -28 -25 -30
right_child=1 2 21 -5 11 9 8 -9 10 18 -12 13 15 19 -16 16 -18 -19 -20 -21 -22 23 24 28 -26 -27 27 -29 29 -31
leaf_value=-0.21907120909052186 0.19072845976021899 -0.49365512068536371 0.63866887176236231 -0.25196415208428352 0.41972194390311801 0.22774512095595564 0.010986797435717613 -0.11429968828097821 0.4566646336528411 -0.22402239295004062 0.08415504083419896 0.15131330786300681 -0.12052188711986542 -0.15351643841073287 -0.010856964859514982 -0.4802526227800476 -0.15413197432108369 -0.028668500282665203 0.059681688985752358 -0.53055807384003772 0.04729073804138044 0.34888090858011844 -0.3808254534466311 0.15311713263134916 0.034171493355599866 0.1363371089564214 0.25637590719736286 -0.73460657933367024 0.0041557686520683652 -0.96010640205881392
leaf_weight=314596 36504 78923 34507 154755 25284 179850 461889 90470 56895 58510 68574 94876 497536 50877 38288 41328 52920 333377 350436 19326 38264 179413 58172 293599 62934 246142 64767 3786 117202 3604
leaf_count=314596 36504 78923 34507 154755 25284 179850 461889 90470 56895 58510 68574 94876 497536 50877 38288 41328 52920 333377 350436 19326 38264 179413 58172 293599 62934 246142 64767 3786 117202 3604
internal_value=0 0.0606525 0.0784757 -0.167461 -0.108933 0.0275358 -0.0164828 -0.291034 0.062701 0.0806589 0.253057 -0.078903 -0.118674 -0.0266122 0.160369 -0.148651 -0.297111 0.0112073 0.0215001 -0.257284 -0.116751 0.144719 0.105078 0.176115 -0.165154 0.198796 0.347937 0.201633 0.101305 -0.0246146
internal_weight=0 2.6392e+06 2.44794e+06 191259 1.46841e+06 1.38381e+06 756751 169393 587358 627060 125469 1.15381e+06 655356 498456 63572 591784 94248 428253 447210 70203 96774 1.06413e+06 470308 593818 121106 349202 103060 68553 414405 120806
internal_count=4107604 2639196 2447937 191259 1468408 1383811 756751 169393 587358 627060 125469 1153812 655356 498456 63572 591784 94248 428253 447210 70203 96774 1064126 470308 593818 121106 349202 103060 68553 414405 120806
cat_boundaries=0 1 2 3 4 5 6 7 8 9 10 11 12 13 14
cat_threshold=8 2 1 2 4 3 9 2 4 569 5 2 4 1
is_linear=0
shrinkage=0.25


Tree=4
num_leaves=31
num_cat=27
split_feature=1 1 1 1 3 1 1 1 1 1 1 1 1 1 1 8 1 1 8 3 1 3 1 1 1 1 8 1 1 1
split_gain=248563 183361 139413 103919 91474.6 172301 109571 94343.5 84393.7 81974.9 71787 59245.5 65820.9 60058.9 49910.1 46341 46118.3 55998.5 46447.6 213833 159002 130934 127950 115290 107511 99412.6 82951.1 69145.7 61889.1 51794.4
threshold=0 1 2 3 4 5 6 7 8 9 10 11 12 13 14 12.847656250000002 15 16 19.437500000000004 17 18 19 20 21 22 23 8.2500000000000018 24 25 26
decision_type=9 9 9 9 1 9 9 9 9 9 9 9 9 9 9 2 9 9 2 1 9 1 9 9 9 9 2 9 9 9
left_child=-1 -2 -3 -4 5 -5 -6 -8 -9 -7 -10 -12 -13 -14 -15 -11 -16 -18 19 22 -21 25 -19 -23 -22 -20 28 -25 -26 -24
right_child=1 2 3 4 6 9 7 8 10 15 11 12 13 14 16 -17 17 18 21 20 24 23 29 27 26 -27 -28 -29 -30 -31
leaf_value=0.37274861340114457 -0.42597189529798768 0.28120553884663563 0.24692543878106885 -0.55172991658799131 -0.32192765888260155 0.20156801714789033 -0.27892506292879682 0.23791453047934813 0.20633997600772958 0.075674307931505633 -0.25858993659210627 -0.23715080671480088 -0.21276167181323841 -0.18784962547984826 0.18929725046265511 -0.26981601227724533 0.17571574925746636 0.39178407975708512 -0.33935968324575438 -0.75544256293427514 0.35156035380227596 -0.38479063859131296 0.24350222181468137 0.3880162227158096 -0.85324013487023009 0.20776438749515841 -0.095070249327733058 -0.0044422911750716595 -0.30611324617092928 -0.015352521524745165
leaf_weight=108869 65169 104839 95198 56026 67952 55954 74863 94336 100260 34565 58112 73769 79369 79455 89827 81413 118165 54263 22267 31753 23160 49240 50871 28923 15997 304241 137224 926782 67349 956289
leaf_count=108869 65169 104839 95198 56026 67952 55954 74863 94336 100260 34565 58112 73769 79369 79455 89827 81413 118165 54263 22267 31753 23160 49240 50871 28923 15997 304241 137224 926782 67349 956289
internal_value=0 -0.0100934 -0.00320023 -0.010991 -0.0175701 -0.17102 -0.00758791 -0.00137122 0.00481064 -0.0469329 -0.00192038 -0.00851409 -0.00383872 0.00183262 0.00759573 -0.166833 0.0129954 0.00731129 -0.000146892 -0.0330634 -0.229315 0.0329042 0.0178739 -0.0117831 -0.160739 0.170441 -0.214547 0.00743895 -0.411277 -0.00227517
internal_weight=0 3.99763e+06 3.93246e+06 3.82762e+06 3.73242e+06 227958 3.50447e+06 3.43652e+06 3.36165e+06 171932 3.26732e+06 3.16706e+06 3.10894e+06 3.03518e+06 2.95581e+06 115978 2.87635e+06 2.78652e+06 2.66836e+06 1.33691e+06 275483 1.33145e+06 1.06142e+06 1.00494e+06 243730 326508 220570 955705 83346 1.00716e+06
internal_count=4106500 3997631 3932462 3827623 3732425 227958 3504467 3436515 3361652 171932 3267316 3167056 3108944 3035175 2955806 115978 2876351 2786524 2668359 1336906 275483 1331453 1061423 1004945 243730 326508 220570 955705 83346 1007160
cat_boundaries=0 44 90 136 177 178 219 263 309 350 392 437 482 527 569 615 660 706 707 752 753 797 842 883 928 972 1016 1061
cat_threshold=328720 272629824 4096 0 0 0 2147483648 0 0 0 0 8388608 0 0 0 0 0 4 0 4096 32 0 0 0 262144 2 4194304 0 256 0 0 0 0 0 1 268435456 65680 8192 0 33808 8390160 262144 0 512 0 8192 0 66560 65536 0 0 0 2147483648 67174400 33554432 0 0 262144 0 0 0 4194304 16384 872415264 0 0 0 16 16 4358656 35741696 0 0 0 0 0 0 0 4194304 0 0 256 32 0 0 0 4 0 0 320 2147483648 1024 50429952 0 0 0 1179648 0 536870912 0 0 8192 0 0 0 67108864 128 131072 0 0 256 0 0 0 196609 0 0 32 0 0 0 2 0 1073741824 2048 524352 1 301989888 0 0 68 526368 0 0 0 2 1635794945 1073741826 0 16388 4194304 0 0 0 0 0 0 0 1048576 0 1 0 0 4096 0 136 1 0 0 268435456 0 0 0 131072 0 0 0 536875008 0 65536 16777232 1048576 0 1073741952 16777216 524296 258 8 0 0 0 8192 1024 2290288776 318783752 2215645200 8388992 0 0 0 0 0 0 0 0 0 0 0 0 0 0 0 0 0 0 0 0 0 0 526336 0 0 0 0 0 0 33554432 0 6504448 0 0 0 0 0 71303168 0 268435456 16 16777216 512 0 0 268435584 0 0 0 0 8 0 2315255808 268976128 2097408 34 0 16384 16777216 0 0 32768 0 67108864 0 8192 67108864 0 264 536870912 65536 65536 0 8192 0 4194304 0 0 524288 0 0 0 0 0 67108868 0 0 16 0 0 0 0 17301537 0 0 134217728 69206016 33554432 1090601028 71303168 8 2162688 0 0 0 1024 0 1076101120 0 0 1024 0 0 0 0 0 0 4096 0 0 134217728 48 1050752 32768 2281701376 8790017 0 512 805308417 0 0 0 4096 16777216 0 0 0 0 0 268435456 0 512 8706 0 0 16384 67125248 0 0 0 2147483648 0 0 0 0 0 0 134217728 0 0 0 34 2359296 0 0 0 0 0 512 2097152 4194560 16 0 0 0 0 0 0 0 0 0 0 0 0 0 0 0 0 0 0 0 0 0 0 67108864 0 0 0 0 0 0 269056384 532023458 0 9728 268476416 262144 0 34111744 67108864 256 1536 46137344 0 0 0 0 0 1073741824 0 512 0 33554432 65536 2 0 0 0 0 1073741824 0 0 0 0 134217728 0 0 0 2048 65536 2147483648 67108864 0 2147483648 0 16779264 0 0 65536 537395200 0 0 0 2048 0 0 0 0 0 270532608 524288 32 536870912 0 268435456 0 2755657728 16777216 32 0 1048576 2336 786945 262144 0 1024 67108864 128 0 0 0 0 0 512 301989888 4194304 0 0 0 0 0 0 512 2097152 2048 0 0 0 0 0 2 0 134479872 0 0 1048576 3072 262144 4096 0 1073741824 0 1048576 1048576 0 0 70320128 167804928 34078724 0 32 0 8192 1073741824 32 0 0 139264 8912896 0 0 1073742336 0 0 0 0 0 0 0 8 0 0 0 0 0 268435457 2 0 1 0 0 128 0 0 0 0 134219776 0 64 2181038080 4194304 2164260864 1060000 8391168 0 268437504 2048 64 0 0 0 0 0 0 8388608 0 33554432 0 1 4194304 0 1090519040 0 0 0 0 262144 0 0 8 16384 0 0 4 0 1 0 0 0 0 536870912 8388608 0 294912 10 2097152 64 33554560 0 256 0 1059328 0 8192 1024 2129920 1073741856 131072 1024 2097152 2 0 33554432 0 0 0 0 4 8 1048576 0 68157442 0 64 134217728 32768 0 32 8 0 0 65536 0 1048576 64 65664 128 0 0 8192 0 65536 16777216 0 0 524288 128 33554432 0 0 0 0 536870912 16 134348800 0 0 0 32 32768 32 68 16777216 0 0 0 541065216 0 0 524288 1073741856 0 0 0 0 8388608 0 134217728 8200 0 0 262144 0 0 0 0 0 8388736 0 0 67141632 301989888 16 134217732 0 0 131080 524288 0 4096 0 16 16384 128 2 8388616 3072 0 128 5 0 0 0 0 0 12 0 2097152 8 0 0 0 0 0 0 0 0 0 0 0 0 0 0 536903680 134746114 1 0 0 0 0 0 0 256 822083584 2097344 1073750018 32836 134217730 8 0 0 0 2112 49152 16 2 0 0 0 0 0 0 0 0 0 0 0 0 0 0 0 0 0 0 0 0 0 0 0 536903680 167777280 0 0 0 0 67108864 0 0 384 805306368 2097216 9218 268435556 205520928 0 0 0 2147549184 132113 32784 0 0 0 0 0 0 0 0 0 0 0 0 0 0 0 0 0 0 0 0 0 0 0 0 2153775106 4 0 541065216 1114128 536870920 2148597760 4 0 4194304 2147483648 536870912 0 4 33564932 264196 134217728 0 8192 0 262148 0 0 0 0 0 0 4096 1152 4096 0 0 0 0 0 0 0 0 0 0 0 0 0 0 0 4194304 4 0 1094713344 262144 2214608899 528448 8388612 0 0 0 0 0 0 302514944 2052 71974912 0 0 0 0 0 4 4227072 0 0 4 0 0 0 0 0 0 0 0 0 0 0 0 0 32768 1024 0 0 0 0 0 262144 0 0 0 8192 8389632 34816 134221826 524296 0 9 4210688 21630144 32800 16 0 0 0 0 0 0 0 1 0 0 2048 0 0 0 0 0 0 0 0 0 0 0 0 536903808 167777280 9 0 0 0 0 0 0 400 268435456 0 9218 268435556 67110944 0 0 0 65536 131089 32912 0 0 0 0 0 0 0 0 0 0 0 0 0 0 0 0 0 0 0 0 0 0 0 131072 2952791556 8 0 0 0 0 2 0 208 0 4 16777856 32 16777248 2101252 117571584 0 512 1 538705920 0 0 0 0 0 0 4194304 1 8 0 0 0 0 0 0 0 0 0 0 0 0 0 0 0 536870912 1 0 1024 0 0 8650818 0 16 0 4110 16777344 1048576 851968 0 0 0 536887872 16779328 268435616 33554432
is_linear=0
shrinkage=0.25


Tree=5
num_leaves=31
num_cat=28
split_feature=6 1 1 1 1 1 1 1 3 1 1 1 1 1 1 1 1 1 3 1 3 0 1 1 1 1 1 3 17 1
split_gain=157416 123958 106912 67622.3 55371.5 51173.9 54748.6 45503.8 43778.4 86487.5 45791.9 40515.4 39001.6 35100.6 34055.1 30681.5 30763 29136.9 27923.7 27450.8 26643.3 181994 99708.8 60634.9 50151.1 39922.1 28305.9 25745.2 22740.3 23360.8
threshold=10.464843750000002 0 1 2 3 4 5 6 7 8 9 10 11 12 13 14 15 16 17 18 19 20 21 22 23 24 25 26 -1.0000000180025095e-35 27
decision_type=2 9 9 9 9 9 9 9 1 9 9 9 9 9 9 9 9 9 1 9 1 9 9 9 9 9 9 1 2 9
left_child=3 18 27 -1 -4 -6 -7 -5 9 -8 -10 -9 -12 -14 -15 -16 -17 -13 19 -2 22 25 -18 -23 -24 -22 -26 -3 29 -25
right_child=1 2 4 7 5 6 8 11 10 -11 12 17 13 14 15 16 20 -19 -20 -21 21 23 24 28 26 -27 -28 -29 -30 -31
leaf_value=0.16154521432409805 0.15146164914011212 0.50645513342819881 0.20582228115751927 0.097191530492618389 -0.16891789601378374 -0.14080254323731253 -0.34009694763866272 0.055097618754278162 -0.1336480240650158 0.045265054388516676 -0.10215731007532937 -0.28493796099594543 -0.089641090427758488 -0.074367809652219688 -0.059987786461898958 -0.044142442122889876 -0.1912126393129156 -0.11410007211220494 -0.36655833524644899 -0.23852536478930639 -0.30801606937989984 0.5327869238410019 0.26288045525275178 0.3071912719236517 -0.063281565958280314 0.0098413154727915817 0.087603097935128105 0.21574156168574782 0.45366081250951806 0.0730718637908922
leaf_weight=67234 17050 24512 106875 70109 84669 114068 56161 83356 86379 103404 98294 67625 95055 102977 102509 115955 82989 807640 52953 33295 36642 53918 98462 45980 83223 75706 1171360 85553 21348 63362
leaf_count=67234 17050 24512 106875 70109 84669 114068 56161 83356 86379 103404 98294 67625 95055 102977 102509 115955 82989 807640 52953 33295 36642 53918 98462 45980 83223 75706 1171360 85553 21348 63362
internal_value=0 0.0293002 0.0388558 -0.0813467 0.0293524 0.0223467 0.0285574 -0.0972222 0.0363049 -0.0903807 0.0449657 -0.111442 0.0518304 0.0588727 0.0657447 0.0731389 0.0805201 -0.127303 -0.239811 -0.106442 0.0888617 0.157031 0.0747639 0.309705 0.0910791 -0.0938448 0.0775935 0.280531 0.21763 0.171562
internal_weight=0 3.0127e+06 2.9094e+06 1.09596e+06 2.79934e+06 2.69246e+06 2.60779e+06 1.02873e+06 2.49372e+06 159565 2.33416e+06 958621 2.24778e+06 2.14949e+06 2.05443e+06 1.95145e+06 1.84894e+06 875265 103298 50345 1.73299e+06 296956 1.43603e+06 184608 1.35304e+06 112348 1.25458e+06 110065 130690 109342
internal_count=4108663 3012699 2909401 1095964 2799336 2692461 2607792 1028730 2493724 159565 2334159 958621 2247780 2149486 2054431 1951454 1848945 875265 103298 50345 1732990 296956 1436034 184608 1353045 112348 1254583 110065 130690 109342
cat_boundaries=0 46 90 136 178 224 269 314 315 356 400 445 489 534 579 624 668 714 715 754 755 756 801 846 891 922 967 968 1013
cat_threshold=0 0 0 0 65536 134285312 0 1048576 8388740 335609856 524288 0 0 262144 0 0 524288 0 0 0 0 524288 524288 71565328 24 0 0 0 0 0 0 2097152 0 0 67109888 0 256 536871168 65536 0 0 4096 0 0 2048 256 2147812368 0 33558528 0 0 0 2147614720 0 0 0 0 0 0 0 0 0 128 0 0 4096 288 0 0 0 393216 0 4194304 32 0 0 0 2 0 1073741824 1 268959744 65680 8192 0 1040 1552 0 0 512 524299 4489536 0 1610629120 603979776 0 0 0 536870912 0 0 0 1048576 0 0 67108864 0 128 0 0 0 8 0 0 0 0 0 0 320 0 0 0 540672 0 131072 0 0 264192 0 0 4 0 8388640 0 131072 130 16793600 268436480 16875520 0 0 0 1048576 0 0 0 0 8396800 0 0 0 0 0 131076 0 8 0 0 0 0 65537 2 0 0 0 0 0 536875008 0 65536 16779280 64 0 301989888 524288 32768 8388672 788480 0 0 512 2048 0 0 0 262144 16 0 0 2048 0 0 0 0 0 1048576 0 35651584 0 2162690 4096 34078732 0 268435456 0 0 0 0 8 1208549376 0 524288 8388864 71303168 1073742336 0 2097152 0 0 0 0 0 256 4 0 2048 0 0 2052 0 0 16 0 0 0 0 0 0 0 0 0 0 536870912 0 0 536903680 1048576 8388608 64 0 0 4096 0 268435456 66560 33554688 0 64 134217728 8392708 1024 10489856 393218 0 33554432 1073741824 0 256 128 69337088 8585216 545267720 16 0 0 0 128 1024 131072 262144 65536 64 0 0 32 0 1026 8388608 0 0 0 0 128 0 0 524288 0 0 0 131072 268435456 262144 0 0 0 0 0 256 0 524288 256 268435456 0 100663296 8 0 0 0 270336 1024 2156036232 855654656 3825209344 268435712 0 0 0 0 0 0 0 0 0 0 0 0 0 0 0 67108864 0 0 0 0 0 0 2048 48 0 0 0 0 0 1107296256 4096 6324224 0 0 96 0 128 0 0 0 0 17408 0 4 0 0 0 0 262144 0 0 1081344 2048 134217728 0 2097152 256 0 0 536870912 1048576 0 16777216 67108928 67108864 2147483792 8224 0 32768 131072 0 1048832 1 268443648 0 268435456 64 0 272891904 64 8388608 0 67108864 256 33554432 16 131072 2147516416 0 2197946368 1073741952 536870912 0 0 0 0 0 0 0 1024 0 0 2147483648 1 0 0 0 8404992 0 2 0 0 0 0 8396800 192 0 33554432 0 0 268435456 0 134217728 0 0 4352 4 4194304 0 16777216 0 0 0 2097152 8 0 0 0 0 2 0 8519744 64 805306384 0 0 0 0 134217728 65540 0 0 0 0 4456448 2147483652 1610612736 0 0 4 2048 0 4194432 1090519040 524288 0 0 0 0 560 0 0 0 0 33554436 2048 0 0 0 0 524288 0 1073758208 4194308 4194304 16777216 0 0 1 268435462 0 0 0 536870914 0 2147483649 0 0 17408 0 1056 262144 0 0 0 0 134217728 4210688 8388609 4096 0 524288 0 0 0 0 0 524288 0 8192 32 0 0 0 0 0 2 0 0 1 0 0 71434240 32768 2097152 0 0 262144 16896 0 536887296 4 0 285212673 0 65672 0 588 0 0 134217728 1024 64 33554432 512 0 0 0 268435456 0 0 65668 0 262144 0 16384 0 512 0 0 0 0 1 8192 256 8 1024 8388608 0 4719616 0 0 0 67108880 0 8192 0 4160 1052672 262144 0 2048 0 2056 18874372 0 0 32768 0 16 0 0 16 0 0 0 0 0 0 0 65536 256 2147516416 0 0 0 0 0 1024 0 0 4096 0 1048576 0 0 0 48234496 4718592 524288 262144 17 2147483648 134217728 512 16384 0 18 128 33554432 0 16400 2148008064 1048576 0 8192 0 66560 0 0 0 268435456 2147483648 0 33554432 0 0 0 0 0 0 4194304 16392 872415264 167772160 0 256 2 0 4358656 35741696 0 0 0 0 1048576 0 0 4194304 0 0 0 32 65536 0 0 4 0 0 64 1 0 0 0 0 0 65536 0 1048576 8388736 0 0 0 0 0 0 0 0 0 0 0 0 0 0 71303168 8 0 0 0 0 0 0 2097152 0 0 0 0 256 0 65536 3 640 0 0 0 0 0 0 0 0 0 0 0 0 0 0 0 0 0 0 0 0 0 0 0 805306368 0 8 0 0 0 0 0 0 0 536870912 540098560 8706 335544388 138428417 0 0 0 0 34736128 114848 525344 0 0 0 0 0 0 0 0 0 0 0 0 0 0 0 0 0 0 0 0 0 0 0 268451840 0 0 0 0 0 0 0 0 0 131072 537985088 1056770 268566629 1279279232 33554432 0 0 32768 34605072 66688 524288 0 0 0 8650752 0 512 2048 0 0 0 0 0 0 0 0 0 0 0 0 0 0 0 0 0 3850371072 4 0 0 2181431424 168034323 84 0 0 0 2 0 0 65536 0 40 0 131072 0 4 4194304 0 0 0 0 0 0 0 0 0 0 0 0 0 0 0 0 0 0 0 0 0 0 0 0 3766484992 4 0 83968 6153 536870986 2098112 0 0 0 0 2 0 0 0 2 128 1 0 268435456 0 0 0 0 0 0 0 32768 8388736 2147483648 147456 32 1 0 0 0 0 0 0 0 0 64 16 16908320 67633152 570425344 1 8 8 17 1677721600 2097216 4 0 0 0 0 0 0 0 0 0 0 0 0 0 0 0 0 0 0 0 0 0 0 0 537001984 0 0 0 0 0 0 0 0 0 536870912 2113536 2281701904 83886080 33 2688548864 0 270533000 8 131073 1073793058 1073741888
is_linear=0
shrinkage=0.25


Tree=6
num_leaves=31
num_cat=24
split_feature=6 0 3 6 3 3 17 0 5 5 4 0 3 17 0 15 15 0 3 0 3 0 0 3 3 3 0 0 2 0
split_gain=94172.8 40794.2 40755.1 41875.7 30305.8 29510.5 26937.5 26927.4 16960.9 16261.8 16281.3 14749.6 14067 14039.7 13081.9 11524.9 12428.6 11508.3 40853.1 11259.1 14374 23474.3 14591.4 10864 10474.8 10444.4 24766.5 23557.9 9969.41 9911.58
threshold=11.480468750000002 0 1 9.9648437500000018 2 3 -1.0000000180025095e-35 4 5 6 7 8 9 -1.0000000180025095e-35 10 -0.15124511718749997 0.75781250000000011 11 12 13 14 15 16 17 18 19 20 21 22 23
decision_type=2 9 1 2 1 1 2 9 1 1 9 9 1 2 9 2 2 9 1 9 1 9 9 1 1 1 9 9 9 9
left_child=1 5 13 4 7 6 -1 28 -5 12 15 -6 14 -3 -2 -11 -17 18 -14 23 22 24 -21 -12 -22 26 -10 -27 -4 -7
right_child=9 2 3 8 11 29 -8 -9 25 10 19 -13 17 -15 -16 16 -18 -19 -20 20 21 -23 -24 -25 -26 27 -28 -29 -30 -31
leaf_value=0.19548117822203565 0.089394206871244705 -0.27592730783016645 0.63571421294496777 0.0040708291099592819 -0.15096305091897819 0.053495177422945163 -0.11912028600638928 -0.10257506557079064 -0.17142811429974994 0.071969790786439822 0.25264090522396071 -0.069247341154028641 0.08363770760912545 0.018106081945980377 -0.12029212792911433 -0.93642169312801826 0.060806883547842819 0.085828220418895429 -0.21125958312713505 -0.045689573374681387 0.067835479601262696 -0.20063070423230925 0.07244663661963878 0.044457346976198686 -0.14706149694615217 -0.04659744752924342 -0.0039337231230075426 -0.32503983633834665 0.17141883361086543 -0.031629608483270726
leaf_weight=100800 30923 61589 7073 953204 251713 136208 20462 10505 68120 2096 21985 305925 122056 12150 46612 2776 1086 826485 38648 100439 59822 51266 186969 54513 18567 62591 290186 27261 4930 229543
leaf_count=100800 30923 61589 7073 953204 251713 136208 20462 10505 68120 2096 21985 305925 122056 12150 46612 2776 1086 826485 38648 100439 59822 51266 186969 54513 18567 62591 290186 27261 4930 229543
internal_value=0 -0.0295479 -0.0449637 -0.0381716 -0.0946563 0.035508 0.14238 0.189693 -0.0147877 0.0484129 0.0111976 -0.106136 0.0658724 -0.227446 -0.0366597 -0.399217 -0.655992 0.0739252 0.0127062 0.0161609 -1.0776e-05 -0.0691087 0.0311611 0.104319 0.0169189 -0.0548989 -0.0357822 -0.131109 0.445366 7.13755e-05
internal_weight=0 2.54226e+06 2.05525e+06 1.98151e+06 580146 487013 121262 22508 1.40136e+06 1.56424e+06 499519 557638 1.06472e+06 73739 77535 5958 3862 987189 160704 493561 417063 129655 287408 76498 78389 448158 358306 89852 12003 365751
internal_count=4106503 2542260 2055247 1981508 580146 487013 121262 22508 1401362 1564243 499519 557638 1064724 73739 77535 5958 3862 987189 160704 493561 417063 129655 287408 76498 78389 448158 358306 89852 12003 365751
cat_boundaries=0 1 2 3 4 5 6 7 14 15 16 17 18 19 20 21 22 23 24 25 26 27 28 29 30
cat_threshold=16385 8 4 2 32832 1 1 0 4194320 2147483904 1073745920 65536 8908804 24 41264 8 50176 33888 5 16385 5 644 552 2 2 5 672 33412 97 1
is_linear=0
shrinkage=0.25


Tree=7
num_leaves=31
num_cat=28
split_feature=1 1 6 1 1 1 1 1 1 1 1 3 1 3 1 3 1 1 1 3 8 0 1 1 1 3 1 1 1 1
split_gain=74166.1 59545.9 43580.3 39775.3 30814.7 27908.9 24268 20995.4 20489.5 20425.1 19984.9 30468.3 20628.4 19832.3 17891.5 17872.7 18953.2 17797.6 17081.4 16625 23297.9 16114.6 15193 14969.2 14565.3 14133.3 67973.8 44895.6 37290.6 33443.6
threshold=0 1 10.996093750000002 2 3 4 5 6 7 8 9 10 11 12 13 14 15 16 17 18 7.2500000000000009 19 20 21 22 23 24 25 26 27
decision_type=9 9 2 9 9 9 9 9 9 9 9 1 9 1 9 1 9 9 9 1 2 9 9 9 9 1 9 9 9 9
left_child=-1 -2 4 -4 -3 15 19 -6 -9 -8 11 21 13 -12 -13 16 -5 -14 -10 -7 -21 -11 -20 -19 -24 26 -25 -27 -28 -29
right_child=1 2 3 5 7 6 9 8 18 10 12 14 17 -15 -16 -17 -18 23 22 20 -22 -23 24 25 -26 27 28 29 -30 -31
leaf_value=0.21544231360049115 -0.23251848656914303 0.13391800308583809 -0.13753799875045475 0.18382564762284911 0.10254335053237303 -0.02730365770690071 -0.068959980559918754 0.079654479082320928 -0.16771532019565447 -0.89195557547985704 0.062118292583539493 0.32852763610183233 -0.035921410876988052 -0.14098232463760227 -0.046678380548975135 -0.20336503605793071 -0.11966143757201472 -0.0193144309719946 0.063610965867542252 0.27025110330390123 -0.37269680707336361 -0.25067080381834722 0.050921217347596283 -0.11497096854805156 -0.057976253995062677 0.2542354132139068 0.31451926567603661 -0.13625905564453572 0.11115625077258232 0.052195402803609153
leaf_weight=97433 70799 67322 94285 21637 63173 81856 100135 78847 74583 3419 56191 8781 111267 64566 82249 51121 31675 114413 76200 4257 20385 8677 81850 77313 1233734 63903 64264 64414 458092 680699
leaf_count=97433 70799 67322 94285 21637 63173 81856 100135 78847 74583 3419 56191 8781 111267 64566 82249 51121 31675 114413 76200 4257 20385 8677 81850 77313 1233734 63903 64264 64414 458092 680699
internal_value=0 -0.00529655 -0.00121211 0.0214121 -0.0317737 0.0283212 0.0346986 -0.0387099 -0.0444856 0.041019 0.0469459 -0.060006 0.0532306 -0.0464758 -0.0104469 -0.0977614 0.00351847 0.0605979 -0.0511614 -0.0815174 -0.261502 -0.4326 -0.044914 0.0676493 -0.0512006 0.0747128 0.1038 0.0531511 0.136182 0.0359017
internal_weight=0 4.01011e+06 3.93931e+06 2.2636e+06 1.67571e+06 2.16931e+06 2.06488e+06 1.60839e+06 1.54521e+06 1.95838e+06 1.85825e+06 103126 1.75512e+06 120757 91030 104433 53312 1.63436e+06 1.46637e+06 106498 24642 12096 1.39178e+06 1.5231e+06 1.31558e+06 1.40868e+06 599669 809016 522356 745113
internal_count=4107540 4010107 3939308 2263599 1675709 2169314 2064881 1608387 1545214 1958383 1858248 103126 1755122 120757 91030 104433 53312 1634365 1466367 106498 24642 12096 1391784 1523098 1315584 1408685 599669 809016 522356 745113
cat_boundaries=0 46 92 138 183 227 269 315 360 404 449 450 494 495 540 541 580 624 668 669 670 716 759 804 805 849 893 938 983
cat_threshold=328720 4194370 33558528 0 0 0 2147614720 0 536870912 0 0 0 1048576 0 0 0 128 0 0 0 33 0 0 0 262144 0 4194304 32 256 0 0 0 0 0 1 0 65552 8192 16777216 16 532 526336 0 0 0 2 0 8192 524288 1024 0 0 0 0 128 83951616 33554432 0 0 262272 0 0 0 0 16384 872415232 0 0 0 16 16 163840 35676160 0 0 1024 0 2097152 0 0 4194304 0 256 0 32 4259840 0 0 4 0 0 320 0 0 512 2048 4 67584 0 1310720 20 268435456 524288 2048 0 0 0 0 524288 1048576 0 33554432 0 0 524288 12 8 268435456 0 0 0 0 1024 0 0 524288 75498752 4194304 1073741824 2097152 65536 0 0 4096 0 0 0 4 2049 1610612741 32768 1073758464 603979776 0 2097152 0 0 0 0 0 0 1610612736 524288 67108864 0 0 0 0 0 8 0 419512320 0 0 0 0 64 0 0 0 0 0 0 33554432 0 1310720 0 8192 0 0 268435488 0 2151677952 0 134217728 96 0 128 12 0 0 16777216 0 0 4 0 0 0 0 262144 0 0 0 133120 536870912 1048576 0 64 0 0 0 0 0 0 1074331648 0 64 2147483652 603983908 1024 8388608 33554436 0 1 1073741824 0 8388608 0 524288 0 0 0 2147614720 16777472 528384 0 33554432 0 0 2097152 8 0 524288 0 0 2 0 0 134217792 537001984 0 268435712 0 0 0 0 268435456 16777216 33554752 0 16400 8192 8388608 0 131076 2 0 0 268443648 402657290 2147778856 67108864 537919488 268435456 0 524288 0 0 131072 0 0 0 0 2048 0 0 128 0 131072 0 0 0 0 0 0 2148007936 0 0 0 131072 0 540672 0 0 0 0 2048 0 0 4096 256 33554432 4096 8192 128 0 65536 0 0 0 0 0 384 0 0 536870912 65536 33685504 33554432 64 65584 16 0 8390656 589824 268435456 0 0 1152 0 67108864 0 0 0 0 0 268435456 262144 0 131072 0 2097184 0 0 0 67108864 1048576 8388608 8192 33685504 0 0 0 0 1041 0 4194432 0 0 0 2048 0 0 0 0 0 0 16384 4194324 4194561 0 0 71303184 0 0 0 0 0 67108868 0 16384 2052 0 4460544 0 1073741824 0 520 0 0 0 134217728 20987904 268435456 0 0 0 0 544 128 33587204 4 512 2048 0 0 0 0 0 0 2 67108865 9216 0 8 0 276824064 1 2 0 0 0 0 0 536870912 0 0 286261248 0 16520 0 0 0 4 134217728 4194432 0 524288 4096 4 0 0 16 0 0 8388608 16384 0 268435456 0 8192 256 32768 134217728 0 134217728 0 0 0 1024 0 4100 0 0 4 0 0 0 16400 8 4464640 67108864 0 1 262656 66560 0 2 8 4096 0 64 64 33554433 1 0 0 0 0 0 0 0 0 0 0 0 0 0 0 0 0 0 0 0 0 0 0 0 0 0 0 0 0 0 0 0 0 0 0 0 0 0 0 0 4 134217728 0 0 0 4096 1 0 0 0 0 0 12 0 0 0 0 0 0 0 0 0 0 0 0 0 0 0 0 0 0 64 0 0 0 0 0 0 1074266112 0 0 2147483652 603979780 1024 8388608 4 0 0 1024 0 2 0 0 0 8192 0 1 0 0 0 0 0 0 0 256 0 32768 8389632 2147483648 0 6815744 0 0 46137344 524288 589824 1075839488 0 50331904 134217728 0 0 2048 2147483648 4096 16777216 2147483648 0 0 537919488 0 0 0 65536 65536 205520896 8 0 67108864 0 512 0 0 268435456 0 0 16777248 4194304 32 0 0 524288 1092632836 71303168 0 512 16777216 0 0 32768 0 262144 0 8192 33554432 0 8 536870912 0 0 0 0 512 4194304 3 16384 2752512 131072 545267724 2097152 0 0 0 18432 0 256 0 2097152 64 4194304 2181169152 4194304 0 2 0 0 0 0 0 131072 0 2290089984 132 0 0 16384 0 0 0 0 0 0 0 0 256 0 524288 0 256 0 0 8 0 0 0 0 0 0 0 69207040 2050 128 1024 0 268451840 0 0 0 0 0 2097152 0 0 0 0 0 544 8 0 268437504 4194336 536870912 0 16 2155872272 0 0 16777728 0 16842752 2048 2147483648 0 0 3221782528 67108864 8388608 0 560 134217728 524288 67108864 0 35652608 262160 262144 1073774592 1024 524288 0 33554432 131072 1024 16777216 0 0 0 0 536870912 0 0 8 1 0 0 0 8388608 0 67108866 0 0 0 0 0 8519680 0 0 0 8 67108864 6 0 0 0 0 0 2097152 0 1 32776 0 0 0 0 0 0 0 0 0 0 0 0 0 0 0 4001371136 2 0 0 4097 0 64 0 192 0 2097218 0 135266304 0 0 33556480 0 66560 1 2147516420 0 0 0 0 0 0 0 0 8 0 0 0 0 0 0 0 0 4 0 0 0 0 0 2147483648 3967816704 2 0 0 2097152 134479872 0 0 0 0 524370 524288 134221824 0 524288 33556480 0 65536 9 32852 3221274624 0 0 5 0 0 268435456 0 0 0 0 0 0 0 0 0 0 0 0 0 0 0 0 0 65536 0 0 0 0 0 0 0 0 1073741824 537937920 64 67108864 33570816 1048576 525352 14943296 32768 1048576 65536 524288 32768 0 0 0 0 0 0 0 0 0 0 0 0 0 0 0 0 0 0 0 0 0 0 0 0 0 0 1073741824 0 0 0 0 0 1073872896 537935872 80 67239936 1111506944 4194816 1024 283412704 0 1048576 66560 524288
is_linear=0
shrinkage=0.25


Tree=8
num_leaves=31
num_cat=26
split_feature=1 1 6 1 3 3 1 1 1 1 1 1 3 17 1 5 4 1 1 1 1 1 1 15 1 15 1 3 3 1
split_gain=45275.9 34315.9 23870.7 28158.5 30746.6 20505.2 37206.6 28894 18766.1 15529.3 14585.1 14974.1 21084.8 23495.1 13378.6 12935.9 14312.4 12390 12098.2 11230 11108.9 12015.9 11560.2 10550.1 10012.2 9797.82 9626.49 13478.1 9592.81 11007.9
threshold=0 1 10.425781250000002 2 3 4 5 6 7 8 9 10 11 -1.0000000180025095e-35 12 13 14 15 16 17 18 19 20 -0.15124511718749997 21 0.75781250000000011 22 23 24 25
decision_type=9 9 2 9 1 1 9 9 9 9 9 9 1 2 9 1 9 9 9 9 9 9 9 2 9 2 9 1 1 9
left_child=-1 -2 5 4 14 6 -3 -7 -5 -9 28 12 -12 -14 -4 26 23 -18 -15 -8 -11 -22 -23 -17 -24 -25 27 -13 -10 -30
right_child=1 2 3 8 -6 7 19 9 10 20 11 15 13 18 -16 16 17 -19 -20 -21 21 22 24 25 -26 -27 -28 -29 29 -31
leaf_value=0.17583518992924685 -0.19067017480828657 -0.20590423416476239 0.14725546435887363 -0.095648328401765348 -0.25173949682532637 -0.19699421587254159 0.45428886787080769 0.090472758522102376 -0.042439995119688413 0.055942997814756638 -0.0024759171806521922 0.00057046847478248489 -0.35767377094021607 -0.20933597232162482 -0.10588051292281196 0.045419663578279687 -0.1583509525303845 0.0093496434944346576 0.60597095267033318 0.15950820534461874 0.046292646904910952 0.037020566707062774 0.020740432701213458 -0.71964428689350413 -0.08097726434202164 0.015545784373284528 0.041794415975968301 -0.28244211077616421 0.13344178905405568 -0.3668471216581014
leaf_weight=89546 60540 15833 25761 92553 52610 70134 11669 61866 71745 69981 76144 53309 23443 1980 26422 3243 28534 778066 2653 26350 75788 70794 68036 4152 544462 1557 1671942 13091 3523 12463
leaf_count=89546 60540 15833 25761 92553 52610 70134 11669 61866 71745 69981 76144 53309 23443 1980 26422 3243 28534 778066 2653 26350 75788 70794 68036 4152 544462 1557 1671942 13091 3523 12463
internal_value=0 -0.00389032 -0.0010329 0.0103678 -0.116889 -0.0340946 0.116008 -0.0425065 0.0150666 -0.0303427 0.0187989 0.0221092 -0.0707715 -0.255911 0.0190842 0.0258999 -7.60299e-05 0.00341474 0.258366 0.250096 -0.0393595 -0.0481466 -0.0586224 -0.31425 -0.0696779 -0.519127 0.0380869 -0.0552603 -0.0814865 -0.256562
internal_weight=0 4.01864e+06 3.9581e+06 2.94319e+06 104793 1.01491e+06 53852 961061 2.8384e+06 890927 2.74584e+06 2.65811e+06 104220 28076 52183 2.55389e+06 815552 806600 4633 38019 829061 759080 683292 8952 612498 5709 1.73834e+06 66400 87731 15986
internal_count=4108190 4018644 3958104 2943191 104793 1014913 53852 961061 2838398 890927 2745845 2658114 104220 28076 52183 2553894 815552 806600 4633 38019 829061 759080 683292 8952 612498 5709 1738342 66400 87731 15986
cat_boundaries=0 42 88 134 135 136 181 227 272 318 360 405 406 452 453 460 499 544 589 634 678 723 763 808 809 810 845
cat_threshold=328720 4194368 69632 0 4194304 0 2147483648 0 0 0 0 8396800 0 0 1 0 0 4096 0 4096 288 0 0 0 393217 2 0 0 256 0 0 536870912 0 0 1 0 65552 8192 0 528 528 32 0 4096 524288 0 65536 0 0 268435456 0 67174400 33554432 0 0 0 0 0 4194305 0 0 1006632960 2216689664 268435456 65536 67108880 16 180224 35667968 0 0 0 0 0 0 0 71303168 0 0 536870912 32 0 0 0 0 0 0 256 0 2048 512 2048 0 134283264 0 262144 8388740 0 0 0 0 262144 0 0 524288 0 0 2097152 0 589824 524288 38535168 8 0 0 0 0 0 0 2097152 0 0 0 541065220 256 256 2424832 0 0 0 4 0 2048 4 1 4 0 0 0 0 0 0 0 0 0 0 0 0 0 0 0 0 0 0 0 0 0 0 0 2048 0 0 0 0 1073741824 1048608 0 0 0 0 268435456 0 8 0 8388608 0 0 16777216 0 0 262144 0 0 0 0 0 0 0 512 2147483648 0 0 1040 0 0 268435456 0 2147483648 4194304 16384 0 0 16384 17039424 512 0 4259840 73760 0 0 0 0 0 0 10485760 0 0 0 0 0 0 0 654311424 1026 262144 302120960 96 0 0 64 0 0 2052 0 1048576 16 268435456 524288 2048 0 0 0 0 0 1048576 536870912 33554432 0 2147483650 0 10485772 0 268435456 0 0 0 0 8 134217728 0 0 134218752 67108864 1073742336 2097152 131072 0 33554432 4096 0 256 384 11 295168 0 1610629120 536870912 0 0 256 536870912 131072 0 0 1048576 0 0 0 1048576 128 0 0 0 8 0 128 0 0 2148007936 0 64 32 131072 0 540672 0 0 0 0 264192 0 0 4 0 268435488 0 0 130 0 0 0 0 4 8 0 16 0 33554432 0 0 0 8 0 524288 0 0 2147483650 1081344 0 539000832 536875008 0 0 0 0 536870912 0 0 50398208 1073741824 67108864 524432 2155872544 0 0 131072 2 0 0 268435456 0 524288 32 0 0 0 0 2148007936 0 1024 0 4 2097152 0 0 0 262144 0 0 0 2048 134217792 1048576 0 268435520 0 0 4096 1048576 0 1048576 34144320 0 2151678017 8196 0 1024 8392704 4 0 0 0 0 0 4096 3 0 2048 0 0 0 0 0 0 8388736 0 0 0 0 0 0 0 0 0 0 0 0 0 0 4718592 8 0 0 0 0 0 0 2097152 0 0 0 541065220 256 0 2162688 0 0 0 4 0 0 4 1 0 4194320 2147483904 1073745920 65536 8908804 24 0 134217728 0 268435456 0 0 4 2097152 262144 2052 16384 0 0 0 0 0 0 1073741824 9232 0 131136 0 272629776 0 0 0 0 0 0 268435456 1073741824 4194560 0 134479872 0 8409096 262144 134218242 8 0 0 0 0 0 0 0 2147483648 0 0 0 0 0 0 0 0 0 0 0 0 0 0 0 0 0 0 0 0 1048576 0 1048576 33619968 0 0 0 0 0 8388608 0 0 0 0 0 0 4096 0 0 0 0 0 0 0 0 0 0 0 0 0 0 0 0 0 0 0 0 0 0 0 0 0 0 0 0 0 0 0 0 0 2097152 0 0 0 0 0 0 0 570425344 1026 0 301989888 2621440 65536 0 2097152 0 0 4096 2048 0 64 131072 2147549184 131072 35782656 1073872960 536936496 2097168 0 8388608 0 0 0 0 1024 0 67108864 0 0 0 4194304 0 268435456 262144 0 0 0 0 0 8192 262144 0 0 0 0 1 131648 8519680 545521672 64 0 0 0 16777216 0 256 16 0 0 2148007936 128 0 256 1024 0 0 0 0 0 64 0 2281701376 132 1 1073741824 0 0 16384 0 2 0 0 2097152 0 8388864 128 0 0 0 8192 67108864 0 272637952 48 8388608 524304 67108864 0 35652608 0 262144 32768 1026 0 0 4456448 512 258 134217728 0 0 0 0 0 0 64 5129 0 0 0 0 8388608 0 0 0 0 0 0 0 8388608 0 2097152 0 0 1048576 4194304 0 1073741824 128 131072 0 0 0 0 671088640 8388608 262144 65556 51200 4259840 0 163840 524360 0 4 0 0 0 0 0 4096 134217744 0 134217728 1048704 268435456 0 0 0 32768 2048 0 0 0 67108864 0 0 16 0 3472 0 4227328 0 0 8192 0 256 32768 0 0 0 2 1 4 0 25165824 4100 0 0 256 0 0 0 0 0 0 0 0 16384 0 1056 0 0 33554432 260 134217729 0 16384 268959744 512 3 3 0 0 0 0 0 0 0 0 0 0 0 0 0 0 0 0 0 0 0 0 0 0 0 0 0 0 0 0 0 0 0 1073741824 0 0 32
is_linear=0
shrinkage=0.25


Tree=9
num_leaves=31
num_cat=16
split_feature=8 3 3 8 3 12 0 3 8 0 0 8 6 0 0 6 0 5 0 6 7 0 10 3 8 12 12 2 6 0
split_gain=20406.6 124515 67472.9 134255 66158.3 47239.2 41377.7 129106 104508 35407.1 23415.8 21423.9 21150.9 17057.6 16990.7 14115.9 12970 12290.6 10101.7 9608.12 9098.11 9012.81 8498.29 7500.29 17719.3 7492.36 7332.82 7222.97 9662.8 7089.52
threshold=24.453125000000004 0 1 10.050781250000002 2 4.5000000000000009 3 4 13.347656250000002 5 6 1.7500000000000002 11.113281250000002 7 8 11.113281250000002 9 10 11 13.253906250000002 1954.5000000000002 12 9.9492187500000018 13 15.652343750000002 20.000000000000004 4.5000000000000009 14 12.574218750000002 15
decision_type=2 1 1 2 1 2 9 1 2 9 9 2 2 9 9 2 9 1 9 2 2 9 2 1 2 2 2 9 2 9
left_child=2 13 3 11 16 14 15 12 10 -6 -9 29 -8 -2 19 23 -3 -15 -14 22 -16 -13 -5 24 -4 -17 -11 -24 -29 -1
right_child=1 4 6 5 9 -7 7 8 -10 26 -12 21 18 17 20 25 -18 -19 -20 -21 -22 -23 27 -25 -26 -27 -28 28 -30 -31
leaf_value=0.1567633966186687 0.28796413757940398 -0.028276732004775741 -0.067785495703044096 0.13303366704257577 0.0063022042896349936 -0.75253902401208883 -0.045244589446923431 -0.24558697698152718 -0.056127763056359171 -0.19358579133626283 -0.43967689676593175 0.24233152779228653 -0.019315108467545458 0.17605359880249452 -0.69238189588996146 0.037209925613830901 0.043898647794535582 0.052702964228246468 0.052358519656783759 0.45439482594101221 -0.088630052473824703 0.072003879330207757 0.065783269081463008 -0.034471486549423225 0.1540176729397825 0.31747616557020142 -0.58120509337274229 -0.038621629855169079 -0.53956966745631829 0.40289630118347813
leaf_weight=8404 59319 231400 43999 36496 76369 5503 634456 79027 166143 153749 76662 57035 207341 163726 1587 512288 475064 73005 301745 3355 88881 29488 52893 383683 46089 6031 3112 68746 2493 59024
leaf_count=8404 59319 231400 43999 36496 76369 5503 634456 79027 166143 153749 76662 57035 207341 163726 1587 512288 475064 73005 301745 3355 88881 29488 52893 383683 46089 6031 3112 68746 2493 59024
internal_value=0 0.0266862 -0.0117362 0.0816423 -0.0178568 -0.0279267 -0.0274641 -0.054156 -0.194032 -0.133303 -0.341206 0.266661 -0.0147884 0.168066 -0.0122516 0.0119613 0.0202574 0.138009 0.0231674 0.035731 -0.0992205 0.184323 0.0269844 -0.0192295 0.0456816 0.0404721 -0.201268 -0.00419397 -0.0561552 0.372309
internal_weight=0 1.23574e+06 2.87137e+06 413905 939694 259954 2.45746e+06 1.46537e+06 321832 233230 155689 153951 1.14354e+06 296050 254451 992090 706464 236731 509086 163983 90468 86523 160628 473771 90088 518319 156861 124132 71239 67428
internal_count=4107113 1235744 2871369 413905 939694 259954 2457464 1465374 321832 233230 155689 153951 1143542 296050 254451 992090 706464 236731 509086 163983 90468 86523 160628 473771 90088 518319 156861 124132 71239 67428
cat_boundaries=0 1 2 3 4 5 6 7 8 9 10 11 12 13 14 15 16
cat_threshold=2 4 1 21139 9 57344 33796 16513 57344 49952 1 44 41024 2 21005 16896
is_linear=0
shrinkage=0.25


Tree=10
num_leaves=31
num_cat=26
split_feature=1 1 1 1 3 5 1 8 3 3 1 1 1 1 1 3 1 8 1 1 1 1 1 8 8 3 1 1 1 1
split_gain=28511.9 25051.4 14441.8 14541.6 18451 13124.3 14887.3 11662.2 49481.4 25215.3 35303.4 23050.3 20250.1 15359.1 13896 12556.6 108468 49294.4 58286.8 44634.5 40199.2 30941.2 20793.7 16002.4 13793.2 53562.1 54158.9 40382 27697.5 22557
threshold=0 1 2 3 4 5 6 26.750000000000004 7 8 9 10 11 12 13 14 15 12.847656250000002 16 17 18 19 20 2.7500000000000004 17.046875000000004 21 22 23 24 25
decision_type=9 9 9 9 1 1 9 2 1 1 9 9 9 9 9 1 9 2 9 9 9 9 9 2 2 1 9 9 9 9
left_child=-1 -2 -3 4 -4 6 -5 15 9 10 -9 -10 -13 -14 -11 16 23 22 -19 -17 -21 -20 -18 -7 25 28 -27 -28 -22 -29
right_child=1 2 3 5 -6 7 -8 8 11 14 -12 12 13 -15 -16 19 17 18 21 20 24 -23 -24 -25 -26 26 27 29 -30 -31
leaf_value=0.14068513674475686 -0.14821625239840305 0.10551133184492016 0.34378735723911769 -0.1955372433951095 0.044615468191636372 0.050722198191582128 -0.021931424988204759 -0.32766051806309654 -0.66281524271664094 -0.33857542944973962 0.19416545803401239 0.46845398879684252 -0.43961880887657073 -0.082704457712701587 0.04142510293288873 -0.24463184907967442 0.49525683206499732 -0.41746081782728156 0.37313392102260229 0.21215852079141942 0.27006266567257187 0.016312462392686893 0.18215666355792157 -0.47611104664131088 0.012406247713947504 -0.59184513015033791 0.2710569692713416 -0.44625397075827228 -0.011563123058029624 -0.12062798761400934
leaf_weight=87974 73066 78713 15638 31694 73004 4180 1176685 8627 4581 6127 131265 3890 8207 91105 299128 49948 15550 17905 17436 51702 22563 117376 90092 26078 775013 16304 15405 14875 658740 124962
leaf_count=87974 73066 78713 15638 31694 73004 4180 1176685 8627 4581 6127 131265 3890 8207 91105 299128 49948 15550 17905 17436 51702 22563 117376 90092 26078 775013 16304 15405 14875 658740 124962
internal_value=0 -0.00317823 -0.000492703 -0.00265018 0.0974336 -0.00499786 -0.026487 0.00510178 0.037269 0.0740689 0.16196 -0.114709 -0.0903089 -0.112247 0.0337851 -0.00371133 0.0445602 0.097015 0.00619253 -0.0117671 -0.00484034 0.0624907 0.228314 -0.403191 -0.0117339 -0.0336713 -0.158523 -0.112974 -0.00223183 -0.1553
internal_weight=0 4.01986e+06 3.94679e+06 3.86808e+06 88642 3.77944e+06 1.20838e+06 2.57106e+06 552930 445147 139892 107783 103202 99312 305255 2.01813e+06 288617 258359 152717 1.72951e+06 1.67956e+06 134812 105642 30258 1.62786e+06 852849 171546 155242 681303 139837
internal_count=4107833 4019859 3946793 3868080 88642 3779438 1208379 2571059 552930 445147 139892 107783 103202 99312 305255 2018129 288617 258359 152717 1729512 1679564 134812 105642 30258 1627862 852849 171546 155242 681303 139837
cat_boundaries=0 43 89 134 178 179 180 226 227 228 273 315 359 404 450 451 496 541 586 631 676 721 722 766 811 855 900
cat_threshold=328704 4194304 4096 0 0 0 2148663296 0 0 0 36864 0 0 0 0 67109380 0 33947648 0 128 0 0 0 134299648 262144 2 4194304 131072 256 0 0 0 0 0 1 0 16 8192 0 0 532 0 32 0 18432 0 2048 0 71303168 0 134217728 67108864 67174400 33554944 0 0 0 0 0 603979808 0 0 805306368 0 0 0 16 16 163840 35651584 0 1073741824 0 0 0 0 0 301989888 0 0 0 32 4259840 0 67108864 4 0 0 260 8388864 1107296320 16809984 16781312 4194304 0 2048 8388608 0 1073741824 0 20971520 0 4 0 0 0 268435456 0 2048 1 0 0 0 8388608 0 0 0 0 0 0 4098 4 65536 0 524288 0 268435456 0 8192 16777218 0 268435456 4096 2147483648 17825792 1024 0 16384 0 0 1 33554432 537919520 8 0 8396800 0 536870912 1 64 128 0 0 16384 512 0 0 268435456 16384 0 0 32 0 0 0 2147483648 1073741824 0 0 0 134283393 262144 0 512 0 524290 0 2 12 2 0 0 0 0 0 6 2 1048576 8405121 4 0 0 0 0 0 0 0 0 4096 2097152 0 570427392 5 524834 0 268435456 0 0 0 0 0 0 0 134217728 1024 4100 8704 514 2097160 0 0 0 0 0 0 64 3 2 0 0 0 0 0 1048576 4227072 268435456 2147483664 4 0 0 0 0 0 0 0 0 0 0 0 0 0 0 1032 0 0 0 0 67108864 262144 1142947840 0 0 48 1024 256 0 606208 0 265 16797696 3136 32768 16 0 0 0 0 0 0 0 0 0 0 0 0 0 0 0 0 0 0 0 0 0 0 0 2048 1583349762 4 0 0 67108880 0 2147483648 64 0 4718592 2156400654 536870912 525312 65540 4 4 1048576 16384 0 0 0 0 0 0 0 0 0 0 0 0 0 0 0 0 0 0 0 0 0 0 0 537034752 0 8 0 0 0 0 0 603979776 0 0 553713696 269492226 67240004 1077936130 272 16416 0 33554432 33556482 1048960 0 0 0 0 0 0 33554440 1073741824 0 0 0 0 0 0 0 0 0 0 0 0 0 0 0 77594624 2684354632 0 0 0 524292 8 65 1074790672 32 1048576 263168 8388608 8 0 65536 256 138412032 16777280 0 0 4096 0 262144 32 65536 65536 1048576 0 1024 0 0 0 0 0 0 0 0 0 0 0 0 0 0 0 33554432 0 4 0 4194304 0 67108864 0 4 0 131072 0 0 131072 538968064 33562880 524288 1611137024 0 33587202 1057024 301990912 16 4 0 0 0 0 0 0 0 0 0 0 0 0 0 0 0 0 0 0 0 0 0 0 0 71303168 4032823552 0 0 536870912 68747280 40 2147549193 16 0 4194304 0 536870912 0 8388608 65540 2052 134217728 134217728 0 0 4096 0 0 0 0 0 0 0 0 0 0 0 0 0 0 0 0 0 0 0 0 0 0 0 10488320 17301514 4 0 0 0 536870912 0 0 0 18350080 2156662786 8388608 1049608 65796 0 256 0 16793600 524288 4 512 0 0 0 0 0 268435456 0 8 16779276 0 0 0 0 0 0 524288 0 0 0 0 0 0 0 32768 0 8 0 0 0 0 262144 0 0 538968064 536870944 1073741824 32836 134217736 33554432 0 0 1610612736 33557506 1048832 301989904 0 0 0 33554432 0 0 0 0 0 0 0 0 0 0 0 0 0 0 0 0 0 0 0 71303168 4049600512 4 0 536870912 2147483665 67108865 68 16 0 4194304 8388608 536870912 0 8454144 65536 2052 134217728 0 0 0 4198912 0 0 0 0 0 0 0 0 0 0 0 0 0 0 0 0 0 0 0 0 0 0 0 537034752 0 9 0 0 0 0 0 0 0 1073741824 539033600 268443650 131172 1212153858 33554432 0 64 570425344 33556482 1081728 16 0 0 0 0 0 0 0 0 0 0 0 0 0 0 0 0 0 0 0 0 0 0 0 10749952 72 0 0 0 0 0 0 0 0 0 611404 1342177280 4 4718598 33554432 0 0 587202568 33554434 1048832 33554448 9 536871040 0 0 0 0 32776 65536 2097152 0 0 0 0 0 0 0 0 0 0 0 0 0 0 0 536870912 201330754 1 0 0 0 0 2 67108864 272 285212672 2162752 16785408 0 0 2 16908288 0 16777728 64 268468224 0 262144 0 0 0 1048576 4096 16777344 16 0 0 0 0 0 0 0 0 0 0 0 0 0 0 0 0 0 0 0 32772 128 0 8388608 0 0 0 0 0 0 25698560 1202 13586688 0 8192 8192 4 0 0 0 0 0 0 272629760 1358954752 2097152 0 0 0 0 0 0 0 16 0 0 0 0 0 0 0 234885120 0 0 0 0 0 0 1142948096 0 419430400 192 1024 33554432 0 12 1048576 0 16859136 524352 268435456 512 0 0 0 0 4 12582912 529 0 0 0 0 0 0 0 0 0 0 0 0 0 0 0 131584 516 0 0 0 0 0 8388608 1073742336 0 0 1664 2 33554432 135200 135176 33554432 0 4288 1 536870912 32
is_linear=0
shrinkage=0.25


Tree=11
num_leaves=31
num_cat=16
split_feature=6 16 0 3 10 3 8 4 5 8 3 3 8 0 0 6 10 3 0 0 4 0 15 15 15 10 4 6 6 3
split_gain=13504.4 11059.5 9576.28 23507.5 18966.8 10490.9 11969.3 7232.4 5832.56 5917.2 12914.9 12324.2 49139.5 11736.2 10135.6 9661.75 6488.49 9099.81 5729.44 5720.63 5478.46 18020.8 28357 31776.6 12638.9 9775.38 7569.45 5210.96 4984.27 5921
threshold=9.7070312500000018 0.37939453125000006 0 1 5.5507812500000009 2 5.6503906250000009 3 4 28.351562500000004 5 6 12.449218750000002 7 8 13.152343750000002 5.0507812500000009 9 10 11 12 13 -0.15124511718749997 0.75781250000000011 1.0000000180025095e-35 19.351562500000004 14 12.042968750000002 12.074218750000002 15
decision_type=2 2 9 1 2 1 2 9 1 2 1 1 2 9 9 2 2 1 9 9 9 9 2 2 2 2 9 2 2 1
left_child=-1 2 3 4 -2 6 -4 -3 9 11 -11 14 15 -14 16 19 17 -7 -8 -13 21 22 -10 24 26 -26 -24 -20 29 -9
right_child=1 7 5 -5 -6 8 18 28 20 10 -12 12 13 -15 -16 -17 -18 -19 27 -21 -22 -23 23 -25 25 -27 -28 -29 -30 -31
leaf_value=-0.036791292439249994 -0.015692007806329341 -0.237580906615704 0.23676021330842234 0.014961987882887091 0.21223126950001575 0.24551709738280983 -0.48659103945199972 -0.007104209335312423 0.047723953064553758 0.083096727849039154 -0.082630909015586534 -0.13141502849669989 0.15087232508630732 -0.0070175305062813468 0.010383361619196837 -0.74995625695991075 0.041004968016515743 0.067774418223834343 -0.12532212551598235 -0.28379289938910068 0.0034695840592023222 0.0004266997849138963 -0.88414100424250974 0.066483107186485702 0.13252839530161681 -0.99377027304466059 -0.028797284561625586 0.019452234903946704 0.018499992415791311 -0.048697380214838021
leaf_weight=547346 31800 8859 7148 319067 80777 28440 2321 747223 11943 196917 34535 32439 43651 90225 525813 2094 125409 49111 62137 29446 436774 77818 930 4671 520 6423 2084 20716 280736 299715
leaf_count=547346 31800 8859 7148 319067 80777 28440 2321 747223 11943 196917 34535 32439 43651 90225 525813 2094 125409 49111 62137 29446 436774 77818 930 4671 520 6423 2084 20716 280736 299715
internal_value=0 0.00538846 0.0161929 0.0496198 0.147834 0.00813877 -0.0739298 -0.0125835 0.0125983 0.0226107 0.0583672 0.0136792 -0.0416525 0.0444729 0.0287018 -0.221878 0.0761555 0.133003 -0.100018 -0.203994 -0.00882763 -0.0602769 -0.237994 -0.471436 -0.723789 -0.909373 -0.296039 -0.0891102 -0.01108 -0.0190122
internal_weight=0 3.55974e+06 2.22321e+06 431644 112577 1.79156e+06 92322 1.33653e+06 1.69924e+06 1.15808e+06 231452 926628 197855 133876 728773 63979 202960 77551 85174 61885 541163 104389 26571 14628 9957 6943 3014 82853 1.32767e+06 1.04694e+06
internal_count=4107088 3559742 2223209 431644 112577 1791565 92322 1336533 1699243 1158080 231452 926628 197855 133876 728773 63979 202960 77551 85174 61885 541163 104389 26571 14628 9957 6943 3014 82853 1327674 1046938
cat_boundaries=0 1 2 3 13 14 15 16 17 18 19 20 21 31 32 38 39
cat_threshold=16641 2 8 0 4194320 256 1073745920 65536 258052 0 512 0 134217728 1 3 5 640 8322 4 128 33412 0 0 2148007936 0 4194304 1083282465 19923976 536870912 1073742848 33024 512 0 0 2147483648 0 0 1074823168 5
is_linear=0
shrinkage=0.25


Tree=12
num_leaves=31
num_cat=20
split_feature=16 0 3 10 0 0 0 6 3 10 10 3 3 0 0 10 10 12 0 0 0 0 2 0 3 0 3 10 10 2
split_gain=9342.18 5997.85 6782.14 15115.3 11749.3 7934.98 6256.37 5966 7019.81 35166.2 11723.1 15292.8 13361.6 20347.6 10965.6 8815.73 8778.74 6961.31 6722.16 6030.06 5637.14 5300.14 5157.38 4814.51 4538.03 7445.73 12573.4 15743.8 9832.59 5285.04
threshold=-0.37939453124999994 0 1 4.2500000000000009 2 3 4 12.074218750000002 5 6.1171875000000009 16.046875000000004 6 7 8 9 6.7500000000000009 6.1171875000000009 4.5000000000000009 10 11 12 13 14 15 16 17 18 5.5507812500000009 2.7500000000000004 19
decision_type=2 9 1 2 9 9 9 2 1 2 2 1 1 9 9 2 2 2 9 9 9 9 9 9 1 9 1 2 2 9
left_child=1 24 5 20 -5 -3 -6 8 9 21 12 19 23 16 -11 22 -14 -16 -13 -12 -4 -2 -15 -10 25 -1 28 -28 -27 -30
right_child=7 2 3 4 6 -7 -8 -9 10 14 11 18 13 15 17 -17 -18 -19 -20 -21 -22 -23 -24 -25 -26 26 27 -29 29 -31
leaf_value=0.11595637622296591 0.20438145533429206 -0.018034014947833681 -0.01041092153453225 -0.42280845026380043 0.032444445187630629 0.031551547209466742 -0.096275316577573877 0.016054386585051386 -0.032017493183088143 0.01381854247139618 0.011562640947253835 0.014567732044239624 -0.084107209407317682 0.068373787556782514 -0.10460279900469918 -0.081526477800630132 0.03685273178857526 -0.70843814171411867 -0.044302591619191908 0.11910434982957738 0.16546143737440652 0.068689327204199999 -0.23640984506775103 0.0073363044132710815 0.017041870577021938 0.25595982842853071 -0.23731489535927508 0.04299047946882998 0.18410521680418612 -0.021341032604735868
leaf_weight=99083 54339 312591 21034 6004 31067 568551 98128 474111 677399 98025 51241 253502 74086 3667 70503 49613 75931 1213 232302 89585 24835 26957 64540 272420 267014 17885 20618 31894 10636 29526
leaf_count=99083 54339 312591 21034 6004 31067 568551 98128 474111 677399 98025 51241 253502 74086 3667 70503 49613 75931 1213 232302 89585 24835 26957 64540 272420 267014 17885 20618 31894 10636 29526
internal_value=0 0.0153604 0.00490458 -0.0391613 -0.081237 0.0139604 -0.0653205 -0.00927027 -0.0150006 0.0242197 -0.0203393 0.00744485 -0.034638 -0.0839536 -0.0405335 -0.161705 -0.0228804 -0.114813 -0.0135828 0.0799799 0.0848421 0.159425 -0.220044 -0.0207301 0.0386592 0.066189 0.0215782 -0.0670519 0.101759 0.0331043
internal_weight=0 1.53887e+06 1.06221e+06 181068 135199 881142 129195 2.56943e+06 2.09532e+06 251037 1.84429e+06 626630 1.21766e+06 267837 169741 117820 150017 71716 485804 140826 45869 81296 68207 949819 476656 209642 110559 52512 58047 40162
internal_count=4108300 1538866 1062210 181068 135199 881142 129195 2569434 2095323 251037 1844286 626630 1217656 267837 169741 117820 150017 71716 485804 140826 45869 81296 68207 949819 476656 209642 110559 52512 58047 40162
cat_boundaries=0 1 2 3 4 5 6 7 8 9 10 11 12 13 14 15 16 17 18 19 20
cat_threshold=24577 3 128 38192 33792 4 2 9 17028 57344 12505 41028 1540 41088 8352 53564 6 16385 4 4609
is_linear=0
shrinkage=0.25


Tree=13
num_leaves=31
num_cat=29
split_feature=1 1 1 1 1 1 3 8 1 1 1 1 1 1 1 1 1 1 1 3 5 1 3 3 3 1 1 1 3 1
split_gain=19305.4 16182.3 10986.7 8525.51 8304.02 7400.71 13407.1 8538.93 6922.68 7252.83 7990.03 8143.79 7599.65 7220.72 5662.87 5167.56 5332.51 5420.07 5514.08 11930.1 5147.12 6820.84 6370.22 5093.72 4863.9 6009.42 4952.87 4720.1 4215.03 4199.87
threshold=0 1 2 3 4 5 6 3.7500000000000004 7 8 9 10 11 12 13 14 15 16 17 18 19 20 21 22 23 24 25 26 27 28
decision_type=9 9 9 9 9 9 1 2 9 9 9 9 9 9 9 9 9 9 9 1 1 9 1 1 1 9 9 9 1 9
left_child=-1 -2 -3 -4 -5 6 7 -6 -7 -10 -11 -12 23 -14 -15 -16 24 -18 19 -19 21 22 -20 -13 25 -17 -26 -22 -21 -23
right_child=1 2 3 4 5 8 -8 -9 9 10 11 12 13 14 15 16 17 18 20 28 27 29 -24 -25 26 -27 -28 -29 -30 -31
leaf_value=-0.12584454890367533 0.11472452156862988 0.08801962818999165 -0.089747074499438223 -0.082521023858020376 0.1923881093029999 0.082798435663653788 -0.038101737492286708 -0.47638840050399972 0.078767031352709238 0.074922725489687383 0.070942423089769752 0.16032609701582368 0.058839465711076323 0.054313127058024872 0.049178829281098346 0.34625192713477632 0.041953244846096291 -0.63047272856270453 -0.35003737639619753 0.13434074887118372 0.052314310633012132 0.051621147041250752 -0.085267230431437802 0.030337608755152207 -0.15635097956260352 0.045063411616623479 0.041151441592658912 -0.013454794279384783 0.020300066466751306 -0.03408980319173642
leaf_weight=75034 78219 86489 68082 75596 1424 66309 66152 7331 73934 85966 92457 25610 102837 87244 88675 6899 104098 1626 7515 27260 70990 37444 23265 71290 8902 10364 72369 1728620 78829 776435
leaf_count=75034 78219 86489 68082 75596 1424 66309 66152 7331 73934 85966 92457 25610 102837 87244 88675 6899 104098 1626 7515 27260 70990 37444 23265 71290 8902 10364 72369 1728620 78829 776435
internal_value=0 0.00212965 -9.79734e-05 -0.00206885 -0.000497424 0.00116787 -0.0766125 -0.367155 0.00276487 0.00128325 -0.000349628 -0.00224049 -0.00427254 -0.00634014 -0.00848154 -0.010282 -0.0120668 -0.0140397 -0.0161579 0.0392847 -0.0184166 -0.0345165 -0.150021 0.0647095 0.04511 0.165589 0.0194968 -0.01086 0.0496165 -0.0301456
internal_weight=0 4.03223e+06 3.95401e+06 3.86752e+06 3.79944e+06 3.72384e+06 74907 8755 3.64894e+06 3.58263e+06 3.5087e+06 3.42273e+06 3.33027e+06 3.23337e+06 3.13054e+06 3.04329e+06 2.95462e+06 2.85608e+06 2.75198e+06 107715 2.64427e+06 844659 30780 96900 98534 17263 81271 1.79961e+06 106089 813879
internal_count=4107265 4032231 3954012 3867523 3799441 3723845 74907 8755 3648938 3582629 3508695 3422729 3330272 3233372 3130535 3043291 2954616 2856082 2751984 107715 2644269 844659 30780 96900 98534 17263 81271 1799610 106089 813879
cat_boundaries=0 46 92 137 183 228 267 268 313 356 398 441 487 533 572 617 662 706 751 752 753 799 800 801 802 845 882 922 923 968
cat_threshold=0 10240 524800 2048 0 268435456 0 262144 0 83951616 33554432 0 0 262144 0 1073741825 0 0 0 0 0 0 0 16 16 0 35651584 0 0 0 0 0 0 8192 272630016 0 8 260 69206048 0 0 67108992 4 0 0 256 328704 4194304 4096 8388608 0 0 2149580800 0 0 0 0 0 1048576 0 0 0 0 8388608 65536 16394 2 8200 0 134299648 8650752 0 0 0 64 0 0 0 65536 0 0 0 134217744 270336 0 0 0 2 268435456 4096 0 2 0 66 0 1048576 0 256 1050624 8388608 32 0 0 1 0 1073741824 524288 1048576 0 0 1 131584 769 16 0 0 0 0 0 32768 0 0 0 0 16384 2048 17 0 0 0 0 524800 6 0 288 0 2147483649 0 528384 96 0 262144 2 0 524800 0 2097152 2048 32 537133056 268435584 0 0 17301504 0 0 0 2048 0 33024 4194304 0 32768 0 8192 0 32768 0 0 0 0 1140850688 32 0 0 131072 65536 0 268435456 536870912 0 0 4 0 0 16 1024 0 0 8 0 513 268435456 1048576 0 0 0 0 0 4196353 537919488 32 268435456 134217728 524288 24576 0 0 131072 16777216 134217728 0 1024 16777216 2097152 2097152 0 0 0 8192 538968064 0 4194304 33554433 0 0 0 134217728 0 0 131072 65536 0 0 128 268435456 67108864 0 0 1168 2097152 134217728 0 0 262144 0 10 100663296 0 32 1073807364 33554432 0 2098688 0 0 1073741824 0 4195328 262144 0 512 8650752 536870912 0 0 65536 4 1050624 67108868 0 0 0 512 134217728 0 537919488 0 134221832 0 0 536936448 0 64 0 268500992 0 2176 8224 0 0 16777216 16384 0 4194304 0 0 0 0 2147487872 1073741824 0 0 0 0 0 0 8192 16777232 0 0 0 16785408 16777472 1073741824 33554432 67158016 67108864 0 131072 0 0 1073741864 128 0 0 0 0 0 268435456 33820672 0 4096 268435456 0 0 2147483776 0 0 0 131072 256 0 134217728 0 4 0 65536 0 2147483648 2048 0 16 0 260 2097152 8388608 536871944 16875520 17301760 268435456 0 0 0 0 0 0 8396800 0 4 1 67108864 0 0 128 524288 16 0 0 0 65537 2 0 67108896 0 0 0 0 524288 65536 0 2148007936 0 0 64 2 0 2560 33554449 33554433 0 1073745920 536870912 0 513 256 0 0 32768 4194304 8388608 0 0 8708 192 131076 512 0 0 0 0 0 131072 0 0 0 32768 0 8388608 536870914 0 0 0 1048576 131072 0 0 32768 0 2097152 8388608 4096 2148532352 67108864 0 4194304 16384 524288 0 0 131072 0 16777216 0 2 134219776 8 0 0 2048 65536 0 0 0 0 1073741824 0 0 0 268435456 0 131072 0 0 8 0 268435456 0 1342177280 285212672 0 0 2148532224 0 9218 0 9 671088640 0 0 538968064 0 0 0 32768 0 64 0 0 131080 0 0 1024 0 0 0 0 0 0 0 0 16777216 2281701376 2148008068 16778240 128 33554432 0 0 0 0 0 32768 536871040 33554560 0 0 1536 32 8 80 0 128 0 32768 0 33554432 0 64 0 37748736 0 0 16 0 33554432 33554432 0 536936448 2097152 0 159645696 0 0 0 0 4096 0 8388608 5120 8 2147483648 4194304 16 0 4456960 256 0 16777280 2097153 0 16 0 285212672 0 0 0 8192 0 16777216 0 0 1073741824 65536 0 2097152 131136 32 0 128 0 16777216 1073741824 0 0 131136 0 67108864 1 0 139264 0 67633152 0 268435456 2 128 4096 0 4194304 0 262152 0 0 1073741824 0 538050560 0 65792 0 4194304 0 0 1024 32 0 0 537001984 0 8192 0 1073741824 4194304 512 32768 33554432 0 0 0 0 268435456 4224 0 142606336 524288 0 2281717776 0 276824064 0 0 0 270336 65536 0 0 0 8388608 0 16 2147483648 64 2 32 10485762 134225920 0 524288 0 0 0 0 0 2147483648 1088 0 0 17039376 1048592 0 0 0 0 0 0 1024 0 4096 0 1 33556480 262145 0 0 64 131072 64 0 268435460 0 2147483648 0 0 524288 65536 8 1073741952 0 0 0 0 0 0 0 524288 0 2 1073741824 0 2147614720 2147483648 32768 1024 0 1073741824 0 0 0 0 536870912 0 64 24 2 0 131072 66 0 0 0 0 0 32 32 0 1024 448 8388616 1048576 65664 4194306 8 2 0 0 0 0 0 134283268 2 135266304 16512 0 0 0 0 0 0 0 0 0 16 0 67108864 352337920 36700160 524800 0 268435456 0 0 0 0 0 0 134348800 2155872256 134218784 4 1073741824 2 8 0 0 0 0 0 0 64 2 10 4 0 0 0 0 0 0 0 0 0 0 0 0 0 0 0 0 0 0 0 0 0 0 0 268435456 0 0 0 0 0 0 0 0 0 0 0 8192 65536 0 0 0 0 0 16 0 0 0 0 0 0 0 0 0 0 0 0 0 0 0 0 0 0 0 0 0 0 0 268435456 0 0 0 0 0 0 0 0 0 0 0 8192 65536 268435456 0 0 512 9437184 0 0 0 0 262144 0 2097152 4194304 17334272 4 0 33554688 2147483650 0 0 524288 131072 0 0 603979776 0 0 0 2359296 1140850688 0 0 0 134217728 524288 0 8388672 514 8200 16384 4 0 262144 12 0 0 0 67112960 16512 4096 0 0 0 0 4194304 33554432 0 0 0 0 0 65536 0 0 0 33554432 0 0 4 0 0 0 0 0 1610612736 2113536 134217746 4096 16777216 134742528 0 336074752 262144 0 0 4
is_linear=0
shrinkage=0.25


Tree=14
num_leaves=31
num_cat=26
split_feature=1 1 3 6 16 1 1 3 1 16 1 1 1 1 1 1 3 1 4 1 1 1 3 1 17 1 1 1 1 1
split_gain=10643.1 9878.99 5775.47 6055.19 5732.76 14882.9 12038.6 7025.89 6445.22 5800.14 5477.33 5330.14 4925 4668.99 4571.89 4450.33 4392.18 4211.75 3739.4 3656.46 3584.17 3231.42 3417.25 20274.6 12128.5 11451.7 10614.9 7694.31 6489.14 3731.56
threshold=0 1 2 11.605468750000002 -1.0000000180025095e-35 3 4 5 6 0.78662109375000011 7 8 9 10 11 12 13 14 15 16 17 18 19 20 -1.0000000180025095e-35 21 22 23 24 25
decision_type=9 9 1 2 2 9 9 1 9 2 9 9 9 9 9 9 1 9 9 9 9 9 1 9 2 9 9 9 9 9
left_child=19 2 3 -2 6 7 16 8 -6 -10 -7 -8 -12 -4 -11 -9 -3 -14 -19 -1 -13 -22 23 -23 26 -26 -25 -24 -29 -27
right_child=1 4 13 -5 5 10 11 15 9 14 12 20 17 -15 -16 -17 -18 18 -20 -21 21 22 27 24 25 29 -28 28 -30 -31
leaf_value=-0.27303440909404358 0.52899871401736853 0.24987561461844821 -0.16627274907147255 0.12603138655478535 0.037709022461419744 0.077471616441631225 -0.089333046362184698 -0.0033378630905816198 -0.20472164694522918 -0.26740864956282889 -0.08910894283530732 0.084645952324311755 -0.077454943628521525 0.078523033392181585 -0.71758287779976671 -0.1565752824854913 0.085223283373069447 -0.50811650245704021 -0.0031521190271111728 -0.080769562287450553 -0.071375081303768836 0.15633672305713051 0.11151517227556043 -0.28773410739676464 -0.20896022207714943 0.48500460469201001 -0.071633379680344778 -0.097855117892109267 0.010875312092125059 0.1454224790424791
leaf_weight=6955 3483 13639 5225 7050 3794 49037 35351 25750 9338 2547 44722 37989 49197 69748 3281 21939 39432 906 1935698 55515 32234 25595 46562 21593 4257 3634 41572 35113 1471887 4620
leaf_count=6955 3483 13639 5225 7050 3794 49037 35351 25750 9338 2547 44722 37989 49197 69748 3281 21939 39432 906 1935698 55515 32234 25595 46562 21593 4257 3634 41572 35113 1471887 4620
internal_value=0 0.00175143 0.0858193 0.259098 -6.41147e-05 -0.0088082 0.0102842 -0.125087 -0.253807 -0.326725 -0.00508072 0.0067469 -0.00707488 0.0614376 -0.522656 -0.0738588 0.127586 -0.00522679 -0.00339137 -0.102223 0.00871654 0.00700609 0.00853347 -0.0359598 -0.101015 0.123837 -0.145572 0.0114342 0.00834104 0.295408
internal_weight=0 4.04519e+06 85506 10533 3.95969e+06 2.14621e+06 1.81348e+06 66649 18960 15166 2.07956e+06 1.76041e+06 2.03052e+06 74973 5828 47689 53071 1.9858e+06 1.9366e+06 62470 1.72506e+06 1.68707e+06 1.65483e+06 101271 75676 12511 63165 1.55356e+06 1.507e+06 8254
internal_count=4107663 4045193 85506 10533 3959687 2146209 1813478 66649 18960 15166 2079560 1760407 2030523 74973 5828 47689 53071 1985801 1936604 62470 1725056 1687067 1654833 101271 75676 12511 63165 1553562 1507000 8254
cat_boundaries=0 46 92 93 135 175 176 216 258 301 345 383 423 465 466 511 517 542 587 633 634 676 718 760 802 848 890
cat_threshold=0 2048 512 1024 0 0 0 262144 0 67174400 34078720 1072 536870912 136 0 0 524288 0 0 0 0 2097152 557056 16 268435472 32768 1109393408 0 0 0 1024 0 0 0 268435712 0 8 256 32 0 0 0 0 0 0 256 328704 4194304 4096 8388608 0 0 2149580800 0 0 0 0 0 0 0 0 0 0 0 1 131082 514 8 0 134299648 262144 0 0 32768 0 0 0 0 81920 0 1 0 134217744 270336 0 0 16 0 268435456 4096 2147483648 2 4 0 16384 18432 0 4 0 0 0 0 2097152 1050624 2048 0 0 268435456 0 16777216 0 0 256 262144 32 0 0 0 0 0 0 0 1048576 0 0 0 2097152 2147483648 0 67108864 0 606490624 55595009 0 128 0 0 134219776 0 536870912 0 0 16777216 0 0 0 0 4194304 2097152 1024 0 1048576 0 0 0 16 0 0 16777408 0 0 0 0 0 0 0 0 4 0 536870976 0 2485125120 131072 2692763664 103829504 2 0 0 0 0 0 0 0 0 0 0 0 0 0 0 0 0 0 0 0 0 0 0 0 0 0 0 0 0 0 1048576 0 0 0 0 2147483648 0 0 0 0 20480 2048 64 0 1048576 0 0 0 32768 536870912 0 0 1 9437184 1610678274 524288 1048580 268435456 196608 0 0 0 0 0 2147483648 25169920 2 0 0 320 0 134217728 0 0 0 16 0 0 0 0 33792 6 2 268435456 8921088 131072 128 262144 0 0 268435456 512 285212672 0 0 262144 402653184 0 1 0 0 2 33554432 8388608 0 32 2099200 0 268435456 0 8320 0 0 0 0 0 0 71303168 0 0 536870912 0 0 33554433 67112960 536870912 4 134217728 524288 65536 16 2048 0 512 83886080 16386 512 128 0 0 0 0 2048 67108864 2097184 0 0 4194308 0 33554944 0 0 0 0 0 32768 0 4 0 16 536870912 4 8192 131076 0 0 0 268435520 0 4194304 0 0 0 0 0 0 0 0 0 0 0 0 0 0 0 0 0 0 0 0 0 0 0 16384 0 0 0 0 0 0 0 0 0 0 0 0 0 8192 0 0 18432 0 0 0 0 0 0 0 0 0 0 0 0 0 0 0 0 0 0 0 0 0 0 0 0 0 0 0 0 0 0 2097152 0 0 0 0 67125248 20971520 0 0 18432 0 0 0 0 0 0 0 0 0 0 0 0 0 0 0 0 0 0 0 0 0 0 0 0 0 0 0 0 0 0 2097152 0 0 0 0 606490624 51380225 0 128 12 0 4096 0 0 512 34 1073741824 0 0 33554433 0 0 0 32 0 0 0 1048576 0 1024 67108864 16384 260 4718592 0 0 0 134217728 1073741824 0 1073741824 262144 0 2148016128 4 1145044992 1073742080 0 8388608 2097152 0 0 0 0 256 0 4194304 0 4096 65536 131072 0 0 0 0 0 0 0 0 0 67174400 0 0 0 0 0 0 0 0 0 0 0 0 0 16 16 1627389952 32772 8470529 0 0 272 1048576 0 1024 0 0 0 131072 0 0 32 0 8388608 0 512 268435456 0 0 256 0 0 0 0 0 0 0 0 0 0 16777216 4096 536870912 2048 0 8913409 0 768 32 0 8193 0 0 16 0 0 262144 130 524288 0 0 8192 0 2097152 266240 0 1073741824 1 16384 0 67108864 0 33554432 1073760256 0 8 2097664 16416 0 4 4 16777216 1073741824 8192 0 1073741824 32 0 0 0 0 0 0 4 0 2048 4 8 0 0 0 33554432 0 576 2560 12582912 16 0 0 0 0 0 0 0 0 0 0 0 0 0 0 0 0 0 0 0 0 0 0 603980032 64 0 0 0 0 0 17410304 419825794 0 527393 0 0 0 131072 1024 229384 58851584 2215646224 2424307840 0 0 0 0 0 0 0 0 0 0 0 0 0 0 0 0 0 0 0 0 0 0 33622016 0 0 0 0 0 0 1109393408 1064 2147483648 8192 0 0 0 262144 67584 8521728 855654408 1073741840 2155872512 0 0 0 0 0 0 0 0 0 0 0 0 0 0 0 201326592 0 0 0 0 0 0 2048 128 0 0 0 0 0 33554432 1024 7593984 64 0 0 0 2498560 2048 196608 570819840 67108880 2147483648 0 0 0 0 0 0 0 0 0 0 0 0 0 0 0 201326592 0 0 0 0 0 0 34605056 432 0 0 0 0 0 35651584 4195328 3145728 64 0 0 0 0 128 0 0 0 80 0 0 256 32768 0 0 0 67371040 0 1048576 0 0 134742016 260 32 0 16384 16777216 0 0 256 0 738205696 536870912 0 33554432 0 0 0 67584 67584 0 533504 4194304 0 0 16 0 0 0 262144 196608 2048 805306368 1073774592 0 0 0 0 0 0 0 0 0 0 0 0 0 0 0 0 201326592 0 0 0 0 0 0 64 16 0 0 0 0 0 67502080 4194304 7856128 192
is_linear=0
shrinkage=0.25


Tree=15
num_leaves=31
num_cat=28
split_feature=1 8 3 1 1 1 1 3 1 1 1 8 1 1 1 1 1 1 3 1 1 1 1 1 1 1 1 1 1 1
split_gain=7689.39 6101.54 42530.2 54411 35877 27454 25453.3 23926.9 81305.1 47433.9 45677.9 41283.7 42230.7 35898.7 22999 19776.2 16134 15796.9 14207.2 41210.2 35490.7 24138.9 21705.7 15937.4 15545.4 13786.7 12437.1 12310.6 11126.6 10165.7
threshold=0 22.250000000000004 1 2 3 4 5 6 7 8 9 7.7500000000000009 10 11 12 13 14 15 16 17 18 19 20 21 22 23 24 25 26 27
decision_type=9 2 1 9 9 9 9 1 9 9 9 2 9 9 9 9 9 9 1 9 9 9 9 9 9 9 9 9 9 9
left_child=-1 7 3 -3 -4 -6 -5 8 -2 -10 -9 14 -13 -12 -11 -15 -14 -8 22 -20 -21 -22 -7 -23 -24 -16 -25 -18 -17 -19
right_child=1 2 4 6 5 18 17 10 9 11 13 12 16 15 25 28 27 29 19 20 21 23 24 26 -26 -27 -28 -29 -30 -31
leaf_value=-0.083216646508101899 -0.33304660944875075 -0.31962074263028473 -0.29591498805002175 0.42194213615946563 0.29458028094088612 0.31826538679860811 -0.1089815995262112 -0.249230558069823 0.34028569764731859 0.44796667364911053 0.19372554571998196 -0.3040904327581051 -0.15702965975090552 -0.1663158711813193 -0.23062240394403302 -0.13555514340822483 0.2159488131633204 0.27724168982651048 -0.45194692700953593 0.33539657889541008 -0.28762435762205124 -0.20917221221436877 -0.23212613986312866 -0.15554873662118221 0.0079762406721980671 0.14343261481321518 0.020256456206209434 0.025761841555653364 -0.010379095428434841 0.097700807297692607
leaf_weight=67896 33533 19442 26628 15602 19111 13877 22080 52261 37307 15366 51399 27097 27624 54569 6501 45527 23644 21120 15524 15384 25213 27273 17181 29463 855676 114042 171411 211266 1748275 295239
leaf_count=67896 33533 19442 26628 15602 19111 13877 22080 52261 37307 15366 51399 27097 27624 54569 6501 45527 23644 21120 15524 15384 25213 27273 17181 29463 855676 114042 171411 211266 1748275 295239
internal_value=0 0.00161334 0.0136708 0.0874639 -0.0089807 -0.00255785 0.109829 -0.0062178 0.0427907 0.0700277 -0.0186804 0.0463255 -0.00701371 -0.0123366 0.159999 -0.018068 0.0236593 0.0954263 -0.00741014 -0.0560441 -0.0331562 -0.0555493 0.00818107 -0.0298885 0.003247 0.123238 -0.00553546 0.0449147 -0.013557 0.109697
internal_weight=0 4.03864e+06 1.59022e+06 373483 1.21674e+06 1.19011e+06 354041 2.44841e+06 496380 462847 1.95203e+06 425540 289631 1.89977e+06 135909 1.84837e+06 262534 338439 1.171e+06 284268 268744 253360 886734 228147 872857 120543 200874 234910 1.7938e+06 316359
internal_count=4106531 4038635 1590224 373483 1216741 1190113 354041 2448411 496380 462847 1952031 425540 289631 1899770 135909 1848371 262534 338439 1171002 284268 268744 253360 886734 228147 872857 120543 200874 234910 1793802 316359
cat_boundaries=0 46 47 92 137 181 225 226 271 316 361 406 451 494 539 582 626 627 672 716 760 805 850 895 940 985 1030 1075 1117
cat_threshold=0 2048 0 0 4097 536870912 0 0 1 67174400 33554432 0 0 0 0 134217728 2147483648 536870912 8 268435456 2048 0 134547456 16 16 0 69206016 0 0 0 4194304 0 0 513 134217728 0 8 0 32 0 0 67112960 0 0 134217728 4 2 0 0 0 0 0 0 4227072 268435456 2147484176 0 0 0 0 0 0 0 0 0 0 0 0 0 0 32768 1032 0 0 0 32 0 0 1142947840 0 8388608 48 1024 33024 262144 606208 0 264 1091043328 2112 32768 16 0 262144 0 65536 0 0 0 0 0 0 0 0 0 0 0 0 0 0 0 0 0 0 0 10747904 2178940928 4 0 4194304 0 32 0 1048644 0 4784128 4104 0 132096 536871172 100728832 4 0 0 32768 0 262144 0 0 0 2048 0 0 4194304 0 0 0 2048 0 0 0 0 524288 0 0 0 0 0 2097152 0 32768 4096 9 0 0 0 0 0 67109376 0 268435456 16777248 2147484800 67174592 1073879040 0 0 2048 73728 16779264 268468224 0 262144 0 0 0 0 0 0 0 0 0 0 0 0 0 0 0 0 0 0 0 0 0 131072 3963617538 12 0 4194304 0 0 0 41943552 0 4194304 2147483648 0 0 8388608 33817088 134220804 524304 512 8194 8192 12 0 0 0 0 0 0 256 16 2155872384 0 0 0 0 0 0 0 0 0 0 0 0 0 0 71303168 4034920704 0 0 536870912 1114128 32 65792 2064 0 16777216 2147483648 536870912 0 8388608 0 2052 134217728 131072 4 0 512 0 0 0 0 0 0 268435456 1073774592 0 0 0 0 0 0 0 0 0 0 0 0 0 0 0 268435456 64 8 0 4096 0 67108864 262144 67108864 0 65536 65536 268435456 65732 134225920 524288 0 0 570985472 33554434 1081600 16 536871428 16384 0 0 0 2147485696 0 0 4 0 2048 0 0 0 0 524288 0 0 0 0 0 0 0 268468224 0 8 0 0 0 2048 262144 603979776 0 2097152 0 0 196 134225920 0 16842752 0 532480 33555458 1048832 268435456 0 0 0 262144 2048 0 0 0 0 0 0 0 0 0 0 0 0 0 0 0 0 0 0 0 224395266 4 0 0 0 0 0 0 432 4718592 8650752 8388608 1024 65796 131076 0 5505024 151011328 524288 0 4096 0 0 0 2105344 0 1048576 2147516416 0 2097152 0 0 0 0 0 0 0 0 0 0 0 0 0 0 71303168 1105199360 4 0 4194305 16 67108864 0 4 0 4194304 0 536870912 0 8454144 65536 3076 0 131072 4 0 4194816 0 0 0 262144 131072 0 0 0 0 0 0 0 0 0 0 0 0 0 0 0 0 0 0 10749952 201326600 0 0 0 0 0 0 1073741888 0 524288 529408 1082130432 0 524548 67108868 26214400 5251072 16793728 1024 160 0 524288 0 0 0 65536 72 16779264 2048 0 16 0 0 0 0 2048 0 0 0 0 0 0 537001984 0 0 0 0 0 12288 0 0 0 536936448 65536 1073741824 65536 0 262272 1048576 0 1644170240 2048 32 33554448 0 0 0 0 65536 65544 16777216 0 268435456 0 0 0 0 0 0 0 0 0 0 0 0 0 0 0 0 0 0 0 1073741825 1048584 1056776 1572864 0 1048576 515 0 1048576 0 263168 20972544 34332672 0 2147483648 0 0 2048 128 0 268435460 4 512 335560704 4 0 0 0 0 0 0 0 0 0 0 0 0 0 0 0 0 0 0 0 67108864 1074003968 256 0 2113536 8256 130 2048 0 268435456 0 1 81920 21644288 32 1 0 0 0 262144 0 0 0 0 0 0 0 0 0 0 0 0 0 0 0 0 0 0 0 2048 2080374850 0 0 0 67108880 0 64 0 32 1048576 2156397574 545259520 524288 8454144 4 256 1048576 16793664 0 0 4096 0 0 0 0 0 0 0 0 16 0 0 0 0 0 0 0 0 0 0 0 0 0 0 268582912 65536 0 0 0 0 0 0 536870912 0 0 536936448 269484034 5 171974784 256 32 4104 570427424 33554434 1048992 0 0 0 0 0 133120 302006272 1073741824 2147483648 0 0 0 0 0 0 0 0 0 0 0 0 0 0 67108864 34078984 0 0 0 524289 536870920 2147483649 1073742096 16 0 0 0 1048576 0 2097152 4194304 138412064 134217856 524288 4 0 0 0 0 0 0 0 0 2147483648 0 0 0 0 0 0 0 0 0 0 0 0 0 0 67108864 2080374786 2 0 0 16 0 0 1073741824 400 16777216 8388613 536870912 4096 8454144 20 0 0 151011392 524352 0 4198400 0 0 0 0 133120 142606464 16777224 0 8388992 0 0 0 0 0 0 0 0 0 0 0 0 0 0 4194304 0 0 0 536872960 1078263812 134217728 73728 33554432 128 0 262144 0 4194304 524288 0 3072 0 0 2147500032 536870912 512 0 0 0 0 65536 1048576 0 0 16 0 0 0 0 0 0 0 0 0 0 0 0 0 0 301989888 0 0 0 0 536870912 67108864 0 545259520 0 131072 34603008 0 0 8192 20973824 786560 584 0 33570818 1057024 268436480 0 0 0 131072 1024 163912 50596864 5120 268435456 0 0 0 0 0 0 0 0 0 0 0 0 0 0 0 0 0 0 16384 0 1048576 1056776 65540 0 0 0 524288 0 0 1073746176 16416 2147483648 134225920 0 0 4194304 0 0 0 1024 0 2147549184 536871168 2232487952 0 0 0 0 0 0 0 0 0 0 0 0 0 0 0 0 0 0 0 0 1069192 67 520 2048 0 16777216 513 0 0 0 1073741824 0 8192 2147483648 4 67108864 2 0 0 0 0 0 2147483648 0 257 16 0 0 0 0 0 0 0 0 0 0 0 0 0 0 536920064 0 1 0 4194304 0 0 0 0 0 536870912 0 8194 131073 104857600 536871168 111935488 264 0 2048 65696 268435456 0 0 0 64 0 270565384 0 2097152 4202560 1 0 167772192 0 8 0 0 32 0 0 0 0 0 0 16384 4 0 0 0 536870912 0 0 512 0 1082130432 537919520 0 0 33554440 135168 8388608 2048 0 0 65536 1024 0 0 4096 0 0 2048 0 16 0 0 0 0 0 0 0 0 0 0 0 0 0 0 0 0 8388608 0 0 0 0 0 65544 2 0 131072 589824 0 16 128 145536 16875600 135728672 2048
is_linear=0
shrinkage=0.25


Tree=16
num_leaves=31
num_cat=27
split_feature=1 1 17 1 1 3 1 1 1 1 1 1 1 1 3 1 1 3 1 1 3 1 3 1 5 4 15 15 1 3
split_gain=6404.42 5670.02 4837.52 19790 15958 9429.36 18148.4 10684 9606.36 8079.27 6919.86 6611.53 4924.66 4751.07 4242.27 9151.41 4086.87 4052.63 6150.16 4330.23 4038.21 4651.44 3860.43 3848.77 3457.98 5589.83 4998.44 5146.8 4871.54 4040.27
threshold=0 1 -0.93310546874999989 2 3 4 5 6 7 8 9 10 11 12 13 14 15 16 17 18 19 20 21 22 23 24 -0.15124511718749997 0.75781250000000011 25 26
decision_type=9 9 2 9 9 1 9 9 9 9 9 9 9 9 1 9 9 1 9 9 1 9 1 9 1 9 2 2 9 1
left_child=-1 22 3 14 20 6 -6 17 -8 -10 -4 -9 -12 -11 15 -3 -13 18 -7 -19 21 -5 -2 -22 -14 26 -26 -28 29 -27
right_child=1 2 10 4 5 7 8 11 9 13 12 16 24 -15 -16 -17 -18 19 -20 -21 23 -23 -24 -25 25 28 27 -29 -30 -31
leaf_value=-0.079606636728251287 0.43737218157911328 1.3455913203457992 -0.080511642416198168 0.090903702380794857 -0.27244294131262869 -0.86105532018329933 0.35401515939915545 0.18656133057104224 -0.13963465174288173 -0.065942187885756898 0.065543716307993743 -0.12249992302139889 0.0021958952854974375 0.12301476001038548 0.17325685202470925 0.32498317756162076 0.0088083904527360424 -0.5565647896201058 -0.016463715107158744 -0.17059558568830213 -0.99115226958209357 -0.26426358907928427 0.065079375110512316 -0.31070297432206262 0.053522877924920574 -0.35047090365941519 -0.62023276081283185 0.062431724277515428 -0.011535239137392614 -0.077897662878711943
leaf_weight=62152 1782 589 71877 3931 8522 570 8950 12795 9181 9164 65902 15311 2158453 89462 13936 6987 447125 3152 7462 4351 557 5548 61150 7076 1972 4240 2643 933 1004292 17089
leaf_count=62152 1782 589 71877 3931 8522 570 8950 12795 9181 9164 65902 15311 2158453 89462 13936 6987 447125 3152 7462 4351 557 5548 61150 7076 1972 4240 2643 933 1004292 17089
internal_value=0 0.00125188 7.50482e-05 0.0197195 0.0117046 0.0183216 0.0795357 0.00269338 0.105252 0.0845634 -0.00378994 0.00936514 -0.00209569 0.10545 0.255471 0.4062 0.00445749 -0.201248 -0.0775278 -0.333351 -0.226355 -0.117013 0.0756999 -0.361745 -0.00349351 -0.0154029 -0.265422 -0.442084 -0.0140472 -0.132247
internal_weight=0 4.045e+06 3.98207e+06 654669 633157 616045 125279 490766 116757 107807 3.3274e+06 475231 3.25552e+06 98626 21512 7576 462436 15535 8032 7503 17112 9479 62932 7633 3.18962e+06 1.03117e+06 5548 3576 1.02562e+06 21329
internal_count=4107154 4045002 3982070 654669 633157 616045 125279 490766 116757 107807 3327401 475231 3255524 98626 21512 7576 462436 15535 8032 7503 17112 9479 62932 7633 3189622 1031169 5548 3576 1025621 21329
cat_boundaries=0 43 88 132 177 178 222 268 313 358 402 446 489 533 534 573 617 618 661 707 708 747 748 787 788 794 840 841
